{"learner":{"attributes":{"scikit_learn":"{\"_estimator_type\": \"classifier\"}"},"feature_names":[],"feature_types":[],"gradient_booster":{"model":{"gbtree_model_param":{"num_parallel_tree":"1","num_trees":"100"},"iteration_indptr":[0,1,2,3,4,5,6,7,8,9,10,11,12,13,14,15,16,17,18,19,20,21,22,23,24,25,26,27,28,29,30,31,32,33,34,35,36,37,38,39,40,41,42,43,44,45,46,47,48,49,50,51,52,53,54,55,56,57,58,59,60,61,62,63,64,65,66,67,68,69,70,71,72,73,74,75,76,77,78,79,80,81,82,83,84,85,86,87,88,89,90,91,92,93,94,95,96,97,98,99,100],"tree_info":[0,0,0,0,0,0,0,0,0,0,0,0,0,0,0,0,0,0,0,0,0,0,0,0,0,0,0,0,0,0,0,0,0,0,0,0,0,0,0,0,0,0,0,0,0,0,0,0,0,0,0,0,0,0,0,0,0,0,0,0,0,0,0,0,0,0,0,0,0,0,0,0,0,0,0,0,0,0,0,0,0,0,0,0,0,0,0,0,0,0,0,0,0,0,0,0,0,0,0,0],"trees":[{"base_weights":[-4.152223E-2,1.9033029E0,-7.9302895E-1,2.7560797E0,-6.7058027E-1,3.4467807E-1,-1.1606759E0,2.9239511E0,-1.4175078E-1,-1.2012206E0,1.8439034E0,2.088661E0,-1.2926869E0,-1.1446578E-1,-1.2860843E0,3.0205617E0,6.3851845E-1,4.927431E-1,-3.2366532E-1,2.0445967E-1,-1.3383598E0,6.846274E-1,6.0317956E-2,2.7714772E0,-3.324411E-1,-4.2415676E-1,2.6463467E-1,1.8875289E0,-9.2381173E-1,3.470157E-1,-1.3250009E0,1.439132E-1,3.064777E0,5.7114923E-1,-2.6423973E-1,-8.3823755E-2,-4.1537026E-1,-8.3823755E-2,2.9311552E0,-3.6534205E-1,5.7114923E-1,3.486014E-1,-2.2796547E-1,-2.555717E-2,7.545926E-1,-1.2748065E0,6.1314577E-1,4.911482E-1,-2.8986397E-1,1.6148466E-1,-1.3482995E0,9.2851186E-1,2.0445967E-1,9.039753E-1,2.0445967E-1,-4.0231606E-1,-8.3823755E-2,-2.4780977E-1,5.356362E-1,-4.1496783E-1,-3.478126E-2],"categories":[],"categories_nodes":[],"categories_segments":[],"categories_sizes":[],"default_left":[0,0,0,0,0,0,0,0,0,0,0,0,0,0,0,0,0,0,0,0,0,0,0,0,0,0,0,0,0,0,0,0,0,0,0,0,0,0,0,0,0,0,0,0,0,0,0,0,0,0,0,0,0,0,0,0,0,0,0,0,0],"id":0,"left_children":[1,3,5,7,9,11,13,15,17,19,21,23,25,27,29,31,33,-1,-1,-1,35,-1,-1,37,39,-1,41,43,45,47,49,-1,51,-1,-1,-1,-1,-1,53,-1,-1,-1,-1,-1,-1,55,57,-1,-1,-1,59,-1,-1,-1,-1,-1,-1,-1,-1,-1,-1],"loss_changes":[5.007816E2,2.1147519E2,1.03755905E2,3.540686E1,3.500105E1,1.7722884E2,2.438536E1,1.3094299E1,9.952806E0,6.307375E0,2.9075623E0,5.048076E1,6.439129E0,3.5951473E1,1.10651245E1,5.833496E0,9.419592E0,0E0,0E0,0E0,5.8267975E-1,0E0,0E0,1.2262726E1,1.7143557E1,0E0,3.7905715E0,8.148212E0,9.254185E0,9.504812E0,7.8102417E0,0E0,2.4859009E0,0E0,0E0,0E0,0E0,0E0,2.0850372E0,0E0,0E0,0E0,0E0,0E0,0E0,4.8981667E-1,7.5403266E0,0E0,0E0,0E0,6.789337E0,0E0,0E0,0E0,0E0,0E0,0E0,0E0,0E0,0E0,0E0],"parents":[2147483647,0,0,1,1,2,2,3,3,4,4,5,5,6,6,7,7,8,8,9,9,10,10,11,11,12,12,13,13,14,14,15,15,16,16,20,20,23,23,24,24,26,26,27,27,28,28,29,29,30,30,32,32,38,38,45,45,46,46,50,50],"right_children":[2,4,6,8,10,12,14,16,18,20,22,24,26,28,30,32,34,-1,-1,-1,36,-1,-1,38,40,-1,42,44,46,48,50,-1,52,-1,-1,-1,-1,-1,54,-1,-1,-1,-1,-1,-1,56,58,-1,-1,-1,60,-1,-1,-1,-1,-1,-1,-1,-1,-1,-1],"split_conditions":[-3.6203176E-8,4.230703E-2,-3.2723945E-2,7.742401E-2,7.0253917E-4,-2.0127189E-8,-4.2804897E-2,5.0698265E-2,-6.5221256E-3,-3.7741266E-2,6.3839797E-3,4.5962904E-2,5.465039E-2,-3.4253906E-2,-1.306358E-1,-5.7719126E-2,-1.5546669E-2,4.927431E-1,-3.2366532E-1,2.0445967E-1,-2.1720491E-2,6.846274E-1,6.0317956E-2,-9.2990495E-2,-1.7331574E-2,-4.2415676E-1,-1.2684283E-2,-4.9733073E-2,5.288041E-2,-5.1544575E-33,-1.0253771E-1,1.439132E-1,9.8500594E-2,5.7114923E-1,-2.6423973E-1,-8.3823755E-2,-4.1537026E-1,-8.3823755E-2,3.321064E-2,-3.6534205E-1,5.7114923E-1,3.486014E-1,-2.2796547E-1,-2.555717E-2,7.545926E-1,7.369223E-2,-3.6119305E-2,4.911482E-1,-2.8986397E-1,1.6148466E-1,9.168034E-2,9.2851186E-1,2.0445967E-1,9.039753E-1,2.0445967E-1,-4.0231606E-1,-8.3823755E-2,-2.4780977E-1,5.356362E-1,-4.1496783E-1,-3.478126E-2],"split_indices":[319,231,302,337,88,319,86,119,331,13,0,231,151,235,259,14,3,0,0,0,2,0,0,308,161,0,24,260,132,223,35,0,220,0,0,0,0,0,86,0,0,0,0,0,0,0,162,0,0,0,284,0,0,0,0,0,0,0,0,0,0],"split_type":[0,0,0,0,0,0,0,0,0,0,0,0,0,0,0,0,0,0,0,0,0,0,0,0,0,0,0,0,0,0,0,0,0,0,0,0,0,0,0,0,0,0,0,0,0,0,0,0,0,0,0,0,0,0,0,0,0,0,0,0,0],"sum_hessian":[3.4060483E2,9.4504326E1,2.4610051E2,7.0932304E1,2.3572018E1,6.0119457E1,1.8598105E2,6.703968E1,3.8926268E0,1.9895647E1,3.6763697E0,2.8978443E1,3.1141014E1,2.0111904E1,1.6586914E2,6.4012085E1,3.0275984E0,1.0812852E0,2.8113415E0,1.0812852E0,1.8814362E1,2.5950844E0,1.0812852E0,2.2490732E1,6.487711E0,2.8978443E1,2.1625705E0,5.406426E0,1.4705479E1,3.6763697E0,1.6219278E2,1.2975422E0,6.271454E1,1.5137992E0,1.5137992E0,1.0812852E0,1.7733076E1,1.0812852E0,2.1409447E1,4.973912E0,1.5137992E0,1.0812852E0,1.0812852E0,1.5137992E0,3.8926268E0,1.2110394E1,2.5950844E0,1.7300563E0,1.9463134E0,1.7300563E0,1.6046272E2,6.1633255E1,1.0812852E0,2.0328161E1,1.0812852E0,1.1029109E1,1.0812852E0,1.2975422E0,1.2975422E0,1.5592133E2,4.5413976E0],"tree_param":{"num_deleted":"0","num_feature":"384","num_nodes":"61","size_leaf_vector":"1"}},{"base_weights":[-7.299016E-2,1.1962452E0,-6.703303E-1,1.6524874E0,-5.3987694E-1,-1.460192E-1,-1.240166E0,1.7632954E0,1.04659155E-1,1.460851E0,-1.0171555E0,1.4421179E0,-9.7957766E-1,-1.2649772E0,1.2937081E-1,-1.4434068E-1,1.8074529E0,-8.981066E-1,4.254311E-1,5.3574586E-1,5.0260186E-2,-1.2002348E0,2.7356207E-1,1.8381437E0,1.3504533E-1,-1.2165219E0,5.594221E-1,-1.580991E-1,-1.2893815E0,1.8318119E0,7.848385E-2,-8.136959E-2,-3.0189413E-1,-3.730505E-1,-7.616157E-2,1.9652057E0,3.689225E-1,-8.540348E-1,1.3380313E0,-1.2685684E0,2.8771955E-1,1.5543721E0,-4.9769616E-1,-2.1795414E-1,1.5867117E-1,-7.893102E-2,-3.8954028E-1,5.5461806E-1,1.2068502E-1,1.3369858E-1,6.1966896E-1,-1.4071156E-1,3.310362E-1,3.9587364E-2,-3.2245576E-1,7.988225E-3,5.2845556E-1,4.6374403E-2,-3.882546E-1,1.2969723E-1,5.1897824E-1,-3.141039E-1,2.9363778E-1],"categories":[],"categories_nodes":[],"categories_segments":[],"categories_sizes":[],"default_left":[0,0,0,0,0,0,0,0,0,0,0,0,0,0,0,0,0,0,0,0,0,0,0,0,0,0,0,0,0,0,0,0,0,0,0,0,0,0,0,0,0,0,0,0,0,0,0,0,0,0,0,0,0,0,0,0,0,0,0,0,0,0,0],"id":1,"left_children":[1,3,5,7,9,11,13,15,17,19,21,23,25,27,-1,-1,29,31,-1,-1,-1,33,-1,35,37,39,41,43,45,47,-1,-1,-1,-1,-1,49,51,53,55,57,-1,59,61,-1,-1,-1,-1,-1,-1,-1,-1,-1,-1,-1,-1,-1,-1,-1,-1,-1,-1,-1,-1],"loss_changes":[2.4178455E2,8.174669E1,6.458431E1,1.3721741E1,2.2490503E1,1.523654E2,4.847702E0,8.36232E0,9.808045E0,1.6539459E0,7.574827E0,2.0278023E1,2.8166763E1,2.5643768E0,0E0,0E0,2.3205109E0,1.7835379E-2,0E0,0E0,0E0,3.8820076E-1,0E0,4.941513E0,1.3398326E1,8.648499E0,1.2071302E1,1.6926215E0,5.920563E-1,1.022232E0,0E0,0E0,0E0,0E0,0E0,3.304634E0,2.762469E0,1.5054469E0,2.7505207E0,2.5523224E0,0E0,3.8987637E-1,5.863195E0,0E0,0E0,0E0,0E0,0E0,0E0,0E0,0E0,0E0,0E0,0E0,0E0,0E0,0E0,0E0,0E0,0E0,0E0,0E0,0E0],"parents":[2147483647,0,0,1,1,2,2,3,3,4,4,5,5,6,6,7,7,8,8,9,9,10,10,11,11,12,12,13,13,16,16,17,17,21,21,23,23,24,24,25,25,26,26,27,27,28,28,29,29,35,35,36,36,37,37,38,38,39,39,41,41,42,42],"right_children":[2,4,6,8,10,12,14,16,18,20,22,24,26,28,-1,-1,30,32,-1,-1,-1,34,-1,36,38,40,42,44,46,48,-1,-1,-1,-1,-1,50,52,54,56,58,-1,60,62,-1,-1,-1,-1,-1,-1,-1,-1,-1,-1,-1,-1,-1,-1,-1,-1,-1,-1,-1,-1],"split_conditions":[-3.6203176E-8,4.230703E-2,-4.2262886E-33,7.30437E-2,-2.1167884E-2,1.3740288E-2,9.384199E-2,-7.6406E-2,-1.1960565E-2,-2.1674432E-2,8.819789E-3,3.1522658E-2,1.2697354E-2,-9.737942E-2,1.2937081E-1,-1.4434068E-1,1.22272655E-1,-2.3005072E-2,4.254311E-1,5.3574586E-1,5.0260186E-2,3.192947E-2,2.7356207E-1,5.117009E-2,-2.0926224E-2,4.3517385E-2,-2.2708753E-2,-6.7369062E-3,-9.831648E-2,8.225731E-2,7.848385E-2,-8.136959E-2,-3.0189413E-1,-3.730505E-1,-7.616157E-2,-6.016526E-2,2.9226705E-2,-5.778699E-2,-2.259428E-2,-2.0090278E-2,2.8771955E-1,-4.994849E-2,1.7947357E-2,-2.1795414E-1,1.5867117E-1,-7.893102E-2,-3.8954028E-1,5.5461806E-1,1.2068502E-1,1.3369858E-1,6.1966896E-1,-1.4071156E-1,3.310362E-1,3.9587364E-2,-3.2245576E-1,7.988225E-3,5.2845556E-1,4.6374403E-2,-3.882546E-1,1.2969723E-1,5.1897824E-1,-3.141039E-1,2.9363778E-1],"split_indices":[319,231,223,188,273,231,132,214,339,134,162,331,162,80,0,0,245,93,0,0,0,14,0,130,321,88,302,14,305,197,0,0,0,0,0,190,17,101,178,188,0,171,364,0,0,0,0,0,0,0,0,0,0,0,0,0,0,0,0,0,0,0,0],"split_type":[0,0,0,0,0,0,0,0,0,0,0,0,0,0,0,0,0,0,0,0,0,0,0,0,0,0,0,0,0,0,0,0,0,0,0,0,0,0,0,0,0,0,0,0,0,0,0,0,0,0,0,0,0,0,0,0,0,0,0,0,0,0,0],"sum_hessian":[3.168498E2,1.0107719E2,2.1577261E2,8.008066E1,2.0996529E1,1.1302944E2,1.0274318E2,7.460082E1,5.4798317E0,3.6471343E0,1.7349394E1,3.8653946E1,7.4375496E1,1.0147991E2,1.2632663E0,1.2484602E0,7.335236E1,3.2867448E0,2.1930866E0,2.610416E0,1.0367184E0,1.6190592E1,1.1588037E0,2.9353817E1,9.300126E0,6.463399E1,9.741506E0,2.350465E0,9.912945E1,7.20323E1,1.3200606E0,1.0000085E0,2.2867365E0,1.5182482E1,1.0081095E0,2.670658E1,2.6472375E0,5.263013E0,4.037113E0,6.3531044E1,1.1029449E0,4.7759957E0,4.9655094E0,1.2547743E0,1.0956908E0,1.1328194E0,9.799663E1,7.090013E1,1.1321714E0,1.9916176E0,2.4714962E1,1.4053944E0,1.2418431E0,1.0366387E0,4.2263746E0,1.2449085E0,2.7922049E0,1.0341804E0,6.2496864E1,1.1146175E0,3.6613784E0,3.831066E0,1.1344435E0],"tree_param":{"num_deleted":"0","num_feature":"384","num_nodes":"63","size_leaf_vector":"1"}},{"base_weights":[-7.081325E-2,8.480797E-1,-6.600227E-1,1.2483702E0,-6.636258E-1,-1.8212241E-1,-1.139328E0,1.3670324E0,-5.603949E-1,-1.0402454E0,1.0814097E0,8.422595E-1,-1.0668875E0,-1.1614501E0,7.124309E-2,1.4628645E0,2.4030817E-1,-3.043039E-1,2.1402018E-1,1.6242032E-1,-3.4806013E-1,4.236119E-1,3.5533633E-3,1.1616242E0,-6.012936E-1,1.0068081E-1,-3.5700414E-1,-1.1793181E0,-3.9661075E-3,1.4855658E0,-2.092609E-2,1.0538675E0,-2.946142E-1,-2.1025696E-1,1.3240638E0,-3.2186767E-1,3.3126792E-1,-2.5127226E-1,3.119029E-1,-5.2450318E-2,-3.6011618E-1,-1.0170786E-2,4.524537E-1,7.787043E-2,3.5721532E-1,4.6285066E-1,4.103441E-2],"categories":[],"categories_nodes":[],"categories_segments":[],"categories_sizes":[],"default_left":[0,0,0,0,0,0,0,0,0,0,0,0,0,0,0,0,0,0,0,0,0,0,0,0,0,0,0,0,0,0,0,0,0,0,0,0,0,0,0,0,0,0,0,0,0,0,0],"id":2,"left_children":[1,3,5,7,9,11,13,15,17,19,21,23,25,27,-1,29,31,-1,-1,-1,-1,-1,-1,33,35,37,-1,39,-1,41,-1,43,-1,-1,45,-1,-1,-1,-1,-1,-1,-1,-1,-1,-1,-1,-1],"loss_changes":[1.474358E2,6.5228676E1,3.7783012E1,1.8900665E1,1.6197388E1,7.724748E1,2.792099E0,8.241272E0,4.141607E0,4.303606E0,1.5963016E0,1.895397E1,6.681061E0,1.656044E0,0E0,2.648529E0,8.42836E0,0E0,0E0,0E0,0E0,0E0,0E0,1.0840939E1,7.4844656E0,5.518979E0,0E0,1.4878616E0,0E0,2.5292969E0,0E0,2.285657E-1,0E0,0E0,7.706829E0,0E0,0E0,0E0,0E0,0E0,0E0,0E0,0E0,0E0,0E0,0E0,0E0],"parents":[2147483647,0,0,1,1,2,2,3,3,4,4,5,5,6,6,7,7,8,8,9,9,10,10,11,11,12,12,13,13,15,15,16,16,23,23,24,24,25,25,27,27,29,29,31,31,34,34],"right_children":[2,4,6,8,10,12,14,16,18,20,22,24,26,28,-1,30,32,-1,-1,-1,-1,-1,-1,34,36,38,-1,40,-1,42,-1,44,-1,-1,46,-1,-1,-1,-1,-1,-1,-1,-1,-1,-1,-1,-1],"split_conditions":[-3.4406288E-8,5.918946E-2,-2.0127189E-8,7.907709E-2,1.5401037E-2,3.3787977E-2,9.483932E-2,5.256421E-2,4.5662936E-2,-3.7595313E-2,2.6438437E-2,5.5517513E-2,-4.2272475E-2,1.2413131E-1,7.124309E-2,5.0155163E-2,-2.1002742E-2,-3.043039E-1,2.1402018E-1,1.6242032E-1,-3.4806013E-1,4.236119E-1,3.5533633E-3,-9.492879E-2,-2.8845627E-4,-3.1817593E-2,-3.5700414E-1,-7.3101304E-2,-3.9661075E-3,-8.453491E-2,-2.092609E-2,6.525679E-3,-2.946142E-1,-2.1025696E-1,2.164283E-2,-3.2186767E-1,3.3126792E-1,-2.5127226E-1,3.119029E-1,-5.2450318E-2,-3.6011618E-1,-1.0170786E-2,4.524537E-1,7.787043E-2,3.5721532E-1,4.6285066E-1,4.103441E-2],"split_indices":[319,231,319,337,146,231,57,7,185,211,210,273,277,34,0,371,302,0,0,0,0,0,0,142,161,252,0,306,0,162,0,5,0,0,3,0,0,0,0,0,0,0,0,0,0,0,0],"split_type":[0,0,0,0,0,0,0,0,0,0,0,0,0,0,0,0,0,0,0,0,0,0,0,0,0,0,0,0,0,0,0,0,0,0,0,0,0,0,0,0,0,0,0,0,0,0,0],"sum_hessian":[2.7027917E2,1.05425316E2,1.6485387E2,8.349148E1,2.193384E1,8.3238914E1,8.1614944E1,7.85805E1,4.910978E0,1.8372505E1,3.561335E0,3.8598072E1,4.4640842E1,8.047826E1,1.1366884E0,7.214589E1,6.4346104E0,3.7708244E0,1.1401535E0,1.0474994E0,1.7325006E1,2.4758017E0,1.0855334E0,3.176569E1,6.832384E0,4.2759166E0,4.0364925E1,7.9218445E1,1.2598138E0,7.112311E1,1.0227801E0,3.9460735E0,2.4885368E0,2.2823567E0,2.9483332E1,5.642961E0,1.1894231E0,2.1928282E0,2.0830884E0,1.8185073E0,7.739993E1,1.0356367E0,7.008747E1,1.0056809E0,2.9403925E0,2.4643068E1,4.8402634E0],"tree_param":{"num_deleted":"0","num_feature":"384","num_nodes":"47","size_leaf_vector":"1"}},{"base_weights":[-7.002361E-2,7.3064965E-1,-6.0075855E-1,1.0668255E0,-6.9900763E-1,-8.862994E-1,1.24003954E-1,-3.5760233E-1,1.2086802E0,-1.0485717E0,2.6069915E-1,-9.5160496E-1,4.6639365E-1,-4.7321713E-1,8.972208E-1,-2.658419E-1,2.3954745E-1,1.2689143E0,-1.6437878E-1,-3.320011E-1,-3.6670476E-2,-9.844672E-1,1.9356927E-1,2.867227E-1,-1.4352834E-1,-8.93067E-1,3.9899325E-1,-2.5489083E-1,1.2930487E0,1.3122885E0,7.946243E-2,-1.0283824E0,1.6229878E-1,-1.04515E0,1.1861643E-1,1.2318954E0,-2.5756288E-1,-3.133036E-2,4.2155272E-1,4.0056625E-1,5.4803133E-2,-2.0602109E-1,2.2179368E-1,5.9095565E-2,-3.179071E-1,2.531527E-1,-2.067626E-1,-3.2492653E-1,-8.2004316E-2,9.414796E-2,4.121262E-1],"categories":[],"categories_nodes":[],"categories_segments":[],"categories_sizes":[],"default_left":[0,0,0,0,0,0,0,0,0,0,0,0,0,0,0,0,0,0,0,0,0,0,0,0,0,0,0,0,0,0,0,0,0,0,0,0,0,0,0,0,0,0,0,0,0,0,0,0,0,0,0],"id":3,"left_children":[1,3,5,7,9,11,13,15,17,19,-1,21,23,25,27,-1,-1,29,-1,-1,-1,31,-1,-1,-1,33,35,-1,37,39,41,43,45,47,-1,49,-1,-1,-1,-1,-1,-1,-1,-1,-1,-1,-1,-1,-1,-1,-1],"loss_changes":[9.573499E1,4.3926785E1,2.8132828E1,1.5210312E1,1.0617668E1,9.035782E0,1.8502363E1,5.226509E0,7.757004E0,6.6843796E-1,0E0,5.5212708E0,2.838553E0,8.684538E0,1.3133749E1,0E0,0E0,3.2403946E0,0E0,0E0,0E0,4.7814255E0,0E0,0E0,0E0,3.4820786E0,9.521974E0,0E0,2.432413E0,1.3747177E0,2.1990404E0,3.5995483E0,3.0440917E0,1.2213707E-1,0E0,2.5549793E-1,0E0,0E0,0E0,0E0,0E0,0E0,0E0,0E0,0E0,0E0,0E0,0E0,0E0,0E0,0E0],"parents":[2147483647,0,0,1,1,2,2,3,3,4,4,5,5,6,6,7,7,8,8,9,9,11,11,12,12,13,13,14,14,17,17,21,21,25,25,26,26,28,28,29,29,30,30,31,31,32,32,33,33,35,35],"right_children":[2,4,6,8,10,12,14,16,18,20,-1,22,24,26,28,-1,-1,30,-1,-1,-1,32,-1,-1,-1,34,36,-1,38,40,42,44,46,48,-1,50,-1,-1,-1,-1,-1,-1,-1,-1,-1,-1,-1,-1,-1,-1,-1],"split_conditions":[-3.4406288E-8,7.11632E-2,-1.1819198E-2,-6.420926E-2,1.1156877E-2,6.9104515E-2,1.2697354E-2,2.2161204E-2,9.7176425E-2,6.149522E-2,2.6069915E-1,1.0043928E-1,-1.4080986E-2,-8.985942E-3,1.6205275E-33,-2.658419E-1,2.3954745E-1,4.573446E-2,-1.6437878E-1,-3.320011E-1,-3.6670476E-2,8.143628E-2,1.9356927E-1,2.867227E-1,-1.4352834E-1,3.5541337E-2,-3.0139732E-33,-2.5489083E-1,-7.575615E-2,3.5172075E-2,-4.0454775E-2,-7.746985E-2,-2.4880923E-2,5.989478E-2,1.1861643E-1,-7.6850434E-4,-2.5756288E-1,-3.133036E-2,4.2155272E-1,4.0056625E-1,5.4803133E-2,-2.0602109E-1,2.2179368E-1,5.9095565E-2,-3.179071E-1,2.531527E-1,-2.067626E-1,-3.2492653E-1,-8.2004316E-2,9.414796E-2,4.121262E-1],"split_indices":[319,188,381,98,162,376,162,161,231,247,0,132,215,321,127,0,0,3,0,0,0,276,0,0,0,51,223,0,321,113,88,86,184,23,0,147,0,0,0,0,0,0,0,0,0,0,0,0,0,0,0],"split_type":[0,0,0,0,0,0,0,0,0,0,0,0,0,0,0,0,0,0,0,0,0,0,0,0,0,0,0,0,0,0,0,0,0,0,0,0,0,0,0,0,0,0,0,0,0,0,0,0,0,0,0],"sum_hessian":[2.2325485E2,8.884521E1,1.3440965E2,7.2136505E1,1.6708702E1,9.626173E1,3.8147926E1,6.3954954E0,6.574101E1,1.3933662E1,2.77504E0,9.211127E1,4.150458E0,2.1742407E1,1.640552E1,4.5492134E0,1.8462819E0,6.3829914E1,1.9110961E0,1.2928153E1,1.0055091E0,9.062964E1,1.4816304E0,2.7266786E0,1.4237794E0,1.4661156E1,7.081251E0,2.8188722E0,1.3586647E1,6.148457E1,2.3453445E0,8.738641E1,3.2432213E0,1.328222E1,1.378935E0,4.272104E0,2.8091474E0,1.0142498E0,1.2572397E1,6.008281E1,1.4017624E0,1.0663643E0,1.2789801E0,2.0452337E0,8.534118E1,1.8063928E0,1.4368285E0,1.2275488E1,1.0067325E0,1.0016906E0,3.2704132E0],"tree_param":{"num_deleted":"0","num_feature":"384","num_nodes":"51","size_leaf_vector":"1"}},{"base_weights":[-6.3832134E-2,6.6002303E-1,-5.6732625E-1,1.0369483E0,-9.417062E-1,-8.618842E-1,8.546725E-2,1.1150811E0,-3.8607988E-1,6.52448E-2,-3.123342E-1,1.0585752E-1,-9.903565E-1,6.131392E-1,-6.5712637E-1,-9.643746E-2,1.1524394E0,-2.3523973E-1,1.0517573E-1,8.025333E-1,-6.945433E-1,-1.0215759E0,8.7191716E-2,-2.4460033E-1,8.719785E-1,4.093798E-1,-9.307735E-1,-4.7723213E-3,1.1782001E0,3.172758E-1,-2.507066E-2,-1.5567598E-2,-2.5193352E-1,6.474693E-2,-1.049638E0,1.11786E0,-5.2721673E-1,-1.3486545E-1,2.8543118E-1,-3.1124237E-1,1.477175E-2,3.6270025E-1,5.6878645E-2,2.50611E-2,-3.210742E-1,3.8392287E-1,1.3799804E-2,-1.9899781E-1,-3.0295046E-2],"categories":[],"categories_nodes":[],"categories_segments":[],"categories_sizes":[],"default_left":[0,0,0,0,0,0,0,0,0,0,0,0,0,0,0,0,0,0,0,0,0,0,0,0,0,0,0,0,0,0,0,0,0,0,0,0,0,0,0,0,0,0,0,0,0,0,0,0,0],"id":4,"left_children":[1,3,5,7,9,11,13,15,17,-1,-1,19,21,23,25,-1,27,-1,-1,29,31,33,-1,-1,35,37,39,-1,41,-1,-1,-1,-1,-1,43,45,47,-1,-1,-1,-1,-1,-1,-1,-1,-1,-1,-1,-1],"loss_changes":[6.764435E1,4.6969162E1,2.110878E1,7.3400345E0,1.9590759E0,9.488049E0,1.4087656E1,3.5457764E0,1.4411807E0,0E0,0E0,5.9933023E0,2.9652863E0,8.451075E0,4.755855E0,0E0,1.7609482E0,0E0,0E0,1.3711381E0,4.2987227E-1,2.4960022E0,0E0,0E0,6.8527374E0,2.1761856E0,1.3304529E0,0E0,1.4957504E0,0E0,0E0,0E0,0E0,0E0,1.5858917E0,2.6835442E0,1.3029951E-1,0E0,0E0,0E0,0E0,0E0,0E0,0E0,0E0,0E0,0E0,0E0,0E0],"parents":[2147483647,0,0,1,1,2,2,3,3,4,4,5,5,6,6,7,7,8,8,11,11,12,12,13,13,14,14,16,16,19,19,20,20,21,21,24,24,25,25,26,26,28,28,34,34,35,35,36,36],"right_children":[2,4,6,8,10,12,14,16,18,-1,-1,20,22,24,26,-1,28,-1,-1,30,32,34,-1,-1,36,38,40,-1,42,-1,-1,-1,-1,-1,44,46,48,-1,-1,-1,-1,-1,-1,-1,-1,-1,-1,-1,-1],"split_conditions":[-2.890368E-2,-1.9131017E-8,5.49436E-2,4.573446E-2,-8.8484526E-2,-3.641828E-2,-2.799556E-2,-8.876796E-2,-2.1820314E-2,6.52448E-2,-3.123342E-1,-4.4694148E-2,1.06924474E-1,1.6552156E-33,-4.2113606E-2,-9.643746E-2,-6.953291E-2,-2.3523973E-1,1.0517573E-1,-2.1034106E-8,-1.8613668E-2,-1.0846209E-1,8.7191716E-2,-2.4460033E-1,6.263912E-2,3.1020137E-2,5.5107925E-2,-4.7723213E-3,8.5059375E-2,3.172758E-1,-2.507066E-2,-1.5567598E-2,-2.5193352E-1,6.474693E-2,-1.0836677E-1,4.9246613E-2,5.5884197E-3,-1.3486545E-1,2.8543118E-1,-3.1124237E-1,1.477175E-2,3.6270025E-1,5.6878645E-2,2.50611E-2,-3.210742E-1,3.8392287E-1,1.3799804E-2,-1.9899781E-1,-3.0295046E-2],"split_indices":[302,319,92,3,215,7,259,161,339,0,0,79,326,127,35,0,5,0,0,319,356,269,0,0,188,284,376,0,359,0,0,0,0,0,231,273,15,0,0,0,0,0,0,0,0,0,0,0,0],"split_type":[0,0,0,0,0,0,0,0,0,0,0,0,0,0,0,0,0,0,0,0,0,0,0,0,0,0,0,0,0,0,0,0,0,0,0,0,0,0,0,0,0,0,0,0,0,0,0,0,0],"sum_hessian":[1.8357578E2,7.518056E1,1.08395226E2,6.1144413E1,1.403614E1,7.447142E1,3.39238E1,5.81671E1,2.9773164E0,1.0148026E0,1.30213375E1,8.748411E0,6.5723015E1,1.9933668E1,1.3990132E1,1.2815863E0,5.688551E1,1.8910596E0,1.0862566E0,4.675848E0,4.072563E0,6.435706E1,1.3659441E0,2.7280784E0,1.7205591E1,2.7553763E0,1.1234756E1,1.2354565E0,5.5650055E1,3.4805052E0,1.1953428E0,1.0009129E0,3.07165E0,1.2787714E0,6.3078297E1,1.4804973E1,2.400618E0,1.1321132E0,1.6232631E0,1.0078774E1,1.1559815E0,5.3752422E1,1.8976309E0,1.0721883E0,6.2006107E1,1.2693874E1,2.111098E0,1.3979566E0,1.0026615E0],"tree_param":{"num_deleted":"0","num_feature":"384","num_nodes":"49","size_leaf_vector":"1"}},{"base_weights":[-6.311722E-2,2.9113016E-1,-9.618809E-1,8.468321E-1,-6.859289E-1,-1.0030465E0,9.905966E-2,-2.9692012E-1,9.8048913E-1,-9.596792E-1,4.0563828E-1,-1.0381416E0,5.4485474E-2,-2.684132E-1,5.8504796E-1,1.037456E0,-4.9736595E-1,6.461184E-2,-1.0180881E0,8.3152765E-1,-1.8090905E-1,-3.181659E-1,-3.5414957E-2,-2.5569898E-5,2.3737016E-1,1.0839454E0,-1.1034404E-1,-2.5968235E-2,-1.9759437E-1,1.3312371E-2,-3.1773955E-1,-3.3114094E-2,3.197348E-1,3.3534235E-1,-1.0301747E-1],"categories":[],"categories_nodes":[],"categories_segments":[],"categories_sizes":[],"default_left":[0,0,0,0,0,0,0,0,0,0,0,0,0,0,0,0,0,0,0,0,0,0,0,0,0,0,0,0,0,0,0,0,0,0,0],"id":5,"left_children":[1,3,5,7,9,11,-1,13,15,17,19,21,-1,-1,23,25,27,-1,29,31,-1,-1,-1,-1,-1,33,-1,-1,-1,-1,-1,-1,-1,-1,-1],"loss_changes":[4.837332E1,5.982587E1,2.6150398E0,1.099263E1,1.2375578E1,1.9289017E0,0E0,4.7898817E0,5.812443E0,2.4407253E0,4.2583723E0,7.162056E-1,0E0,0E0,4.6741223E-1,4.3773193E0,1.4248139E-1,0E0,1.3992119E0,1.567194E0,0E0,0E0,0E0,0E0,0E0,3.2453308E0,0E0,0E0,0E0,0E0,0E0,0E0,0E0,0E0,0E0],"parents":[2147483647,0,0,1,1,2,2,3,3,4,4,5,5,7,7,8,8,9,9,10,10,11,11,14,14,15,15,16,16,18,18,19,19,25,25],"right_children":[2,4,6,8,10,12,-1,14,16,18,20,22,-1,-1,24,26,28,-1,30,32,-1,-1,-1,-1,-1,34,-1,-1,-1,-1,-1,-1,-1,-1,-1],"split_conditions":[-4.2262886E-33,3.3787977E-2,9.384199E-2,-6.453478E-2,2.0673814E-4,8.96875E-2,9.905966E-2,-1.0875474E-2,5.10851E-2,-4.1365743E-2,4.917363E-3,9.5064186E-2,5.4485474E-2,-2.684132E-1,3.271306E-2,6.729618E-2,2.9182534E-3,6.461184E-2,-1.4012258E-2,-3.1916883E-2,-1.8090905E-1,-3.181659E-1,-3.5414957E-2,-2.5569898E-5,2.3737016E-1,9.990981E-2,-1.1034404E-1,-2.5968235E-2,-1.9759437E-1,1.3312371E-2,-3.1773955E-1,-3.3114094E-2,3.197348E-1,3.3534235E-1,-1.0301747E-1],"split_indices":[223,231,132,339,88,5,0,196,259,211,302,298,0,0,247,3,85,0,188,300,0,0,0,0,0,7,0,0,0,0,0,0,0,0,0],"split_type":[0,0,0,0,0,0,0,0,0,0,0,0,0,0,0,0,0,0,0,0,0,0,0,0,0,0,0,0,0,0,0,0,0,0,0],"sum_hessian":[1.5005402E2,1.0811615E2,4.1937866E1,6.900365E1,3.9112507E1,4.085977E1,1.0780951E0,7.0921364E0,6.1911507E1,3.136693E1,7.745579E0,3.9804276E1,1.0554968E0,4.218456E0,2.8736806E0,5.9900517E1,2.0109892E0,1.3580856E0,3.0008844E1,5.5695643E0,2.176015E0,3.870876E1,1.0955166E0,1.0092173E0,1.8644633E0,5.820367E1,1.6968457E0,1.0001606E0,1.0108287E0,1.1131243E0,2.889572E1,1.2146046E0,4.3549595E0,5.7066673E1,1.1369989E0],"tree_param":{"num_deleted":"0","num_feature":"384","num_nodes":"35","size_leaf_vector":"1"}},{"base_weights":[-6.520681E-2,2.5294092E-1,-9.184577E-1,7.379439E-1,-6.249636E-1,-9.887795E-1,3.9328974E-2,9.027808E-1,-2.2934654E-1,6.765505E-1,-8.4685695E-1,5.249239E-2,-3.1017107E-1,-2.5710946E-1,9.910282E-1,-7.5181097E-1,4.1588432E-1,2.816636E-1,-5.1824577E-2,-9.9620944E-1,1.4018701E-1,-2.1130659E-1,1.6324705E-1,1.0515426E0,-1.4927348E-1,4.3751197E-3,-2.7937162E-1,-1.2635945E-1,2.54909E-1,-3.0754933E-1,-4.720172E-2,2.1608633E-1,-1.5703292E-1,-2.4597803E-3,3.263588E-1],"categories":[],"categories_nodes":[],"categories_segments":[],"categories_sizes":[],"default_left":[0,0,0,0,0,0,0,0,0,0,0,0,0,0,0,0,0,0,0,0,0,0,0,0,0,0,0,0,0,0,0,0,0,0,0],"id":6,"left_children":[1,3,5,7,9,11,-1,13,15,17,19,-1,-1,21,23,25,27,-1,-1,29,31,-1,-1,33,-1,-1,-1,-1,-1,-1,-1,-1,-1,-1,-1],"loss_changes":[3.3382404E1,3.866918E1,2.5934906E0,9.496426E0,9.951494E0,1.8300076E0,0E0,5.370674E0,3.44109E0,1.339885E0,4.2951355E0,0E0,0E0,1.9341998E0,4.7258034E0,7.6770663E-1,2.0995185E0,0E0,0E0,4.3639565E-1,2.1407237E0,0E0,0E0,1.7467918E0,0E0,0E0,0E0,0E0,0E0,0E0,0E0,0E0,0E0,0E0,0E0],"parents":[2147483647,0,0,1,1,2,2,3,3,4,4,5,5,7,7,8,8,9,9,10,10,13,13,14,14,15,15,16,16,19,19,20,20,23,23],"right_children":[2,4,6,8,10,12,-1,14,16,18,20,-1,-1,22,24,26,28,-1,-1,30,32,-1,-1,34,-1,-1,-1,-1,-1,-1,-1,-1,-1,-1,-1],"split_conditions":[-2.0127189E-8,3.3787977E-2,4.119923E-2,3.0791758E-2,-2.0692214E-2,-9.030622E-2,3.9328974E-2,-7.614103E-2,2.0717809E-2,-4.9277417E-2,1.2697354E-2,5.249239E-2,-3.1017107E-1,-1.0534547E-2,1.0177453E-1,-4.5423914E-2,-2.3412269E-2,2.816636E-1,-5.1824577E-2,9.880024E-2,-2.2700995E-2,-2.1130659E-1,1.6324705E-1,-6.1241217E-2,-1.4927348E-1,4.3751197E-3,-2.7937162E-1,-1.2635945E-1,2.54909E-1,-3.0754933E-1,-4.720172E-2,2.1608633E-1,-1.5703292E-1,-2.4597803E-3,3.263588E-1],"split_indices":[319,231,369,3,239,286,0,161,382,113,162,0,0,339,188,66,351,0,0,243,7,0,0,151,0,0,0,0,0,0,0,0,0,0,0],"split_type":[0,0,0,0,0,0,0,0,0,0,0,0,0,0,0,0,0,0,0,0,0,0,0,0,0,0,0,0,0,0,0,0,0,0,0],"sum_hessian":[1.2111785E2,8.8735146E1,3.238271E1,5.726063E1,3.1474514E1,3.0403528E1,1.9791801E0,4.8980507E1,8.280123E0,4.286003E0,2.718851E1,1.0274645E0,2.9376064E1,3.3277915E0,4.5652718E1,4.4840555E0,3.796067E0,3.1939836E0,1.0920196E0,2.3607157E1,3.581353E0,2.213321E0,1.1144702E0,4.4151485E1,1.501229E0,1.0249366E0,3.459119E0,1.3056902E0,2.4903767E0,2.2604837E1,1.0023197E0,1.8653842E0,1.7159687E0,1.4886954E0,4.2662792E1],"tree_param":{"num_deleted":"0","num_feature":"384","num_nodes":"35","size_leaf_vector":"1"}},{"base_weights":[-6.502607E-2,4.7008336E-1,-5.233641E-1,-2.6325986E-1,7.4498713E-1,1.8541773E-1,-7.844436E-1,1.3369219E-1,9.811923E-1,-2.4057066E-1,5.1627344E-1,-8.9466685E-1,9.6331656E-2,-6.5426433E-1,6.604926E-1,2.3495466E-2,1.0408721E0,-4.2879948E-1,9.0295666E-1,6.600595E-2,-9.431546E-1,1.7730929E-1,-1.4907959E-1,-2.626872E-1,2.7192054E-2,-8.330619E-2,8.653579E-1,7.7351555E-2,3.191052E-1,7.4664466E-2,-2.1834068E-1,1.3752308E-2,3.0632496E-1,-9.761557E-1,-2.7561614E-2,2.858169E-1,6.869998E-2,-4.8025783E-2,-2.9939514E-1],"categories":[],"categories_nodes":[],"categories_segments":[],"categories_sizes":[],"default_left":[0,0,0,0,0,0,0,0,0,0,0,0,0,0,0,0,0,0,0,0,0,0,0,0,0,0,0,0,0,0,0,0,0,0,0,0,0,0,0],"id":7,"left_children":[1,3,5,-1,7,9,11,13,15,-1,17,19,21,23,25,-1,27,29,31,-1,33,-1,-1,-1,-1,-1,35,-1,-1,-1,-1,-1,-1,37,-1,-1,-1,-1,-1],"loss_changes":[2.4411144E1,1.7689161E1,1.0053738E1,0E0,5.4616165E0,5.3866053E0,3.903614E0,5.3938346E0,1.41539E0,0E0,4.7762055E0,2.1016674E0,1.8422369E0,9.5193887E-1,1.7128141E0,0E0,1.8975067E-1,1.0251296E0,8.487201E-1,0E0,8.5913277E-1,0E0,0E0,0E0,0E0,0E0,1.4493036E-1,0E0,0E0,0E0,0E0,0E0,0E0,4.1755295E-1,0E0,0E0,0E0,0E0,0E0],"parents":[2147483647,0,0,1,1,2,2,4,4,5,5,6,6,7,7,8,8,10,10,11,11,12,12,13,13,14,14,16,16,17,17,18,18,20,20,26,26,33,33],"right_children":[2,4,6,-1,8,10,12,14,16,-1,18,20,22,24,26,-1,28,30,32,-1,34,-1,-1,-1,-1,-1,36,-1,-1,-1,-1,-1,-1,38,-1,-1,-1,-1,-1],"split_conditions":[-2.2708753E-2,1.6552156E-33,-1.392528E-2,-2.6325986E-1,-2.461625E-2,3.0210418E-33,6.633022E-2,-1.7378602E-2,-8.4159255E-2,-2.4057066E-1,-5.7124812E-2,-8.657752E-2,-1.8469674E-3,2.218875E-2,-3.5358023E-2,2.3495466E-2,-9.396061E-2,-6.132243E-3,-3.3001885E-2,6.600595E-2,9.880024E-2,1.7730929E-1,-1.4907959E-1,-2.626872E-1,2.7192054E-2,-8.330619E-2,9.255032E-3,7.7351555E-2,3.191052E-1,7.4664466E-2,-2.1834068E-1,1.3752308E-2,3.0632496E-1,-7.118316E-2,-2.7561614E-2,2.858169E-1,6.869998E-2,-4.8025783E-2,-2.9939514E-1],"split_indices":[302,127,277,0,161,127,284,88,251,0,339,86,35,5,237,0,381,292,20,0,243,0,0,0,0,0,3,0,0,0,0,0,0,225,0,0,0,0,0],"split_type":[0,0,0,0,0,0,0,0,0,0,0,0,0,0,0,0,0,0,0,0,0,0,0,0,0,0,0,0,0,0,0,0,0,0,0,0,0,0,0],"sum_hessian":[9.7528175E1,4.4983887E1,5.254429E1,7.250211E0,3.7733677E1,1.4222547E1,3.832174E1,1.0953137E1,2.6780539E1,3.2124434E0,1.1010103E1,3.404541E1,4.2763295E0,4.291785E0,6.661353E0,1.8038015E0,2.4976736E1,3.1652236E0,7.8448796E0,1.2717385E0,3.2773674E1,2.3339243E0,1.942405E0,3.1733043E0,1.1184804E0,1.1301894E0,5.5311637E0,1.0553105E0,2.3921427E1,1.0203217E0,2.1449018E0,1.1183434E0,6.7265363E0,3.1409359E1,1.3643132E0,4.4263268E0,1.1048367E0,1.035356E0,3.0374002E1],"tree_param":{"num_deleted":"0","num_feature":"384","num_nodes":"39","size_leaf_vector":"1"}},{"base_weights":[-6.1267424E-2,5.222272E-1,-4.4962E-1,-3.1806284E-1,8.903959E-1,-7.42136E-1,6.32112E-2,5.2246946E-1,-8.105682E-1,9.7754306E-1,-5.604797E-2,-8.1249326E-1,6.6972986E-2,-4.958452E-1,5.3567666E-1,-4.9273357E-2,2.3269485E-1,-5.0486337E-2,-2.6650894E-1,3.0690414E-1,6.873791E-2,-8.594048E-1,5.1343348E-2,1.2848742E-1,-7.0364046E-1,8.3613807E-1,-1.9616105E-1,-2.9950532E-1,-9.459601E-1,-2.5410736E-1,6.1089117E-3,-1.5775187E-2,9.5564824E-1,7.7062085E-2,-2.18686E-1,-5.700643E-2,-2.9753518E-1,7.253823E-2,3.0958003E-1],"categories":[],"categories_nodes":[],"categories_segments":[],"categories_sizes":[],"default_left":[0,0,0,0,0,0,0,0,0,0,0,0,0,0,0,0,0,0,0,0,0,0,0,0,0,0,0,0,0,0,0,0,0,0,0,0,0,0,0],"id":8,"left_children":[1,3,5,7,9,11,13,15,17,19,-1,21,-1,23,25,-1,-1,-1,-1,-1,-1,27,-1,-1,29,31,-1,33,35,-1,-1,-1,37,-1,-1,-1,-1,-1,-1],"loss_changes":[1.856326E1,1.0425572E1,7.4124556E0,4.8632064E0,2.3473663E0,2.3103466E0,5.21958E0,9.220259E-1,2.0797491E-1,4.9705696E-1,0E0,1.5051365E0,0E0,2.0507326E0,4.351611E0,0E0,0E0,0E0,0E0,0E0,0E0,1.0860844E0,0E0,0E0,8.2861614E-1,9.9954414E-1,0E0,1.4408776E0,6.4326096E-1,0E0,0E0,0E0,1.8235111E-1,0E0,0E0,0E0,0E0,0E0,0E0],"parents":[2147483647,0,0,1,1,2,2,3,3,4,4,5,5,6,6,7,7,8,8,9,9,11,11,13,13,14,14,21,21,24,24,25,25,27,27,28,28,32,32],"right_children":[2,4,6,8,10,12,14,16,18,20,-1,22,-1,24,26,-1,-1,-1,-1,-1,-1,28,-1,-1,30,32,-1,34,36,-1,-1,-1,38,-1,-1,-1,-1,-1,-1],"split_conditions":[-3.4406288E-8,-2.550829E-2,1.829436E-2,3.5612874E-3,6.354561E-2,7.552521E-2,-1.4794766E-2,-5.2223913E-3,-3.868003E-2,7.11632E-2,-5.604797E-2,9.779999E-2,6.6972986E-2,-5.645178E-2,-2.2084966E-33,-4.9273357E-2,2.3269485E-1,-5.0486337E-2,-2.6650894E-1,3.0690414E-1,6.873791E-2,-3.641828E-2,5.1343348E-2,1.2848742E-1,4.3349046E-2,-3.44871E-2,-1.9616105E-1,-2.0127189E-8,-5.766431E-2,-2.5410736E-1,6.1089117E-3,-1.5775187E-2,-2.6329404E-2,7.7062085E-2,-2.18686E-1,-5.700643E-2,-2.9753518E-1,7.253823E-2,3.0958003E-1],"split_indices":[319,88,151,231,7,57,321,351,347,188,0,284,0,277,223,0,0,0,0,0,0,7,0,0,162,77,0,319,152,0,0,0,47,0,0,0,0,0,0],"split_type":[0,0,0,0,0,0,0,0,0,0,0,0,0,0,0,0,0,0,0,0,0,0,0,0,0,0,0,0,0,0,0,0,0,0,0,0,0,0,0],"sum_hessian":[7.988403E1,3.1784105E1,4.8099926E1,9.724798E0,2.2059307E1,3.0344477E1,1.775545E1,3.5704553E0,6.154343E0,2.0493889E1,1.565419E0,2.8430796E1,1.9136814E0,8.10982E0,9.64563E0,1.0563996E0,2.5140557E0,1.0066435E0,5.1476994E0,1.8974192E1,1.5196971E0,2.725715E1,1.1736455E0,1.2939699E0,6.8158503E0,7.937766E0,1.7078636E0,4.2467175E0,2.3010433E1,5.5473223E0,1.2685281E0,1.0072778E0,6.930488E0,2.0250194E0,2.221698E0,1.6092931E0,2.140114E1,1.0716759E0,5.8588123E0],"tree_param":{"num_deleted":"0","num_feature":"384","num_nodes":"39","size_leaf_vector":"1"}},{"base_weights":[-5.740536E-2,-4.414177E-1,4.8068607E-1,-7.9607016E-1,4.500125E-2,8.167175E-1,-6.878945E-1,-9.264595E-2,-9.048833E-1,-4.3781787E-1,5.668651E-1,-5.1331908E-2,9.209765E-1,-2.5801975E-1,4.5835152E-2,-1.4399128E-1,1.0889332E-1,-9.4472104E-1,-3.597755E-2,2.9154867E-1,-6.814396E-1,7.787981E-1,-1.04904495E-1,9.9285567E-1,-2.3796529E-2,-2.9082692E-1,-7.892036E-2,1.7312992E-1,-3.8309813E-2,6.3283807E-3,-2.532309E-1,9.988557E-4,2.720839E-1,9.0709224E-2,3.063436E-1],"categories":[],"categories_nodes":[],"categories_segments":[],"categories_sizes":[],"default_left":[0,0,0,0,0,0,0,0,0,0,0,0,0,0,0,0,0,0,0,0,0,0,0,0,0,0,0,0,0,0,0,0,0,0,0],"id":9,"left_children":[1,3,5,7,9,11,13,15,17,19,21,-1,23,-1,-1,-1,-1,25,-1,27,29,31,-1,33,-1,-1,-1,-1,-1,-1,-1,-1,-1,-1,-1],"loss_changes":[1.4059016E1,6.871638E0,1.1708346E1,1.6743565E0,4.6967306E0,2.4752073E0,1.127557E0,9.1388166E-1,5.052109E-1,1.9284747E0,2.0050855E0,0E0,1.5535641E0,0E0,0E0,0E0,0E0,5.9482574E-2,0E0,4.4934803E-1,8.859787E-1,7.477555E-1,0E0,6.6495895E-2,0E0,0E0,0E0,0E0,0E0,0E0,0E0,0E0,0E0,0E0,0E0],"parents":[2147483647,0,0,1,1,2,2,3,3,4,4,5,5,6,6,7,7,8,8,9,9,10,10,12,12,17,17,19,19,20,20,21,21,23,23],"right_children":[2,4,6,8,10,12,14,16,18,20,22,-1,24,-1,-1,-1,-1,26,-1,28,30,32,-1,34,-1,-1,-1,-1,-1,-1,-1,-1,-1,-1,-1],"split_conditions":[8.43831E-3,9.195556E-3,-2.0127189E-8,-2.2562532E-2,5.49436E-2,-3.0013008E-2,8.980223E-2,2.5813546E-2,8.10778E-2,-4.7759052E-2,-5.537319E-33,-5.1331908E-2,7.676526E-2,-2.5801975E-1,4.5835152E-2,-1.4399128E-1,1.0889332E-1,7.14693E-2,-3.597755E-2,-2.8357629E-2,-2.6027268E-2,-5.203033E-2,-1.04904495E-1,-3.069103E-2,-2.3796529E-2,-2.9082692E-1,-7.892036E-2,1.7312992E-1,-3.8309813E-2,6.3283807E-3,-2.532309E-1,9.988557E-4,2.720839E-1,9.0709224E-2,3.063436E-1],"split_indices":[162,5,319,277,92,382,300,151,177,302,223,0,345,0,0,0,0,364,0,152,268,339,0,380,0,0,0,0,0,0,0,0,0,0,0],"split_type":[0,0,0,0,0,0,0,0,0,0,0,0,0,0,0,0,0,0,0,0,0,0,0,0,0,0,0,0,0,0,0,0,0,0,0],"sum_hessian":[6.601148E1,3.862568E1,2.73858E1,2.1970324E1,1.6655357E1,2.1503468E1,5.8823314E0,3.1913323E0,1.8778992E1,8.734969E0,7.920388E0,1.9916831E0,1.9511784E1,4.8632703E0,1.019061E0,1.6960694E0,1.4952629E0,1.7678265E1,1.1007267E0,2.137848E0,6.5971212E0,6.554973E0,1.3654151E0,1.821065E1,1.3011352E0,1.6652636E1,1.0256279E0,1.0477269E0,1.0901209E0,1.4039321E0,5.193189E0,1.0751082E0,5.479865E0,1.1767489E0,1.7033901E1],"tree_param":{"num_deleted":"0","num_feature":"384","num_nodes":"35","size_leaf_vector":"1"}},{"base_weights":[-5.4832045E-2,1.8118693E-1,-8.630766E-1,5.6215405E-1,-5.6428343E-1,-2.814626E-1,2.3973505E-3,7.651163E-1,-1.4797325E-1,2.528364E-1,-7.809566E-1,-6.686207E-2,8.380103E-1,1.5834954E-1,-5.119129E-1,-1.0509877E-1,1.7800528E-1,4.641135E-2,-8.792076E-1,7.735203E-2,9.217843E-1,-2.260829E-1,7.430256E-2,-2.8159973E-1,-3.9582353E-2,1.3107285E-1,-1.0355819E-1,2.8982556E-1,1.9728819E-2],"categories":[],"categories_nodes":[],"categories_segments":[],"categories_sizes":[],"default_left":[0,0,0,0,0,0,0,0,0,0,0,0,0,0,0,0,0,0,0,0,0,0,0,0,0,0,0,0,0],"id":10,"left_children":[1,3,5,7,9,-1,-1,11,13,15,17,-1,19,-1,21,-1,-1,-1,23,25,27,-1,-1,-1,-1,-1,-1,-1,-1],"loss_changes":[1.0785004E1,1.2799171E1,8.429928E-1,4.377593E0,2.917509E0,0E0,0E0,1.855629E0,2.0938447E0,1.0243716E0,1.2748361E0,0E0,1.3172607E0,0E0,1.1646242E0,0E0,0E0,0E0,3.8090324E-1,6.451034E-1,6.7736435E-1,0E0,0E0,0E0,0E0,0E0,0E0,0E0,0E0],"parents":[2147483647,0,0,1,1,2,2,3,3,4,4,7,7,8,8,9,9,10,10,12,12,14,14,18,18,19,19,20,20],"right_children":[2,4,6,8,10,-1,-1,12,14,16,18,-1,20,-1,22,-1,-1,-1,24,26,28,-1,-1,-1,-1,-1,-1,-1,-1],"split_conditions":[-3.0139732E-33,3.3787977E-2,6.901112E-2,2.164283E-2,-2.207761E-2,-2.814626E-1,2.3973505E-3,-8.670453E-2,-4.901134E-2,7.752226E-3,-4.3736232E-8,-6.686207E-2,-3.243308E-2,1.5834954E-1,6.031627E-2,-1.0509877E-1,1.7800528E-1,4.641135E-2,6.4173624E-2,1.9983118E-3,8.5720584E-2,-2.260829E-1,7.430256E-2,-2.8159973E-1,-3.9582353E-2,1.3107285E-1,-1.0355819E-1,2.8982556E-1,1.9728819E-2],"split_indices":[223,231,45,3,3,0,0,161,342,380,319,0,151,0,132,0,0,0,307,134,188,0,0,0,0,0,0,0,0],"split_type":[0,0,0,0,0,0,0,0,0,0,0,0,0,0,0,0,0,0,0,0,0,0,0,0,0,0,0,0,0],"sum_hessian":[5.471696E1,4.29506E1,1.1766362E1,2.858722E1,1.43633795E1,1.0761107E1,1.0052544E0,2.2172607E1,6.4146123E0,2.9754462E0,1.1387934E1,1.3821219E0,2.0790485E1,2.087666E0,4.3269463E0,1.0632498E0,1.9121965E0,1.0275749E0,1.0360358E1,2.2533817E0,1.8537104E1,3.2884502E0,1.038496E0,9.359513E0,1.0008457E0,1.1990663E0,1.0543153E0,1.7502726E1,1.0343783E0],"tree_param":{"num_deleted":"0","num_feature":"384","num_nodes":"29","size_leaf_vector":"1"}},{"base_weights":[-5.4321356E-2,3.038653E-1,-5.497994E-1,5.9922874E-1,-5.289101E-1,1.073402E-2,-7.996771E-1,-1.4804022E-1,8.5424465E-1,-7.79587E-1,8.396609E-2,4.6357793E-1,-4.435523E-1,-8.45196E-2,-2.7464512E-1,-1.8949102E-1,3.6839178E-1,-2.1415971E-2,2.841834E-1,-2.5335306E-1,-6.781594E-2,-6.5715252E-3,1.926767E-1,-1.9259714E-1,2.2679154E-2,9.194375E-2,-1.2959123E-1,-3.9015487E-2,1.834588E-1],"categories":[],"categories_nodes":[],"categories_segments":[],"categories_sizes":[],"default_left":[0,0,0,0,0,0,0,0,0,0,0,0,0,0,0,0,0,0,0,0,0,0,0,0,0,0,0,0,0],"id":11,"left_children":[1,3,5,7,9,11,13,15,17,19,-1,21,23,25,-1,-1,27,-1,-1,-1,-1,-1,-1,-1,-1,-1,-1,-1,-1],"loss_changes":[8.374087E0,7.077325E0,2.7761488E0,4.0821133E0,1.7848196E0,1.6619577E0,1.0555992E0,1.7645507E0,1.4130554E0,3.0574322E-2,0E0,3.6401397E-1,4.6524525E-1,5.410645E-1,0E0,0E0,5.155457E-1,0E0,0E0,0E0,0E0,0E0,0E0,0E0,0E0,0E0,0E0,0E0,0E0],"parents":[2147483647,0,0,1,1,2,2,3,3,4,4,5,5,6,6,7,7,8,8,9,9,11,11,12,12,13,13,16,16],"right_children":[2,4,6,8,10,12,14,16,18,20,-1,22,24,26,-1,-1,28,-1,-1,-1,-1,-1,-1,-1,-1,-1,-1,-1,-1],"split_conditions":[-5.920223E-3,-2.2153552E-8,-4.6405282E-2,-4.1015252E-2,4.2054564E-2,-7.3764655E-3,-4.737789E-2,-1.06992405E-2,-4.1326847E-2,5.78712E-2,8.396609E-2,-2.0696344E-2,4.559105E-2,-2.7224634E-2,-2.7464512E-1,-1.8949102E-1,-1.024253E-2,-2.1415971E-2,2.841834E-1,-2.5335306E-1,-6.781594E-2,-6.5715252E-3,1.926767E-1,-1.9259714E-1,2.2679154E-2,9.194375E-2,-1.2959123E-1,-3.9015487E-2,1.834588E-1],"split_indices":[302,319,259,161,151,277,35,279,162,10,0,162,92,66,0,0,88,0,0,0,0,0,0,0,0,0,0,0,0],"split_type":[0,0,0,0,0,0,0,0,0,0,0,0,0,0,0,0,0,0,0,0,0,0,0,0,0,0,0,0,0],"sum_hessian":[4.5243618E1,2.6484438E1,1.8759178E1,1.975744E1,6.7269983E0,6.0791907E0,1.2679987E1,5.1337075E0,1.46237335E1,5.162927E0,1.5640712E0,3.0341854E0,3.045005E0,2.008212E0,1.0671775E1,2.535934E0,2.5977736E0,1.3568172E0,1.3266915E1,4.1504555E0,1.0124717E0,1.0523262E0,1.9818593E0,2.031768E0,1.0132368E0,1.0003759E0,1.0078361E0,1.0042089E0,1.5935646E0],"tree_param":{"num_deleted":"0","num_feature":"384","num_nodes":"29","size_leaf_vector":"1"}},{"base_weights":[-5.457278E-2,3.8207516E-1,-4.3249384E-1,-2.0966521E-1,6.2403566E-1,-6.9230807E-1,1.1380728E-1,-3.2020025E-2,8.0595654E-1,2.191705E-2,-8.0479026E-1,4.7326633E-1,-3.8643005E-1,-1.2919857E-1,1.2836027E-1,2.7288902E-1,3.559312E-2,-5.614828E-2,-2.703695E-1,1.9220233E-1,-2.6000356E-2,2.3177937E-2,-1.7511925E-1],"categories":[],"categories_nodes":[],"categories_segments":[],"categories_sizes":[],"default_left":[0,0,0,0,0,0,0,0,0,0,0,0,0,0,0,0,0,0,0,0,0,0,0],"id":12,"left_children":[1,3,5,-1,7,9,11,13,15,-1,17,19,21,-1,-1,-1,-1,-1,-1,-1,-1,-1,-1],"loss_changes":[6.579017E0,5.2913685E0,3.102558E0,0E0,1.8991809E0,1.3138623E0,1.5719656E0,9.8531306E-1,7.704544E-1,0E0,5.9338665E-1,5.190139E-1,3.9096618E-1,0E0,0E0,0E0,0E0,0E0,0E0,0E0,0E0,0E0,0E0],"parents":[2147483647,0,0,1,1,2,2,4,4,5,5,6,6,7,7,8,8,10,10,11,11,12,12],"right_children":[2,4,6,-1,8,10,12,14,16,-1,18,20,22,-1,-1,-1,-1,-1,-1,-1,-1,-1,-1],"split_conditions":[-9.230813E-3,1.6552156E-33,1.4521029E-2,-2.0966521E-1,-2.2868015E-2,-4.1717605E-8,1.2190724E-2,-9.667113E-3,1.743687E-2,2.191705E-2,-6.853526E-2,-2.4706704E-8,2.4056954E-2,-1.2919857E-1,1.2836027E-1,2.7288902E-1,3.559312E-2,-5.614828E-2,-2.703695E-1,1.9220233E-1,-2.6000356E-2,2.3177937E-2,-1.7511925E-1],"split_indices":[225,127,57,0,77,319,370,339,86,0,256,319,65,0,0,0,0,0,0,0,0,0,0],"split_type":[0,0,0,0,0,0,0,0,0,0,0,0,0,0,0,0,0,0,0,0,0,0,0],"sum_hessian":[3.7867E1,1.7563377E1,2.0303623E1,2.8669317E0,1.4696445E1,1.3578559E1,6.7250643E0,3.369416E0,1.132703E1,1.7847885E0,1.1793771E1,3.944531E0,2.780533E0,1.8389332E0,1.5304828E0,9.561348E0,1.7656819E0,1.9900126E0,9.803758E0,2.9256344E0,1.0188965E0,1.0115759E0,1.7689571E0],"tree_param":{"num_deleted":"0","num_feature":"384","num_nodes":"23","size_leaf_vector":"1"}},{"base_weights":[-5.215117E-2,4.1540304E-1,-3.7631887E-1,6.876243E-1,-4.5568544E-1,2.0643018E-1,-6.4060795E-1,-7.7780835E-2,8.209006E-1,3.399029E-2,-2.0569533E-1,-1.4315447E-1,5.139437E-1,-8.10463E-1,-1.9945797E-2,2.665385E-1,3.3569757E-2,2.2010018E-1,-4.2904332E-2,-2.5960946E-1,-3.8854726E-2,-1.5459296E-1,1.1412639E-1],"categories":[],"categories_nodes":[],"categories_segments":[],"categories_sizes":[],"default_left":[0,0,0,0,0,0,0,0,0,0,0,0,0,0,0,0,0,0,0,0,0,0,0],"id":13,"left_children":[1,3,5,7,9,11,13,-1,15,-1,-1,-1,17,19,21,-1,-1,-1,-1,-1,-1,-1,-1],"loss_changes":[5.2340016E0,3.6787574E0,3.2601266E0,1.627739E0,5.985388E-1,1.7363418E0,1.4825263E0,0E0,3.8286638E-1,0E0,0E0,0E0,8.8062227E-1,3.0425406E-1,1.0051653E0,0E0,0E0,0E0,0E0,0E0,0E0,0E0,0E0],"parents":[2147483647,0,0,1,1,2,2,3,3,4,4,5,5,6,6,8,8,12,12,13,13,14,14],"right_children":[2,4,6,8,10,12,14,-1,16,-1,-1,-1,18,20,22,-1,-1,-1,-1,-1,-1,-1,-1],"split_conditions":[-1.1645625E-2,-2.0127189E-8,-2.8443677E-2,-6.041251E-2,-1.2817259E-3,3.0210418E-33,4.514815E-3,-7.7780835E-2,3.6774695E-2,3.399029E-2,-2.0569533E-1,-1.4315447E-1,4.7251504E-2,5.7588834E-2,-2.1820314E-2,2.665385E-1,3.3569757E-2,2.2010018E-1,-4.2904332E-2,-2.5960946E-1,-3.8854726E-2,-1.5459296E-1,1.1412639E-1],"split_indices":[7,319,3,9,64,127,381,0,3,0,0,0,188,5,339,0,0,0,0,0,0,0,0],"split_type":[0,0,0,0,0,0,0,0,0,0,0,0,0,0,0,0,0,0,0,0,0,0,0],"sum_hessian":[3.2501434E1,1.319236E1,1.9309074E1,1.0211736E1,2.980624E0,6.093039E0,1.3216036E1,1.1433289E0,9.068407E0,1.0039474E0,1.9766765E0,1.7192818E0,4.3737574E0,1.0136266E1,3.0797706E0,8.04836E0,1.0200475E0,3.1900587E0,1.1836984E0,9.129378E0,1.006887E0,1.2482495E0,1.831521E0],"tree_param":{"num_deleted":"0","num_feature":"384","num_nodes":"23","size_leaf_vector":"1"}},{"base_weights":[-5.2351434E-2,2.5841922E-1,-5.0363714E-1,4.9789235E-1,-4.2392418E-1,-6.676941E-1,9.270897E-2,6.479106E-1,-1.4522284E-1,-1.8059558E-1,3.6267236E-2,-3.6098582E-3,-7.693896E-1,7.741758E-1,-4.013648E-3,-4.8636954E-2,-2.4791841E-1,3.1368546E-2,2.5313973E-1],"categories":[],"categories_nodes":[],"categories_segments":[],"categories_sizes":[],"default_left":[0,0,0,0,0,0,0,0,0,0,0,0,0,0,0,0,0,0,0],"id":14,"left_children":[1,3,5,7,9,11,-1,13,-1,-1,-1,-1,15,17,-1,-1,-1,-1,-1],"loss_changes":[4.1520495E0,3.0940664E0,1.8107421E0,2.3052943E0,5.6981814E-1,6.7945814E-1,0E0,1.0253386E0,0E0,0E0,0E0,0E0,1.7502117E-1,3.8841534E-1,0E0,0E0,0E0,0E0,0E0],"parents":[2147483647,0,0,1,1,2,2,3,3,4,4,5,5,7,7,12,12,13,13],"right_children":[2,4,6,8,10,12,-1,14,-1,-1,-1,-1,16,18,-1,-1,-1,-1,-1],"split_conditions":[-2.4583366E-2,2.2302423E-2,4.4546552E-2,-2.6101202E-33,-9.143324E-4,-3.864768E-2,9.270897E-2,4.7401138E-2,-1.4522284E-1,-1.8059558E-1,3.6267236E-2,-3.6098582E-3,-7.1076125E-2,-2.8326608E-2,-4.013648E-3,-4.8636954E-2,-2.4791841E-1,3.1368546E-2,2.5313973E-1],"split_indices":[259,130,162,223,321,134,0,231,0,0,0,0,119,382,0,0,0,0,0],"split_type":[0,0,0,0,0,0,0,0,0,0,0,0,0,0,0,0,0,0,0],"sum_hessian":[2.7677397E1,1.6643494E1,1.1033904E1,1.25198765E1,4.123617E0,9.329004E0,1.7048997E0,1.1155768E1,1.3641077E0,3.028788E0,1.0948291E0,1.4028345E0,7.9261694E0,9.223874E0,1.9318944E0,1.0100685E0,6.916101E0,1.1043566E0,8.119517E0],"tree_param":{"num_deleted":"0","num_feature":"384","num_nodes":"19","size_leaf_vector":"1"}},{"base_weights":[-5.1057782E-2,4.6587533E-1,-3.1574726E-1,-2.2484049E-1,7.5438464E-1,-6.024041E-1,9.4296075E-2,6.672238E-2,-1.5281114E-1,2.4688359E-1,5.8526825E-2,-7.1415967E-1,1.4442095E-2,-4.2161798E-1,3.5816002E-1,-2.4646871E-1,-5.2064836E-2,-1.5840639E-1,-3.0155642E-2,-7.234546E-2,5.378993E-1,8.416969E-3,2.0329645E-1],"categories":[],"categories_nodes":[],"categories_segments":[],"categories_sizes":[],"default_left":[0,0,0,0,0,0,0,0,0,0,0,0,0,0,0,0,0,0,0,0,0,0,0],"id":15,"left_children":[1,3,5,7,9,11,13,-1,-1,-1,-1,15,-1,17,19,-1,-1,-1,-1,-1,21,-1,-1],"loss_changes":[3.6063766E0,1.9562515E0,2.092231E0,5.4747254E-1,9.07557E-2,7.85177E-1,1.2386357E0,0E0,0E0,0E0,0E0,3.7279844E-1,0E0,5.498582E-2,7.5736886E-1,0E0,0E0,0E0,0E0,0E0,3.2242966E-1,0E0,0E0],"parents":[2147483647,0,0,1,1,2,2,3,3,4,4,5,5,6,6,11,11,13,13,14,14,20,20],"right_children":[2,4,6,8,10,12,14,-1,-1,-1,-1,16,-1,18,20,-1,-1,-1,-1,-1,22,-1,-1],"split_conditions":[-3.580374E-8,-4.652836E-2,1.6633833E-2,1.6287068E-3,3.509005E-2,5.2036967E-2,-6.0200416E-3,6.672238E-2,-1.5281114E-1,2.4688359E-1,5.8526825E-2,2.75351E-2,1.4442095E-2,7.81594E-3,-2.571373E-2,-2.4646871E-1,-5.2064836E-2,-1.5840639E-1,-3.0155642E-2,-7.234546E-2,2.2550935E-33,8.416969E-3,2.0329645E-1],"split_indices":[319,339,151,7,273,326,376,0,0,0,0,14,0,160,364,0,0,0,0,0,127,0,0],"split_type":[0,0,0,0,0,0,0,0,0,0,0,0,0,0,0,0,0,0,0,0,0,0,0],"sum_hessian":[2.4282173E1,7.9655447E0,1.6316628E1,2.4119098E0,5.553635E0,9.327059E0,6.9895697E0,1.0226903E0,1.3892195E0,4.527268E0,1.0263671E0,7.8762317E0,1.4508272E0,2.162848E0,4.8267217E0,6.1372533E0,1.7389784E0,1.1405001E0,1.022348E0,1.0347712E0,3.7919505E0,1.0741377E0,2.7178128E0],"tree_param":{"num_deleted":"0","num_feature":"384","num_nodes":"23","size_leaf_vector":"1"}},{"base_weights":[-4.6326663E-2,2.1976982E-1,-5.28483E-1,-2.4745406E-1,5.305469E-1,-7.1162146E-1,9.405546E-3,-5.1463455E-1,9.8850705E-2,-5.9463423E-2,6.45784E-1,-2.4037722E-1,-4.3569796E-2,2.6550705E-2,-2.0871076E-1,-2.0236816E-2,7.5443804E-1,2.4399078E-1,5.9761528E-2],"categories":[],"categories_nodes":[],"categories_segments":[],"categories_sizes":[],"default_left":[0,0,0,0,0,0,0,0,0,0,0,0,0,0,0,0,0,0,0],"id":16,"left_children":[1,3,5,7,9,11,-1,13,-1,-1,15,-1,-1,-1,-1,-1,17,-1,-1],"loss_changes":[2.9860954E0,2.326801E0,8.680248E-1,1.2057576E0,9.172895E-1,2.0132351E-1,0E0,6.059381E-1,0E0,0E0,6.9799495E-1,0E0,0E0,0E0,0E0,0E0,7.750082E-2,0E0,0E0],"parents":[2147483647,0,0,1,1,2,2,3,3,4,4,5,5,7,7,10,10,16,16],"right_children":[2,4,6,8,10,12,-1,14,-1,-1,16,-1,-1,-1,-1,-1,18,-1,-1],"split_conditions":[1.00192735E-2,-1.3987607E-2,6.511368E-2,5.838588E-4,2.125857E-33,5.2374054E-2,9.405546E-3,-1.825343E-2,9.8850705E-2,-5.9463423E-2,-2.9802568E-2,-2.4037722E-1,-4.3569796E-2,2.6550705E-2,-2.0871076E-1,-2.0236816E-2,3.5994172E-2,2.4399078E-1,5.9761528E-2],"split_indices":[86,162,92,339,127,382,0,337,0,0,260,0,0,0,0,0,7,0,0],"split_type":[0,0,0,0,0,0,0,0,0,0,0,0,0,0,0,0,0,0,0],"sum_hessian":[2.1369045E1,1.4120371E1,7.248675E0,5.721857E0,8.398514E0,5.2576237E0,1.9910516E0,3.984643E0,1.7372142E0,1.0484021E0,7.3501115E0,4.1812305E0,1.0763928E0,1.0380665E0,2.9465764E0,1.0218067E0,6.328305E0,5.3014607E0,1.0268438E0],"tree_param":{"num_deleted":"0","num_feature":"384","num_nodes":"19","size_leaf_vector":"1"}},{"base_weights":[-4.4586383E-2,-2.2017273E-1,1.3290314E-1,5.0584096E-1,-3.330218E-1,6.3182193E-1,-6.1336875E-2,1.379615E-1,-5.624989E-1,7.496649E-1,2.8324151E-2,-2.2169417E-1,2.9823685E-2,2.4659571E-1,5.1750977E-2],"categories":[],"categories_nodes":[],"categories_segments":[],"categories_sizes":[],"default_left":[0,0,0,0,0,0,0,0,0,0,0,0,0,0,0],"id":17,"left_children":[1,-1,3,5,7,9,-1,-1,11,13,-1,-1,-1,-1,-1],"loss_changes":[2.5333614E0,0E0,3.0666366E0,9.936826E-1,1.7175844E0,4.6436334E-1,0E0,0E0,8.524134E-1,1.4147043E-1,0E0,0E0,0E0,0E0,0E0],"parents":[2147483647,0,0,2,2,3,3,4,4,5,5,8,8,9,9],"right_children":[2,-1,4,6,8,10,-1,-1,12,14,-1,-1,-1,-1,-1],"split_conditions":[1.6552156E-33,-2.2017273E-1,3.2087434E-2,3.334832E-2,-4.0443372E-2,-2.2153552E-8,-6.1336875E-2,1.379615E-1,1.7450845E-2,3.3678096E-2,2.8324151E-2,-2.2169417E-1,2.9823685E-2,2.4659571E-1,5.1750977E-2],"split_indices":[127,0,188,3,234,319,0,0,162,7,0,0,0,0,0],"split_type":[0,0,0,0,0,0,0,0,0,0,0,0,0,0,0],"sum_hessian":[1.890904E1,3.2299237E0,1.5679117E1,8.660983E0,7.0181346E0,7.4500895E0,1.2108934E0,1.3499086E0,5.668226E0,5.7863035E0,1.6637862E0,4.3831396E0,1.2850859E0,4.765038E0,1.0212656E0],"tree_param":{"num_deleted":"0","num_feature":"384","num_nodes":"15","size_leaf_vector":"1"}},{"base_weights":[-3.7479382E-2,-3.9529866E-1,2.830717E-1,-5.7251847E-1,5.1340874E-2,4.4431552E-1,-1.5752836E-1,-6.7809993E-1,6.177588E-3,6.648285E-1,-6.181563E-2,-4.0097054E-2,-2.3022501E-1,4.418793E-2,2.338971E-1],"categories":[],"categories_nodes":[],"categories_segments":[],"categories_sizes":[],"default_left":[0,0,0,0,0,0,0,0,0,0,0,0,0,0,0],"id":18,"left_children":[1,3,5,7,-1,9,-1,11,-1,13,-1,-1,-1,-1,-1],"loss_changes":[2.1125164E0,9.672297E-1,1.5081457E0,4.4140768E-1,0E0,1.3843261E0,0E0,1.8063045E-1,0E0,2.8521705E-1,0E0,0E0,0E0,0E0,0E0],"parents":[2147483647,0,0,1,1,2,2,3,3,5,5,7,7,9,9],"right_children":[2,4,6,8,-1,10,-1,12,-1,14,-1,-1,-1,-1,-1],"split_conditions":[1.2333241E-2,4.1967534E-2,-1.7911523E-8,2.8096758E-2,5.1340874E-2,3.6865395E-2,-1.5752836E-1,-4.5932285E-2,6.177588E-3,-5.0998507E-3,-6.181563E-2,-4.0097054E-2,-2.3022501E-1,4.418793E-2,2.338971E-1],"split_indices":[382,260,319,142,0,331,0,86,0,151,0,0,0,0,0],"split_type":[0,0,0,0,0,0,0,0,0,0,0,0,0,0,0],"sum_hessian":[1.6442284E1,7.6593027E0,8.782981E0,5.8258395E0,1.8334634E0,7.6974225E0,1.0855579E0,4.8238378E0,1.0020013E0,5.731777E0,1.9656454E0,1.0316573E0,3.7921805E0,1.455322E0,4.276455E0],"tree_param":{"num_deleted":"0","num_feature":"384","num_nodes":"15","size_leaf_vector":"1"}},{"base_weights":[-3.918602E-2,3.0174807E-1,-3.4910202E-1,4.7085583E-1,-1.2716988E-1,-5.330233E-1,6.881272E-2,6.1527866E-1,-5.5631123E-2,-8.124228E-3,-6.848938E-1,2.6797855E-2,2.1395817E-1,-5.927824E-2,-2.2781715E-1],"categories":[],"categories_nodes":[],"categories_segments":[],"categories_sizes":[],"default_left":[0,0,0,0,0,0,0,0,0,0,0,0,0,0,0],"id":19,"left_children":[1,3,5,7,-1,9,-1,11,-1,-1,13,-1,-1,-1,-1],"loss_changes":[1.77002E0,1.1860108E0,1.0496492E0,7.769103E-1,0E0,5.127542E-1,0E0,2.4339175E-1,0E0,0E0,4.1517258E-2,0E0,0E0,0E0,0E0],"parents":[2147483647,0,0,1,1,2,2,3,3,5,5,7,7,10,10],"right_children":[2,4,6,8,-1,10,-1,12,-1,-1,14,-1,-1,-1,-1],"split_conditions":[-2.7349161E-2,-2.6101202E-33,3.974863E-2,3.5726424E-2,-1.2716988E-1,-3.6914412E-2,6.881272E-2,-4.871622E-2,-5.5631123E-2,-8.124228E-3,-5.6310125E-2,2.6797855E-2,2.1395817E-1,-5.927824E-2,-2.2781715E-1],"split_indices":[119,223,304,239,0,35,0,321,0,0,79,0,0,0,0],"split_type":[0,0,0,0,0,0,0,0,0,0,0,0,0,0,0],"sum_hessian":[1.4754916E1,7.038415E0,7.7165017E0,5.9929237E0,1.0454911E0,5.9145923E0,1.8019097E0,4.963219E0,1.0297047E0,1.6375526E0,4.2770395E0,1.0791008E0,3.884118E0,1.0514772E0,3.2255623E0],"tree_param":{"num_deleted":"0","num_feature":"384","num_nodes":"15","size_leaf_vector":"1"}},{"base_weights":[-4.28158E-2,-3.109946E-1,3.3604142E-1,-4.9605492E-1,8.80733E-2,5.377697E-1,-5.1128577E-2,-9.216115E-3,-6.406186E-1,2.2887342E-2,1.9148512E-1,-3.375045E-2,-2.2116746E-1],"categories":[],"categories_nodes":[],"categories_segments":[],"categories_sizes":[],"default_left":[0,0,0,0,0,0,0,0,0,0,0,0,0],"id":20,"left_children":[1,3,5,7,-1,9,-1,-1,11,-1,-1,-1,-1],"loss_changes":[1.5626142E0,1.1438892E0,7.484818E-1,4.648769E-1,0E0,1.757276E-1,0E0,0E0,1.9488144E-1,0E0,0E0,0E0,0E0],"parents":[2147483647,0,0,1,1,2,2,3,3,5,5,8,8],"right_children":[2,4,6,8,-1,10,-1,-1,12,-1,-1,-1,-1],"split_conditions":[-1.3673992E-2,5.031609E-2,2.1468807E-2,-3.2675643E-2,8.80733E-2,-6.9861235E-3,-5.1128577E-2,-9.216115E-3,-3.598818E-8,2.2887342E-2,1.9148512E-1,-3.375045E-2,-2.2116746E-1],"split_indices":[381,304,231,152,0,160,0,0,319,0,0,0,0],"split_type":[0,0,0,0,0,0,0,0,0,0,0,0,0],"sum_hessian":[1.335124E1,7.9223976E0,5.428843E0,6.2031116E0,1.7192858E0,3.8382561E0,1.5905867E0,1.7577176E0,4.445394E0,1.0010878E0,2.8371685E0,1.0221488E0,3.4232452E0],"tree_param":{"num_deleted":"0","num_feature":"384","num_nodes":"13","size_leaf_vector":"1"}},{"base_weights":[-3.5734206E-2,3.0929425E-1,-3.1385192E-1,5.530109E-1,-7.823787E-2,9.867468E-2,-5.490102E-1,1.719628E-2,2.0135856E-1,-9.373443E-2,1.1026361E-1,-1.9334139E-1,-2.3237556E-2],"categories":[],"categories_nodes":[],"categories_segments":[],"categories_sizes":[],"default_left":[0,0,0,0,0,0,0,0,0,0,0,0,0],"id":21,"left_children":[1,3,5,7,-1,9,11,-1,-1,-1,-1,-1,-1],"loss_changes":[1.3696475E0,1.0365648E0,8.146463E-1,2.4387062E-1,0E0,5.231546E-1,1.8169618E-1,0E0,0E0,0E0,0E0,0E0,0E0],"parents":[2147483647,0,0,1,1,2,2,3,3,5,5,6,6],"right_children":[2,4,6,8,-1,10,12,-1,-1,-1,-1,-1,-1],"split_conditions":[1.1568457E-3,-4.2262886E-33,-3.2805227E-2,-5.8651034E-2,-7.823787E-2,-2.086064E-2,3.6511086E-2,1.719628E-2,2.0135856E-1,-9.373443E-2,1.1026361E-1,-1.9334139E-1,-2.3237556E-2],"split_indices":[331,223,86,321,0,339,304,0,0,0,0,0,0],"split_type":[0,0,0,0,0,0,0,0,0,0,0,0,0],"sum_hessian":[1.2261718E1,5.422523E0,6.839195E0,3.8195777E0,1.6029453E0,2.6938672E0,4.1453276E0,1.0212502E0,2.7983274E0,1.001075E0,1.692792E0,3.1424632E0,1.0028646E0],"tree_param":{"num_deleted":"0","num_feature":"384","num_nodes":"13","size_leaf_vector":"1"}},{"base_weights":[-3.208419E-2,-3.552122E-1,2.6027617E-1,6.0129773E-2,-5.028743E-1,-8.8274516E-2,4.855927E-1,-2.0258166E-3,-1.889486E-1,6.0870886E-1,3.4345696E-3,2.0585965E-1,5.7636235E-2],"categories":[],"categories_nodes":[],"categories_segments":[],"categories_sizes":[],"default_left":[0,0,0,0,0,0,0,0,0,0,0,0,0],"id":22,"left_children":[1,3,5,-1,7,-1,9,-1,-1,11,-1,-1,-1],"loss_changes":[1.2428209E0,6.100674E-1,1.0137451E0,0E0,3.2256556E-1,0E0,3.0437434E-1,0E0,0E0,4.230857E-3,0E0,0E0,0E0],"parents":[2147483647,0,0,1,1,2,2,4,4,6,6,9,9],"right_children":[2,4,6,-1,8,-1,10,-1,-1,12,-1,-1,-1],"split_conditions":[4.559105E-2,-3.6159486E-2,-1.4089851E-2,6.0129773E-2,-3.2723945E-2,-8.8274516E-2,-4.7257404E-33,-2.0258166E-3,-1.889486E-1,2.738797E-2,3.4345696E-3,2.0585965E-1,5.7636235E-2],"split_indices":[92,7,14,0,302,0,223,0,0,273,0,0,0],"split_type":[0,0,0,0,0,0,0,0,0,0,0,0,0],"sum_hessian":[1.1177091E1,5.2070622E0,5.9700284E0,1.0182114E0,4.188851E0,1.6365054E0,4.333523E0,1.0680878E0,3.120763E0,3.2149293E0,1.1185936E0,2.1650238E0,1.0499057E0],"tree_param":{"num_deleted":"0","num_feature":"384","num_nodes":"13","size_leaf_vector":"1"}},{"base_weights":[-2.0289773E-2,2.691063E-1,-3.206462E-1,-7.534341E-2,4.7424102E-1,6.431125E-2,-4.7988334E-1,-8.117604E-3,1.8407086E-1,-1.8015735E-1,-3.4955186E-3],"categories":[],"categories_nodes":[],"categories_segments":[],"categories_sizes":[],"default_left":[0,0,0,0,0,0,0,0,0,0,0],"id":23,"left_children":[1,3,5,-1,7,-1,9,-1,-1,-1,-1],"loss_changes":[1.0661038E0,7.898078E-1,6.129956E-1,0E0,3.556031E-1,0E0,2.711016E-1,0E0,0E0,0E0,0E0],"parents":[2147483647,0,0,1,1,2,2,4,4,6,6],"right_children":[2,4,6,-1,8,-1,10,-1,-1,-1,-1],"split_conditions":[-3.5716947E-2,3.0210418E-33,-3.6387753E-2,-7.534341E-2,-5.498199E-2,6.431125E-2,5.427567E-3,-8.117604E-3,1.8407086E-1,-1.8015735E-1,-3.4955186E-3],"split_indices":[79,127,134,0,142,0,161,0,0,0,0],"split_type":[0,0,0,0,0,0,0,0,0,0,0],"sum_hessian":[1.0272362E1,5.2846236E0,4.987738E0,1.4310313E0,3.8535922E0,1.0645949E0,3.9231431E0,1.0133569E0,2.8402352E0,2.8947625E0,1.0283808E0],"tree_param":{"num_deleted":"0","num_feature":"384","num_nodes":"11","size_leaf_vector":"1"}},{"base_weights":[-1.713918E-2,2.0782441E-1,-3.967393E-1,-2.1786925E-1,4.5311877E-1,6.659173E-3,-1.6018823E-1,3.840991E-2,-1.3560829E-1,1.4832546E-2,1.8633135E-1],"categories":[],"categories_nodes":[],"categories_segments":[],"categories_sizes":[],"default_left":[0,0,0,0,0,0,0,0,0,0,0],"id":24,"left_children":[1,3,5,7,9,-1,-1,-1,-1,-1,-1],"loss_changes":[9.767611E-1,8.53868E-1,2.5563556E-1,3.2670367E-1,3.0243564E-1,0E0,0E0,0E0,0E0,0E0,0E0],"parents":[2147483647,0,0,1,1,2,2,3,3,4,4],"right_children":[2,4,6,8,10,-1,-1,-1,-1,-1,-1],"split_conditions":[7.4091754E-3,-2.5976384E-2,-1.0853456E-2,2.366055E-2,1.2501468E-3,6.659173E-3,-1.6018823E-1,3.840991E-2,-1.3560829E-1,1.4832546E-2,1.8633135E-1],"split_indices":[86,339,277,331,33,0,0,0,0,0,0],"split_type":[0,0,0,0,0,0,0,0,0,0,0],"sum_hessian":[9.472468E0,6.231809E0,3.2406588E0,2.319047E0,3.9127624E0,1.0063906E0,2.2342682E0,1.1191063E0,1.1999407E0,1.5301259E0,2.3826365E0],"tree_param":{"num_deleted":"0","num_feature":"384","num_nodes":"11","size_leaf_vector":"1"}},{"base_weights":[-1.7756192E-2,1.9655724E-1,-3.9678368E-1,-9.05039E-2,4.2297703E-1,2.216675E-3,-1.6241531E-1,1.719485E-1,-2.8083729E-2],"categories":[],"categories_nodes":[],"categories_segments":[],"categories_sizes":[],"default_left":[0,0,0,0,0,0,0,0,0],"id":25,"left_children":[1,3,5,-1,7,-1,-1,-1,-1],"loss_changes":[8.733542E-1,9.086493E-1,2.3005497E-1,0E0,4.552719E-1,0E0,0E0,0E0,0E0],"parents":[2147483647,0,0,1,1,2,2,4,4],"right_children":[2,4,6,-1,8,-1,-1,-1,-1],"split_conditions":[1.661998E-2,2.804391E-33,-1.7540086E-2,-9.05039E-2,3.6451247E-2,2.216675E-3,-1.6241531E-1,1.719485E-1,-2.8083729E-2],"split_indices":[3,127,255,0,7,0,0,0,0],"split_type":[0,0,0,0,0,0,0,0,0],"sum_hessian":[8.791417E0,5.923507E0,2.8679104E0,1.7469504E0,4.1765566E0,1.0057223E0,1.862188E0,3.1509817E0,1.0255749E0],"tree_param":{"num_deleted":"0","num_feature":"384","num_nodes":"9","size_leaf_vector":"1"}},{"base_weights":[-2.4048163E-2,-3.037766E-1,2.564584E-1,3.5172086E-2,-4.5788154E-1,4.710948E-1,-4.8823696E-2,-3.3183314E-2,-1.6699706E-1,1.6540392E-1,3.8990274E-2],"categories":[],"categories_nodes":[],"categories_segments":[],"categories_sizes":[],"default_left":[0,0,0,0,0,0,0,0,0,0,0],"id":26,"left_children":[1,3,5,-1,7,9,-1,-1,-1,-1,-1],"loss_changes":[7.952248E-1,3.803587E-1,5.3615946E-1,0E0,7.185227E-2,2.7833939E-2,0E0,0E0,0E0,0E0,0E0],"parents":[2147483647,0,0,1,1,2,2,4,4,5,5],"right_children":[2,4,6,-1,8,10,-1,-1,-1,-1,-1],"split_conditions":[1.4178611E-2,-1.392528E-2,1.7512588E-2,3.5172086E-2,-3.502894E-2,-2.740519E-2,-4.8823696E-2,-3.3183314E-2,-1.6699706E-1,1.6540392E-1,3.8990274E-2],"split_indices":[376,277,7,0,119,113,0,0,0,0,0],"split_type":[0,0,0,0,0,0,0,0,0,0,0],"sum_hessian":[8.141817E0,4.0350266E0,4.1067905E0,1.1452918E0,2.889735E0,2.6342473E0,1.4725432E0,1.1093495E0,1.7803854E0,1.633671E0,1.0005764E0],"tree_param":{"num_deleted":"0","num_feature":"384","num_nodes":"11","size_leaf_vector":"1"}},{"base_weights":[-1.9208323E-2,2.0447876E-1,-3.5514334E-1,3.6417568E-1,-6.994797E-2,-1.5074305E-1,-2.3308145E-3,4.877901E-1,-1.0313376E-2,1.711952E-1,4.1503422E-2],"categories":[],"categories_nodes":[],"categories_segments":[],"categories_sizes":[],"default_left":[0,0,0,0,0,0,0,0,0,0,0],"id":27,"left_children":[1,3,5,7,-1,-1,-1,9,-1,-1,-1],"loss_changes":[7.248512E-1,4.934125E-1,1.9235873E-1,2.4697644E-1,0E0,0E0,0E0,2.6227951E-2,0E0,0E0,0E0],"parents":[2147483647,0,0,1,1,2,2,3,3,7,7],"right_children":[2,4,6,8,-1,-1,-1,10,-1,-1,-1],"split_conditions":[-2.1229342E-2,2.2302423E-2,-1.4771949E-4,-4.2262886E-33,-6.994797E-2,-1.5074305E-1,-2.3308145E-3,9.566181E-3,-1.0313376E-2,1.711952E-1,4.1503422E-2],"split_indices":[259,130,162,223,0,0,0,231,0,0,0],"split_type":[0,0,0,0,0,0,0,0,0,0,0],"sum_hessian":[7.6797237E0,4.844956E0,2.834768E0,3.6726475E0,1.1723083E0,1.6769948E0,1.1577733E0,2.6323142E0,1.0403333E0,1.6160889E0,1.0162255E0],"tree_param":{"num_deleted":"0","num_feature":"384","num_nodes":"11","size_leaf_vector":"1"}},{"base_weights":[-1.6128153E-2,3.0455756E-1,-2.3451208E-1,1.4002183E-1,-1.5236159E-2,-4.0779674E-1,5.3784493E-2,2.3389016E-3,-1.6269259E-1],"categories":[],"categories_nodes":[],"categories_segments":[],"categories_sizes":[],"default_left":[0,0,0,0,0,0,0,0,0],"id":28,"left_children":[1,3,5,-1,-1,7,-1,-1,-1],"loss_changes":[6.4810884E-1,2.4102595E-1,4.6487257E-1,0E0,0E0,2.3657525E-1,0E0,0E0,0E0],"parents":[2147483647,0,0,1,1,2,2,5,5],"right_children":[2,4,6,-1,-1,8,-1,-1,-1],"split_conditions":[-2.56139E-2,-4.5903455E-33,5.1439296E-2,1.4002183E-1,-1.5236159E-2,-3.5312105E-8,5.3784493E-2,2.3389016E-3,-1.6269259E-1],"split_indices":[225,223,10,0,0,319,0,0,0],"split_type":[0,0,0,0,0,0,0,0,0],"sum_hessian":[7.234543E0,2.7709484E0,4.4635944E0,1.6873477E0,1.0836008E0,3.1563146E0,1.3072795E0,1.0021311E0,2.1541836E0],"tree_param":{"num_deleted":"0","num_feature":"384","num_nodes":"9","size_leaf_vector":"1"}},{"base_weights":[-1.0718372E-2,2.4389228E-1,-2.7508023E-1,1.3623466E-1,-3.4125887E-2,2.8055623E-2,-1.3028547E-1],"categories":[],"categories_nodes":[],"categories_segments":[],"categories_sizes":[],"default_left":[0,0,0,0,0,0,0],"id":29,"left_children":[1,3,5,-1,-1,-1,-1],"loss_changes":[5.9306055E-1,3.90786E-1,2.931637E-1,0E0,0E0,0E0,0E0],"parents":[2147483647,0,0,1,1,2,2],"right_children":[2,4,6,-1,-1,-1,-1],"split_conditions":[-2.1002742E-2,1.68315E-2,-2.396552E-2,1.3623466E-1,-3.4125887E-2,2.8055623E-2,-1.3028547E-1],"split_indices":[302,359,3,0,0,0,0],"split_type":[0,0,0,0,0,0,0],"sum_hessian":[6.814228E0,3.5105743E0,3.3036537E0,2.0410888E0,1.4694856E0,1.1209526E0,2.182701E0],"tree_param":{"num_deleted":"0","num_feature":"384","num_nodes":"7","size_leaf_vector":"1"}},{"base_weights":[-7.864011E-3,-1.8124934E-1,1.04369275E-1,7.307006E-2,-3.3630297E-1,-1.4321356E-1,5.864348E-3],"categories":[],"categories_nodes":[],"categories_segments":[],"categories_sizes":[],"default_left":[0,0,0,0,0,0,0],"id":30,"left_children":[1,3,-1,-1,5,-1,-1],"loss_changes":[5.2479964E-1,4.5672807E-1,0E0,0E0,2.396971E-1,0E0,0E0],"parents":[2147483647,0,0,1,1,4,4],"right_children":[2,4,-1,-1,6,-1,-1],"split_conditions":[3.560817E-2,-5.010459E-2,1.04369275E-1,7.307006E-2,9.789429E-33,-1.4321356E-1,5.864348E-3],"split_indices":[185,3,0,0,127,0,0],"split_type":[0,0,0,0,0,0,0],"sum_hessian":[6.485647E0,4.690297E0,1.79535E0,1.1015134E0,3.5887837E0,2.3253827E0,1.2634009E0],"tree_param":{"num_deleted":"0","num_feature":"384","num_nodes":"7","size_leaf_vector":"1"}},{"base_weights":[-1.4501419E-3,-2.4105406E-1,2.655086E-1,4.4162694E-2,-1.2725472E-1,1.4109696E-1,-2.6117872E-2],"categories":[],"categories_nodes":[],"categories_segments":[],"categories_sizes":[],"default_left":[0,0,0,0,0,0,0],"id":31,"left_children":[1,3,5,-1,-1,-1,-1],"loss_changes":[5.228483E-1,3.6850607E-1,3.2032442E-1,0E0,0E0,0E0,0E0],"parents":[2147483647,0,0,1,1,2,2],"right_children":[2,4,6,-1,-1,-1,-1],"split_conditions":[-1.4318713E-2,-6.585414E-3,-2.2153552E-8,4.4162694E-2,-1.2725472E-1,1.4109696E-1,-2.6117872E-2],"split_indices":[321,277,319,0,0,0,0],"split_type":[0,0,0,0,0,0,0],"sum_hessian":[6.1734695E0,3.3045592E0,2.8689103E0,1.1219591E0,2.1826003E0,1.6034429E0,1.2654674E0],"tree_param":{"num_deleted":"0","num_feature":"384","num_nodes":"7","size_leaf_vector":"1"}},{"base_weights":[3.7759838E-3,-2.9122123E-1,2.083565E-1,-1.3403039E-1,7.533116E-3,1.357246E-1,-6.0601085E-2],"categories":[],"categories_nodes":[],"categories_segments":[],"categories_sizes":[],"default_left":[0,0,0,0,0,0,0],"id":32,"left_children":[1,3,5,-1,-1,-1,-1],"loss_changes":[4.7411534E-1,1.697759E-1,5.54909E-1,0E0,0E0,0E0,0E0],"parents":[2147483647,0,0,1,1,2,2],"right_children":[2,4,6,-1,-1,-1,-1],"split_conditions":[-2.5976384E-2,-1.39768245E-2,-2.0651033E-8,-1.3403039E-1,7.533116E-3,1.357246E-1,-6.0601085E-2],"split_indices":[339,88,319,0,0,0,0],"split_type":[0,0,0,0,0,0,0],"sum_hessian":[5.850585E0,2.222427E0,3.6281583E0,1.2134221E0,1.0090047E0,2.2108102E0,1.417348E0],"tree_param":{"num_deleted":"0","num_feature":"384","num_nodes":"7","size_leaf_vector":"1"}},{"base_weights":[-4.688361E-3,2.5399855E-1,-2.3719373E-1,1.1830283E-1,-1.5311127E-2,3.151082E-2,-1.1667675E-1],"categories":[],"categories_nodes":[],"categories_segments":[],"categories_sizes":[],"default_left":[0,0,0,0,0,0,0],"id":33,"left_children":[1,3,5,-1,-1,-1,-1],"loss_changes":[4.5292315E-1,1.7309694E-1,2.4624233E-1,0E0,0E0,0E0,0E0],"parents":[2147483647,0,0,1,1,2,2],"right_children":[2,4,6,-1,-1,-1,-1],"split_conditions":[1.1568457E-3,-2.1034106E-8,-4.163874E-2,1.1830283E-1,-1.5311127E-2,3.151082E-2,-1.1667675E-1],"split_indices":[331,319,119,0,0,0,0],"split_type":[0,0,0,0,0,0,0],"sum_hessian":[5.5287075E0,2.5732508E0,2.9554565E0,1.5618716E0,1.0113792E0,1.0023521E0,1.9531044E0],"tree_param":{"num_deleted":"0","num_feature":"384","num_nodes":"7","size_leaf_vector":"1"}},{"base_weights":[-6.9097854E-4,-2.689619E-1,2.1125409E-1,2.0503344E-3,-1.2174522E-1,-3.222383E-2,1.0830348E-1],"categories":[],"categories_nodes":[],"categories_segments":[],"categories_sizes":[],"default_left":[0,0,0,0,0,0,0],"id":34,"left_children":[1,3,5,-1,-1,-1,-1],"loss_changes":[4.1490623E-1,1.24290705E-1,2.3340733E-1,0E0,0E0,0E0,0E0],"parents":[2147483647,0,0,1,1,2,2],"right_children":[2,4,6,-1,-1,-1,-1],"split_conditions":[1.9494107E-2,-1.00707095E-2,-3.742271E-2,2.0503344E-3,-1.2174522E-1,-3.222383E-2,1.0830348E-1],"split_indices":[380,165,161,0,0,0,0],"split_type":[0,0,0,0,0,0,0],"sum_hessian":[5.297839E0,2.2194889E0,3.07835E0,1.0511774E0,1.1683114E0,1.0745615E0,2.0037887E0],"tree_param":{"num_deleted":"0","num_feature":"384","num_nodes":"7","size_leaf_vector":"1"}},{"base_weights":[-7.7933534E-3,2.3074703E-1,-2.4276125E-1,-2.4901927E-2,1.1735218E-1,-1.2820199E-1,3.4334518E-2],"categories":[],"categories_nodes":[],"categories_segments":[],"categories_sizes":[],"default_left":[0,0,0,0,0,0,0],"id":35,"left_children":[1,3,5,-1,-1,-1,-1],"loss_changes":[3.9776397E-1,2.1056937E-1,2.8356138E-1,0E0,0E0,0E0,0E0],"parents":[2147483647,0,0,1,1,2,2],"right_children":[2,4,6,-1,-1,-1,-1],"split_conditions":[-1.4470788E-2,-3.8923132E-3,3.8628448E-2,-2.4901927E-2,1.1735218E-1,-1.2820199E-1,3.4334518E-2],"split_indices":[246,12,284,0,0,0,0],"split_type":[0,0,0,0,0,0,0],"sum_hessian":[5.0972633E0,2.538317E0,2.5589464E0,1.0220475E0,1.5162696E0,1.5577117E0,1.0012347E0],"tree_param":{"num_deleted":"0","num_feature":"384","num_nodes":"7","size_leaf_vector":"1"}},{"base_weights":[-6.348616E-3,-8.5965134E-2,1.8204321E-1,-2.7732814E-2,1.0619754E-1],"categories":[],"categories_nodes":[],"categories_segments":[],"categories_sizes":[],"default_left":[0,0,0,0,0],"id":36,"left_children":[1,-1,3,-1,-1],"loss_changes":[3.6202765E-1,0E0,2.2725052E-1,0E0,0E0],"parents":[2147483647,0,0,2,2],"right_children":[2,-1,4,-1,-1],"split_conditions":[-1.5751908E-2,-8.5965134E-2,8.247571E-4,-2.7732814E-2,1.0619754E-1],"split_indices":[20,0,300,0,0],"split_type":[0,0,0,0,0],"sum_hessian":[4.869983E0,1.7484368E0,3.1215463E0,1.3803848E0,1.7411615E0],"tree_param":{"num_deleted":"0","num_feature":"384","num_nodes":"5","size_leaf_vector":"1"}},{"base_weights":[-5.562477E-3,-2.2639447E-1,2.2700079E-1,-1.0947925E-1,1.4125783E-2,1.13364846E-1,-1.3220324E-3],"categories":[],"categories_nodes":[],"categories_segments":[],"categories_sizes":[],"default_left":[0,0,0,0,0,0,0],"id":37,"left_children":[1,3,5,-1,-1,-1,-1],"loss_changes":[3.4523815E-1,1.4734338E-1,1.16400525E-1,0E0,0E0,0E0,0E0],"parents":[2147483647,0,0,1,1,2,2],"right_children":[2,4,6,-1,-1,-1,-1],"split_conditions":[1.8573776E-2,5.2598584E-3,-2.512837E-2,-1.0947925E-1,1.4125783E-2,1.13364846E-1,-1.3220324E-3],"split_indices":[151,162,234,0,0,0,0],"split_type":[0,0,0,0,0,0,0],"sum_hessian":[4.721597E0,2.4354885E0,2.286109E0,1.3946228E0,1.0408655E0,1.0006751E0,1.2854339E0],"tree_param":{"num_deleted":"0","num_feature":"384","num_nodes":"7","size_leaf_vector":"1"}},{"base_weights":[-1.1359621E-3,-8.4374286E-2,1.8512143E-1,-1.4331791E-2,1.1720397E-1],"categories":[],"categories_nodes":[],"categories_segments":[],"categories_sizes":[],"default_left":[0,0,0,0,0],"id":38,"left_children":[1,-1,3,-1,-1],"loss_changes":[3.4224084E-1,0E0,2.0745753E-1,0E0,0E0],"parents":[2147483647,0,0,2,2],"right_children":[2,-1,4,-1,-1],"split_conditions":[-1.061569E-4,-8.4374286E-2,2.5054187E-2,-1.4331791E-2,1.1720397E-1],"split_indices":[382,0,14,0,0],"split_type":[0,0,0,0,0],"sum_hessian":[4.561816E0,1.6182073E0,2.9436088E0,1.7399136E0,1.2036953E0],"tree_param":{"num_deleted":"0","num_feature":"384","num_nodes":"5","size_leaf_vector":"1"}},{"base_weights":[3.0896182E-3,-1.9797242E-1,2.269994E-1,-9.832614E-2,1.4717612E-2,1.0241109E-1,-7.2553696E-4],"categories":[],"categories_nodes":[],"categories_segments":[],"categories_sizes":[],"default_left":[0,0,0,0,0,0,0],"id":39,"left_children":[1,3,5,-1,-1,-1,-1],"loss_changes":[2.888191E-1,1.24709964E-1,8.029768E-2,0E0,0E0,0E0,0E0],"parents":[2147483647,0,0,1,1,2,2],"right_children":[2,4,6,-1,-1,-1,-1],"split_conditions":[3.5362605E-2,-3.160324E-2,-1.82999E-2,-9.832614E-2,1.4717612E-2,1.0241109E-1,-7.2553696E-4],"split_indices":[247,325,86,0,0,0,0],"split_type":[0,0,0,0,0,0,0],"sum_hessian":[4.4171653E0,2.3883557E0,2.0288095E0,1.3515357E0,1.0368202E0,1.0282265E0,1.000583E0],"tree_param":{"num_deleted":"0","num_feature":"384","num_nodes":"7","size_leaf_vector":"1"}},{"base_weights":[5.5761966E-3,-8.614918E-2,1.6346799E-1,-5.7687204E-2,1.15405925E-1],"categories":[],"categories_nodes":[],"categories_segments":[],"categories_sizes":[],"default_left":[0,0,0,0,0],"id":40,"left_children":[1,-1,3,-1,-1],"loss_changes":[2.9137626E-1,0E0,3.9449242E-1,0E0,0E0],"parents":[2147483647,0,0,2,2],"right_children":[2,-1,4,-1,-1],"split_conditions":[3.0210418E-33,-8.614918E-2,-1.511529E-2,-5.7687204E-2,1.15405925E-1],"split_indices":[127,0,88,0,0],"split_type":[0,0,0,0,0],"sum_hessian":[4.2883496E0,1.2156775E0,3.0726721E0,1.2282281E0,1.844444E0],"tree_param":{"num_deleted":"0","num_feature":"384","num_nodes":"5","size_leaf_vector":"1"}},{"base_weights":[-8.3258E-4,1.9264875E-1,-6.5926574E-2,1.1555709E-1,-3.4671705E-2],"categories":[],"categories_nodes":[],"categories_segments":[],"categories_sizes":[],"default_left":[0,0,0,0,0],"id":41,"left_children":[1,3,-1,-1,-1],"loss_changes":[2.5844666E-1,2.3687218E-1,0E0,0E0,0E0],"parents":[2147483647,0,0,1,1],"right_children":[2,4,-1,-1,-1],"split_conditions":[4.548902E-3,-2.3534314E-8,-6.5926574E-2,1.1555709E-1,-3.4671705E-2],"split_indices":[231,319,0,0,0],"split_type":[0,0,0,0,0],"sum_hessian":[4.102081E0,2.241279E0,1.8608019E0,1.2258108E0,1.0154681E0],"tree_param":{"num_deleted":"0","num_feature":"384","num_nodes":"5","size_leaf_vector":"1"}},{"base_weights":[3.1872934E-3,7.012502E-2,-1.8413045E-1,1.6596861E-2,-1.0070109E-1],"categories":[],"categories_nodes":[],"categories_segments":[],"categories_sizes":[],"default_left":[0,0,0,0,0],"id":42,"left_children":[1,-1,3,-1,-1],"loss_changes":[2.5753054E-1,0E0,1.3829945E-1,0E0,0E0],"parents":[2147483647,0,0,2,2],"right_children":[2,-1,4,-1,-1],"split_conditions":[-2.9388359E-2,7.012502E-2,-2.8951996E-8,1.6596861E-2,-1.0070109E-1],"split_indices":[235,0,319,0,0],"split_type":[0,0,0,0,0],"sum_hessian":[3.9663696E0,1.6668378E0,2.2995317E0,1.1373286E0,1.1622031E0],"tree_param":{"num_deleted":"0","num_feature":"384","num_nodes":"5","size_leaf_vector":"1"}},{"base_weights":[-1.0486015E-3,6.820899E-2,-1.8546595E-1,-1.0328068E-1,2.1438569E-2],"categories":[],"categories_nodes":[],"categories_segments":[],"categories_sizes":[],"default_left":[0,0,0,0,0],"id":43,"left_children":[1,-1,3,-1,-1],"loss_changes":[2.4699573E-1,0E0,1.5684354E-1,0E0,0E0],"parents":[2147483647,0,0,2,2],"right_children":[2,-1,4,-1,-1],"split_conditions":[-1.9717088E-2,6.820899E-2,2.2536822E-2,-1.0328068E-1,2.1438569E-2],"split_indices":[134,0,382,0,0],"split_type":[0,0,0,0,0],"sum_hessian":[3.862593E0,1.6214528E0,2.2411401E0,1.1749675E0,1.0661727E0],"tree_param":{"num_deleted":"0","num_feature":"384","num_nodes":"5","size_leaf_vector":"1"}},{"base_weights":[-4.146529E-3,6.092312E-2,-5.8763634E-2],"categories":[],"categories_nodes":[],"categories_segments":[],"categories_sizes":[],"default_left":[0,0,0],"id":44,"left_children":[1,-1,-1],"loss_changes":[2.2875974E-1,0E0,0E0],"parents":[2147483647,0,0],"right_children":[2,-1,-1],"split_conditions":[1.1568457E-3,6.092312E-2,-5.8763634E-2],"split_indices":[331,0,0],"split_type":[0,0,0],"sum_hessian":[3.7564657E0,1.7768655E0,1.9796003E0],"tree_param":{"num_deleted":"0","num_feature":"384","num_nodes":"3","size_leaf_vector":"1"}},{"base_weights":[-2.4945356E-3,-1.7690815E-1,6.415859E-2,1.7191447E-2,-9.4699256E-2],"categories":[],"categories_nodes":[],"categories_segments":[],"categories_sizes":[],"default_left":[0,0,0,0,0],"id":45,"left_children":[1,3,-1,-1,-1],"loss_changes":[2.151255E-1,1.20412424E-1,0E0,0E0,0E0],"parents":[2147483647,0,0,1,1],"right_children":[2,4,-1,-1,-1],"split_conditions":[-1.3673992E-2,-1.791331E-2,6.415859E-2,1.7191447E-2,-9.4699256E-2],"split_indices":[381,246,0,0,0],"split_type":[0,0,0,0,0],"sum_hessian":[3.6982687E0,2.1485593E0,1.5497093E0,1.0177166E0,1.1308426E0],"tree_param":{"num_deleted":"0","num_feature":"384","num_nodes":"5","size_leaf_vector":"1"}},{"base_weights":[-5.070618E-3,1.48503E-1,-7.5872645E-2,-3.4578335E-2,9.085657E-2],"categories":[],"categories_nodes":[],"categories_segments":[],"categories_sizes":[],"default_left":[0,0,0,0,0],"id":46,"left_children":[1,3,-1,-1,-1],"loss_changes":[2.13016E-1,1.7643487E-1,0E0,0E0,0E0],"parents":[2147483647,0,0,1,1],"right_children":[2,4,-1,-1,-1],"split_conditions":[1.581516E-2,4.086136E-33,-7.5872645E-2,-3.4578335E-2,9.085657E-2],"split_indices":[3,127,0,0,0],"split_type":[0,0,0,0,0],"sum_hessian":[3.6098738E0,2.4762592E0,1.1336145E0,1.0076315E0,1.4686278E0],"tree_param":{"num_deleted":"0","num_feature":"384","num_nodes":"5","size_leaf_vector":"1"}},{"base_weights":[-7.71495E-3,1.4760563E-1,-7.6891E-2,9.296268E-2,-3.4509648E-2],"categories":[],"categories_nodes":[],"categories_segments":[],"categories_sizes":[],"default_left":[0,0,0,0,0],"id":47,"left_children":[1,3,-1,-1,-1],"loss_changes":[2.1171556E-1,1.8081439E-1,0E0,0E0,0E0],"parents":[2147483647,0,0,1,1],"right_children":[2,4,-1,-1,-1],"split_conditions":[2.8373118E-2,-2.2153552E-8,-7.6891E-2,9.296268E-2,-3.4509648E-2],"split_indices":[7,319,0,0,0],"split_type":[0,0,0,0,0],"sum_hessian":[3.5034897E0,2.406259E0,1.0972308E0,1.3761498E0,1.0301093E0],"tree_param":{"num_deleted":"0","num_feature":"384","num_nodes":"5","size_leaf_vector":"1"}},{"base_weights":[-9.436414E-3,6.933573E-2,-1.7117988E-1,-9.589914E-2,2.2608392E-2],"categories":[],"categories_nodes":[],"categories_segments":[],"categories_sizes":[],"default_left":[0,0,0,0,0],"id":48,"left_children":[1,-1,3,-1,-1],"loss_changes":[2.1058972E-1,0E0,1.413393E-1,0E0,0E0],"parents":[2147483647,0,0,2,2],"right_children":[2,-1,4,-1,-1],"split_conditions":[-2.6797097E-2,6.933573E-2,3.4398679E-3,-9.589914E-2,2.2608392E-2],"split_indices":[234,0,162,0,0],"split_type":[0,0,0,0,0],"sum_hessian":[3.3956397E0,1.192762E0,2.2028775E0,1.1897407E0,1.0131369E0],"tree_param":{"num_deleted":"0","num_feature":"384","num_nodes":"5","size_leaf_vector":"1"}},{"base_weights":[-8.117142E-3,6.863799E-2,-1.548123E-1,-9.029193E-2,2.5785634E-2],"categories":[],"categories_nodes":[],"categories_segments":[],"categories_sizes":[],"default_left":[0,0,0,0,0],"id":49,"left_children":[1,-1,3,-1,-1],"loss_changes":[1.8494809E-1,0E0,1.40365E-1,0E0,0E0],"parents":[2147483647,0,0,2,2],"right_children":[2,-1,4,-1,-1],"split_conditions":[-3.3152528E-2,6.863799E-2,1.6591327E-2,-9.029193E-2,2.5785634E-2],"split_indices":[62,0,376,0,0],"split_type":[0,0,0,0,0],"sum_hessian":[3.3025184E0,1.0489038E0,2.2536147E0,1.2467048E0,1.0069097E0],"tree_param":{"num_deleted":"0","num_feature":"384","num_nodes":"5","size_leaf_vector":"1"}},{"base_weights":[-5.190523E-3,-6.400437E-2,4.795377E-2],"categories":[],"categories_nodes":[],"categories_segments":[],"categories_sizes":[],"default_left":[0,0,0],"id":50,"left_children":[1,-1,-1],"loss_changes":[1.7895167E-1,0E0,0E0],"parents":[2147483647,0,0],"right_children":[2,-1,-1],"split_conditions":[6.049717E-3,-6.400437E-2,4.795377E-2],"split_indices":[5,0,0],"split_type":[0,0,0],"sum_hessian":[3.216417E0,1.2929326E0,1.9234843E0],"tree_param":{"num_deleted":"0","num_feature":"384","num_nodes":"3","size_leaf_vector":"1"}},{"base_weights":[-7.643575E-3,-5.8427323E-2,5.0449807E-2],"categories":[],"categories_nodes":[],"categories_segments":[],"categories_sizes":[],"default_left":[0,0,0],"id":51,"left_children":[1,-1,-1],"loss_changes":[1.6991892E-1,0E0,0E0],"parents":[2147483647,0,0],"right_children":[2,-1,-1],"split_conditions":[4.559105E-2,-5.8427323E-2,5.0449807E-2],"split_indices":[92,0,0],"split_type":[0,0,0],"sum_hessian":[3.1696665E0,1.4832582E0,1.6864084E0],"tree_param":{"num_deleted":"0","num_feature":"384","num_nodes":"3","size_leaf_vector":"1"}},{"base_weights":[-7.4165827E-3,-5.9236683E-2,4.7886197E-2],"categories":[],"categories_nodes":[],"categories_segments":[],"categories_sizes":[],"default_left":[0,0,0],"id":52,"left_children":[1,-1,-1],"loss_changes":[1.6242711E-1,0E0,0E0],"parents":[2147483647,0,0],"right_children":[2,-1,-1],"split_conditions":[-2.4293566E-2,-5.9236683E-2,4.7886197E-2],"split_indices":[282,0,0],"split_type":[0,0,0],"sum_hessian":[3.1239548E0,1.3761721E0,1.7477827E0],"tree_param":{"num_deleted":"0","num_feature":"384","num_nodes":"3","size_leaf_vector":"1"}},{"base_weights":[-8.111496E-3,4.4763386E-2,-6.1250314E-2],"categories":[],"categories_nodes":[],"categories_segments":[],"categories_sizes":[],"default_left":[0,0,0],"id":53,"left_children":[1,-1,-1],"loss_changes":[1.5637526E-1,0E0,0E0],"parents":[2147483647,0,0],"right_children":[2,-1,-1],"split_conditions":[-2.397592E-2,4.4763386E-2,-6.1250314E-2],"split_indices":[79,0,0],"split_type":[0,0,0],"sum_hessian":[3.0821774E0,1.8425684E0,1.2396091E0],"tree_param":{"num_deleted":"0","num_feature":"384","num_nodes":"3","size_leaf_vector":"1"}},{"base_weights":[-9.929227E-3,1.3163967E-1,-6.558222E-2,-2.3417778E-2,8.2064226E-2],"categories":[],"categories_nodes":[],"categories_segments":[],"categories_sizes":[],"default_left":[0,0,0,0,0],"id":54,"left_children":[1,3,-1,-1,-1],"loss_changes":[1.481523E-1,1.11569226E-1,0E0,0E0,0E0],"parents":[2147483647,0,0,1,1],"right_children":[2,4,-1,-1,-1],"split_conditions":[7.4091754E-3,-3.0735934E-2,-6.558222E-2,-2.3417778E-2,8.2064226E-2],"split_indices":[86,325,0,0,0],"split_type":[0,0,0,0,0],"sum_hessian":[3.040807E0,2.031676E0,1.0091311E0,1.001571E0,1.030105E0],"tree_param":{"num_deleted":"0","num_feature":"384","num_nodes":"5","size_leaf_vector":"1"}},{"base_weights":[-8.635907E-3,-5.1119693E-2,5.105995E-2],"categories":[],"categories_nodes":[],"categories_segments":[],"categories_sizes":[],"default_left":[0,0,0],"id":55,"left_children":[1,-1,-1],"loss_changes":[1.4389397E-1,0E0,0E0],"parents":[2147483647,0,0],"right_children":[2,-1,-1],"split_conditions":[3.353515E-2,-5.1119693E-2,5.105995E-2],"split_indices":[247,0,0],"split_type":[0,0,0],"sum_hessian":[2.9715178E0,1.5850036E0,1.3865142E0],"tree_param":{"num_deleted":"0","num_feature":"384","num_nodes":"3","size_leaf_vector":"1"}},{"base_weights":[-6.1403294E-3,4.250223E-2,-5.8874875E-2],"categories":[],"categories_nodes":[],"categories_segments":[],"categories_sizes":[],"default_left":[0,0,0],"id":56,"left_children":[1,-1,-1],"loss_changes":[1.3835475E-1,0E0,0E0],"parents":[2147483647,0,0],"right_children":[2,-1,-1],"split_conditions":[-3.015351E-2,4.250223E-2,-5.8874875E-2],"split_indices":[256,0,0],"split_type":[0,0,0],"sum_hessian":[2.9340847E0,1.7939903E0,1.1400944E0],"tree_param":{"num_deleted":"0","num_feature":"384","num_nodes":"3","size_leaf_vector":"1"}},{"base_weights":[-8.638592E-3,4.495759E-2,-5.611247E-2],"categories":[],"categories_nodes":[],"categories_segments":[],"categories_sizes":[],"default_left":[0,0,0],"id":57,"left_children":[1,-1,-1],"loss_changes":[1.382347E-1,0E0,0E0],"parents":[2147483647,0,0],"right_children":[2,-1,-1],"split_conditions":[2.1367207E-5,4.495759E-2,-5.611247E-2],"split_indices":[255,0,0],"split_type":[0,0,0],"sum_hessian":[2.8974204E0,1.6190336E0,1.2783868E0],"tree_param":{"num_deleted":"0","num_feature":"384","num_nodes":"3","size_leaf_vector":"1"}},{"base_weights":[-9.071004E-3,-6.0706206E-2,3.9192773E-2],"categories":[],"categories_nodes":[],"categories_segments":[],"categories_sizes":[],"default_left":[0,0,0],"id":58,"left_children":[1,-1,-1],"loss_changes":[1.3068411E-1,0E0,0E0],"parents":[2147483647,0,0],"right_children":[2,-1,-1],"split_conditions":[-4.3996688E-4,-6.0706206E-2,3.9192773E-2],"split_indices":[160,0,0],"split_type":[0,0,0],"sum_hessian":[2.86043E0,1.0120238E0,1.8484061E0],"tree_param":{"num_deleted":"0","num_feature":"384","num_nodes":"3","size_leaf_vector":"1"}},{"base_weights":[-1.21559985E-2,-5.134866E-2,4.5119446E-2],"categories":[],"categories_nodes":[],"categories_segments":[],"categories_sizes":[],"default_left":[0,0,0],"id":59,"left_children":[1,-1,-1],"loss_changes":[1.2461534E-1,0E0,0E0],"parents":[2147483647,0,0],"right_children":[2,-1,-1],"split_conditions":[1.3735705E-3,-5.134866E-2,4.5119446E-2],"split_indices":[300,0,0],"split_type":[0,0,0],"sum_hessian":[2.825296E0,1.4014649E0,1.4238311E0],"tree_param":{"num_deleted":"0","num_feature":"384","num_nodes":"3","size_leaf_vector":"1"}},{"base_weights":[-1.0276014E-2,4.5108683E-2,-5.137001E-2],"categories":[],"categories_nodes":[],"categories_segments":[],"categories_sizes":[],"default_left":[0,0,0],"id":60,"left_children":[1,-1,-1],"loss_changes":[1.2380195E-1,0E0,0E0],"parents":[2147483647,0,0],"right_children":[2,-1,-1],"split_conditions":[1.4999555E-2,4.5108683E-2,-5.137001E-2],"split_indices":[359,0,0],"split_type":[0,0,0],"sum_hessian":[2.7923596E0,1.4305104E0,1.3618493E0],"tree_param":{"num_deleted":"0","num_feature":"384","num_nodes":"3","size_leaf_vector":"1"}},{"base_weights":[-8.971862E-3,4.0999163E-2,-5.541863E-2],"categories":[],"categories_nodes":[],"categories_segments":[],"categories_sizes":[],"default_left":[0,0,0],"id":61,"left_children":[1,-1,-1],"loss_changes":[1.2146307E-1,0E0,0E0],"parents":[2147483647,0,0],"right_children":[2,-1,-1],"split_conditions":[4.78634E-5,4.0999163E-2,-5.541863E-2],"split_indices":[208,0,0],"split_type":[0,0,0],"sum_hessian":[2.7590055E0,1.6304272E0,1.1285783E0],"tree_param":{"num_deleted":"0","num_feature":"384","num_nodes":"3","size_leaf_vector":"1"}},{"base_weights":[-1.02860825E-2,-4.531942E-2,4.9866322E-2],"categories":[],"categories_nodes":[],"categories_segments":[],"categories_sizes":[],"default_left":[0,0,0],"id":62,"left_children":[1,-1,-1],"loss_changes":[1.1772112E-1,0E0,0E0],"parents":[2147483647,0,0],"right_children":[2,-1,-1],"split_conditions":[1.4521029E-2,-4.531942E-2,4.9866322E-2],"split_indices":[57,0,0],"split_type":[0,0,0],"sum_hessian":[2.7270348E0,1.5972463E0,1.1297884E0],"tree_param":{"num_deleted":"0","num_feature":"384","num_nodes":"3","size_leaf_vector":"1"}},{"base_weights":[-6.0298895E-3,4.1928377E-2,-5.2567538E-2],"categories":[],"categories_nodes":[],"categories_segments":[],"categories_sizes":[],"default_left":[0,0,0],"id":63,"left_children":[1,-1,-1],"loss_changes":[1.1564628E-1,0E0,0E0],"parents":[2147483647,0,0],"right_children":[2,-1,-1],"split_conditions":[-1.6243858E-2,4.1928377E-2,-5.2567538E-2],"split_indices":[119,0,0],"split_type":[0,0,0],"sum_hessian":[2.6954627E0,1.5413156E0,1.1541473E0],"tree_param":{"num_deleted":"0","num_feature":"384","num_nodes":"3","size_leaf_vector":"1"}},{"base_weights":[-7.222584E-3,4.2847432E-2,-4.9568355E-2],"categories":[],"categories_nodes":[],"categories_segments":[],"categories_sizes":[],"default_left":[0,0,0],"id":64,"left_children":[1,-1,-1],"loss_changes":[1.1047564E-1,0E0,0E0],"parents":[2147483647,0,0],"right_children":[2,-1,-1],"split_conditions":[-6.402844E-3,4.2847432E-2,-4.9568355E-2],"split_indices":[66,0,0],"split_type":[0,0,0],"sum_hessian":[2.6644175E0,1.4159026E0,1.2485149E0],"tree_param":{"num_deleted":"0","num_feature":"384","num_nodes":"3","size_leaf_vector":"1"}},{"base_weights":[-6.988792E-3,-4.970032E-2,4.185066E-2],"categories":[],"categories_nodes":[],"categories_segments":[],"categories_sizes":[],"default_left":[0,0,0],"id":65,"left_children":[1,-1,-1],"loss_changes":[1.07607394E-1,0E0,0E0],"parents":[2147483647,0,0],"right_children":[2,-1,-1],"split_conditions":[1.2333241E-2,-4.970032E-2,4.185066E-2],"split_indices":[382,0,0],"split_type":[0,0,0],"sum_hessian":[2.6350298E0,1.2020562E0,1.4329736E0],"tree_param":{"num_deleted":"0","num_feature":"384","num_nodes":"3","size_leaf_vector":"1"}},{"base_weights":[-7.1560377E-3,-4.737586E-2,4.4482015E-2],"categories":[],"categories_nodes":[],"categories_segments":[],"categories_sizes":[],"default_left":[0,0,0],"id":66,"left_children":[1,-1,-1],"loss_changes":[1.0791375E-1,0E0,0E0],"parents":[2147483647,0,0],"right_children":[2,-1,-1],"split_conditions":[1.8573776E-2,-4.737586E-2,4.4482015E-2],"split_indices":[151,0,0],"split_type":[0,0,0],"sum_hessian":[2.6059487E0,1.3146971E0,1.2912515E0],"tree_param":{"num_deleted":"0","num_feature":"384","num_nodes":"3","size_leaf_vector":"1"}},{"base_weights":[-5.8851084E-3,4.7936253E-2,-4.224494E-2],"categories":[],"categories_nodes":[],"categories_segments":[],"categories_sizes":[],"default_left":[0,0,0],"id":67,"left_children":[1,-1,-1],"loss_changes":[1.02465965E-1,0E0,0E0],"parents":[2147483647,0,0],"right_children":[2,-1,-1],"split_conditions":[-3.917694E-2,4.7936253E-2,-4.224494E-2],"split_indices":[113,0,0],"split_type":[0,0,0],"sum_hessian":[2.577155E0,1.0741137E0,1.5030413E0],"tree_param":{"num_deleted":"0","num_feature":"384","num_nodes":"3","size_leaf_vector":"1"}},{"base_weights":[-2.537689E-3,-4.9985386E-2,3.9477132E-2],"categories":[],"categories_nodes":[],"categories_segments":[],"categories_sizes":[],"default_left":[0,0,0],"id":68,"left_children":[1,-1,-1],"loss_changes":[1.00045234E-1,0E0,0E0],"parents":[2147483647,0,0],"right_children":[2,-1,-1],"split_conditions":[-6.6030924E-3,-4.9985386E-2,3.9477132E-2],"split_indices":[326,0,0],"split_type":[0,0,0],"sum_hessian":[2.54965E0,1.0378312E0,1.5118186E0],"tree_param":{"num_deleted":"0","num_feature":"384","num_nodes":"3","size_leaf_vector":"1"}},{"base_weights":[-4.8237746E-3,4.0022053E-2,-4.988137E-2],"categories":[],"categories_nodes":[],"categories_segments":[],"categories_sizes":[],"default_left":[0,0,0],"id":69,"left_children":[1,-1,-1],"loss_changes":[1.0080359E-1,0E0,0E0],"parents":[2147483647,0,0],"right_children":[2,-1,-1],"split_conditions":[2.792155E-3,4.0022053E-2,-4.988137E-2],"split_indices":[350,0,0],"split_type":[0,0,0],"sum_hessian":[2.5229626E0,1.4527806E0,1.0701818E0],"tree_param":{"num_deleted":"0","num_feature":"384","num_nodes":"3","size_leaf_vector":"1"}},{"base_weights":[-6.2750503E-3,3.847205E-2,-5.0951373E-2],"categories":[],"categories_nodes":[],"categories_segments":[],"categories_sizes":[],"default_left":[0,0,0],"id":70,"left_children":[1,-1,-1],"loss_changes":[9.868951E-2,0E0,0E0],"parents":[2147483647,0,0],"right_children":[2,-1,-1],"split_conditions":[-2.4706704E-8,3.847205E-2,-5.0951373E-2],"split_indices":[319,0,0],"split_type":[0,0,0],"sum_hessian":[2.4956167E0,1.4879085E0,1.0077081E0],"tree_param":{"num_deleted":"0","num_feature":"384","num_nodes":"3","size_leaf_vector":"1"}},{"base_weights":[-8.090931E-3,-4.5131683E-2,4.4729955E-2],"categories":[],"categories_nodes":[],"categories_segments":[],"categories_sizes":[],"default_left":[0,0,0],"id":71,"left_children":[1,-1,-1],"loss_changes":[1.00027815E-1,0E0,0E0],"parents":[2147483647,0,0],"right_children":[2,-1,-1],"split_conditions":[-1.4318713E-2,-4.5131683E-2,4.4729955E-2],"split_indices":[321,0,0],"split_type":[0,0,0],"sum_hessian":[2.4679167E0,1.3176444E0,1.1502725E0],"tree_param":{"num_deleted":"0","num_feature":"384","num_nodes":"3","size_leaf_vector":"1"}},{"base_weights":[-5.8407974E-3,4.6445746E-2,-4.219756E-2],"categories":[],"categories_nodes":[],"categories_segments":[],"categories_sizes":[],"default_left":[0,0,0],"id":72,"left_children":[1,-1,-1],"loss_changes":[9.631575E-2,0E0,0E0],"parents":[2147483647,0,0],"right_children":[2,-1,-1],"split_conditions":[-2.9388359E-2,4.6445746E-2,-4.219756E-2],"split_indices":[235,0,0],"split_type":[0,0,0],"sum_hessian":[2.4413555E0,1.0462266E0,1.3951288E0],"tree_param":{"num_deleted":"0","num_feature":"384","num_nodes":"3","size_leaf_vector":"1"}},{"base_weights":[-2.870024E-3,4.686579E-2,-4.0846743E-2],"categories":[],"categories_nodes":[],"categories_segments":[],"categories_sizes":[],"default_left":[0,0,0],"id":73,"left_children":[1,-1,-1],"loss_changes":[9.369941E-2,0E0,0E0],"parents":[2147483647,0,0],"right_children":[2,-1,-1],"split_conditions":[-1.716501E-2,4.686579E-2,-4.0846743E-2],"split_indices":[3,0,0],"split_type":[0,0,0],"sum_hessian":[2.4157734E0,1.022846E0,1.3929274E0],"tree_param":{"num_deleted":"0","num_feature":"384","num_nodes":"3","size_leaf_vector":"1"}},{"base_weights":[-2.341837E-4,4.1310124E-2,-4.5464583E-2],"categories":[],"categories_nodes":[],"categories_segments":[],"categories_sizes":[],"default_left":[0,0,0],"id":74,"left_children":[1,-1,-1],"loss_changes":[9.163339E-2,0E0,0E0],"parents":[2147483647,0,0],"right_children":[2,-1,-1],"split_conditions":[-6.9479416E-3,4.1310124E-2,-4.5464583E-2],"split_indices":[134,0,0],"split_type":[0,0,0],"sum_hessian":[2.3905134E0,1.2976127E0,1.0929009E0],"tree_param":{"num_deleted":"0","num_feature":"384","num_nodes":"3","size_leaf_vector":"1"}},{"base_weights":[-1.4222987E-3,4.2453982E-2,-4.202755E-2],"categories":[],"categories_nodes":[],"categories_segments":[],"categories_sizes":[],"default_left":[0,0,0],"id":75,"left_children":[1,-1,-1],"loss_changes":[8.653884E-2,0E0,0E0],"parents":[2147483647,0,0],"right_children":[2,-1,-1],"split_conditions":[-9.868092E-3,4.2453982E-2,-4.202755E-2],"split_indices":[234,0,0],"split_type":[0,0,0],"sum_hessian":[2.365856E0,1.1549095E0,1.2109463E0],"tree_param":{"num_deleted":"0","num_feature":"384","num_nodes":"3","size_leaf_vector":"1"}},{"base_weights":[-8.802179E-4,4.1092306E-2,-4.2605296E-2],"categories":[],"categories_nodes":[],"categories_segments":[],"categories_sizes":[],"default_left":[0,0,0],"id":76,"left_children":[1,-1,-1],"loss_changes":[8.449057E-2,0E0,0E0],"parents":[2147483647,0,0],"right_children":[2,-1,-1],"split_conditions":[-1.4470788E-2,4.1092306E-2,-4.2605296E-2],"split_indices":[246,0,0],"split_type":[0,0,0],"sum_hessian":[2.3427386E0,1.2000746E0,1.1426641E0],"tree_param":{"num_deleted":"0","num_feature":"384","num_nodes":"3","size_leaf_vector":"1"}},{"base_weights":[-1.0879523E-3,4.416932E-2,-3.89245E-2],"categories":[],"categories_nodes":[],"categories_segments":[],"categories_sizes":[],"default_left":[0,0,0],"id":77,"left_children":[1,-1,-1],"loss_changes":[8.2461484E-2,0E0,0E0],"parents":[2147483647,0,0],"right_children":[2,-1,-1],"split_conditions":[-8.908472E-3,4.416932E-2,-3.89245E-2],"split_indices":[7,0,0],"split_type":[0,0,0],"sum_hessian":[2.320192E0,1.010711E0,1.3094813E0],"tree_param":{"num_deleted":"0","num_feature":"384","num_nodes":"3","size_leaf_vector":"1"}},{"base_weights":[8.363796E-4,-4.351478E-2,3.8291514E-2],"categories":[],"categories_nodes":[],"categories_segments":[],"categories_sizes":[],"default_left":[0,0,0],"id":78,"left_children":[1,-1,-1],"loss_changes":[7.951589E-2,0E0,0E0],"parents":[2147483647,0,0],"right_children":[2,-1,-1],"split_conditions":[-3.1114311E-3,-4.351478E-2,3.8291514E-2],"split_indices":[12,0,0],"split_type":[0,0,0],"sum_hessian":[2.2976592E0,1.001514E0,1.2961452E0],"tree_param":{"num_deleted":"0","num_feature":"384","num_nodes":"3","size_leaf_vector":"1"}},{"base_weights":[-1.0272977E-3,3.8194533E-2,-4.343037E-2],"categories":[],"categories_nodes":[],"categories_segments":[],"categories_sizes":[],"default_left":[0,0,0],"id":79,"left_children":[1,-1,-1],"loss_changes":[7.887286E-2,0E0,0E0],"parents":[2147483647,0,0],"right_children":[2,-1,-1],"split_conditions":[-7.143677E-3,3.8194533E-2,-4.343037E-2],"split_indices":[86,0,0],"split_type":[0,0,0],"sum_hessian":[2.2763264E0,1.2629455E0,1.013381E0],"tree_param":{"num_deleted":"0","num_feature":"384","num_nodes":"3","size_leaf_vector":"1"}},{"base_weights":[-2.356329E-3,3.8074683E-2,-4.2975396E-2],"categories":[],"categories_nodes":[],"categories_segments":[],"categories_sizes":[],"default_left":[0,0,0],"id":80,"left_children":[1,-1,-1],"loss_changes":[7.746788E-2,0E0,0E0],"parents":[2147483647,0,0],"right_children":[2,-1,-1],"split_conditions":[4.3682377E-3,3.8074683E-2,-4.2975396E-2],"split_indices":[169,0,0],"split_type":[0,0,0],"sum_hessian":[2.2550688E0,1.2277863E0,1.0272824E0],"tree_param":{"num_deleted":"0","num_feature":"384","num_nodes":"3","size_leaf_vector":"1"}},{"base_weights":[-3.1981517E-3,-3.999523E-2,3.99914E-2],"categories":[],"categories_nodes":[],"categories_segments":[],"categories_sizes":[],"default_left":[0,0,0],"id":81,"left_children":[1,-1,-1],"loss_changes":[7.5215295E-2,0E0,0E0],"parents":[2147483647,0,0],"right_children":[2,-1,-1],"split_conditions":[1.6591327E-2,-3.999523E-2,3.99914E-2],"split_indices":[376,0,0],"split_type":[0,0,0],"sum_hessian":[2.234129E0,1.1557568E0,1.0783721E0],"tree_param":{"num_deleted":"0","num_feature":"384","num_nodes":"3","size_leaf_vector":"1"}},{"base_weights":[-2.2612144E-3,4.176827E-2,-3.877677E-2],"categories":[],"categories_nodes":[],"categories_segments":[],"categories_sizes":[],"default_left":[0,0,0],"id":82,"left_children":[1,-1,-1],"loss_changes":[7.57371E-2,0E0,0E0],"parents":[2147483647,0,0],"right_children":[2,-1,-1],"split_conditions":[4.518479E-3,4.176827E-2,-3.877677E-2],"split_indices":[277,0,0],"split_type":[0,0,0],"sum_hessian":[2.2134948E0,1.0014366E0,1.2120582E0],"tree_param":{"num_deleted":"0","num_feature":"384","num_nodes":"3","size_leaf_vector":"1"}},{"base_weights":[-6.515248E-4,4.0425286E-2,-3.7572168E-2],"categories":[],"categories_nodes":[],"categories_segments":[],"categories_sizes":[],"default_left":[0,0,0],"id":83,"left_children":[1,-1,-1],"loss_changes":[7.0740685E-2,0E0,0E0],"parents":[2147483647,0,0],"right_children":[2,-1,-1],"split_conditions":[-2.8951996E-8,4.0425286E-2,-3.7572168E-2],"split_indices":[319,0,0],"split_type":[0,0,0],"sum_hessian":[2.192975E0,1.0117974E0,1.1811776E0],"tree_param":{"num_deleted":"0","num_feature":"384","num_nodes":"3","size_leaf_vector":"1"}},{"base_weights":[4.4458063E-4,3.852054E-2,-4.109722E-2],"categories":[],"categories_nodes":[],"categories_segments":[],"categories_sizes":[],"default_left":[0,0,0],"id":84,"left_children":[1,-1,-1],"loss_changes":[7.339204E-2,0E0,0E0],"parents":[2147483647,0,0],"right_children":[2,-1,-1],"split_conditions":[2.9459565E-3,3.852054E-2,-4.109722E-2],"split_indices":[231,0,0],"split_type":[0,0,0],"sum_hessian":[2.1731315E0,1.1594089E0,1.0137225E0],"tree_param":{"num_deleted":"0","num_feature":"384","num_nodes":"3","size_leaf_vector":"1"}},{"base_weights":[-5.1706564E-4,3.738679E-2,-3.8721524E-2],"categories":[],"categories_nodes":[],"categories_segments":[],"categories_sizes":[],"default_left":[0,0,0],"id":85,"left_children":[1,-1,-1],"loss_changes":[6.681687E-2,0E0,0E0],"parents":[2147483647,0,0],"right_children":[2,-1,-1],"split_conditions":[-1.2711254E-2,3.738679E-2,-3.8721524E-2],"split_indices":[239,0,0],"split_type":[0,0,0],"sum_hessian":[2.1535203E0,1.1067537E0,1.0467666E0],"tree_param":{"num_deleted":"0","num_feature":"384","num_nodes":"3","size_leaf_vector":"1"}},{"base_weights":[-7.9843414E-4,3.7711896E-2,-3.8711153E-2],"categories":[],"categories_nodes":[],"categories_segments":[],"categories_sizes":[],"default_left":[0,0,0],"id":86,"left_children":[1,-1,-1],"loss_changes":[6.708688E-2,0E0,0E0],"parents":[2147483647,0,0],"right_children":[2,-1,-1],"split_conditions":[-1.2478858E-2,3.7711896E-2,-3.8711153E-2],"split_indices":[208,0,0],"split_type":[0,0,0],"sum_hessian":[2.1354675E0,1.0849427E0,1.0505248E0],"tree_param":{"num_deleted":"0","num_feature":"384","num_nodes":"3","size_leaf_vector":"1"}},{"base_weights":[-8.900975E-4,3.762211E-2,-3.9516862E-2],"categories":[],"categories_nodes":[],"categories_segments":[],"categories_sizes":[],"default_left":[0,0,0],"id":87,"left_children":[1,-1,-1],"loss_changes":[6.8032384E-2,0E0,0E0],"parents":[2147483647,0,0],"right_children":[2,-1,-1],"split_conditions":[1.4999555E-2,3.762211E-2,-3.9516862E-2],"split_indices":[359,0,0],"split_type":[0,0,0],"sum_hessian":[2.117528E0,1.0985413E0,1.0189867E0],"tree_param":{"num_deleted":"0","num_feature":"384","num_nodes":"3","size_leaf_vector":"1"}},{"base_weights":[-1.249166E-3,-3.7161205E-2,3.5930153E-2],"categories":[],"categories_nodes":[],"categories_segments":[],"categories_sizes":[],"default_left":[0,0,0],"id":88,"left_children":[1,-1,-1],"loss_changes":[6.0823802E-2,0E0,0E0],"parents":[2147483647,0,0],"right_children":[2,-1,-1],"split_conditions":[-1.7727097E-2,-3.7161205E-2,3.5930153E-2],"split_indices":[161,0,0],"split_type":[0,0,0],"sum_hessian":[2.0990982E0,1.0309188E0,1.0681794E0],"tree_param":{"num_deleted":"0","num_feature":"384","num_nodes":"3","size_leaf_vector":"1"}},{"base_weights":[-1.2865604E-3,3.628464E-2,-3.562918E-2],"categories":[],"categories_nodes":[],"categories_segments":[],"categories_sizes":[],"default_left":[0,0,0],"id":89,"left_children":[1,-1,-1],"loss_changes":[5.8625117E-2,0E0,0E0],"parents":[2147483647,0,0],"right_children":[2,-1,-1],"split_conditions":[-1.5422556E-2,3.628464E-2,-3.562918E-2],"split_indices":[152,0,0],"split_type":[0,0,0],"sum_hessian":[2.0822499E0,1.0059785E0,1.0762715E0],"tree_param":{"num_deleted":"0","num_feature":"384","num_nodes":"3","size_leaf_vector":"1"}},{"base_weights":[-6.937825E-4,3.5325304E-2,-3.661346E-2],"categories":[],"categories_nodes":[],"categories_segments":[],"categories_sizes":[],"default_left":[0,0,0],"id":90,"left_children":[1,-1,-1],"loss_changes":[5.8444105E-2,0E0,0E0],"parents":[2147483647,0,0],"right_children":[2,-1,-1],"split_conditions":[-8.443716E-3,3.5325304E-2,-3.661346E-2],"split_indices":[225,0,0],"split_type":[0,0,0],"sum_hessian":[2.0663023E0,1.0606858E0,1.0056164E0],"tree_param":{"num_deleted":"0","num_feature":"384","num_nodes":"3","size_leaf_vector":"1"}},{"base_weights":[-9.185511E-4,3.5741974E-2,-3.6999237E-2],"categories":[],"categories_nodes":[],"categories_segments":[],"categories_sizes":[],"default_left":[0,0,0],"id":91,"left_children":[1,-1,-1],"loss_changes":[5.9525635E-2,0E0,0E0],"parents":[2147483647,0,0],"right_children":[2,-1,-1],"split_conditions":[-6.536636E-3,3.5741974E-2,-3.6999237E-2],"split_indices":[255,0,0],"split_type":[0,0,0],"sum_hessian":[2.0504975E0,1.048697E0,1.0018004E0],"tree_param":{"num_deleted":"0","num_feature":"384","num_nodes":"3","size_leaf_vector":"1"}},{"base_weights":[-1.067914E-3,3.417208E-2,-3.4903727E-2],"categories":[],"categories_nodes":[],"categories_segments":[],"categories_sizes":[],"default_left":[0,0,0],"id":92,"left_children":[1,-1,-1],"loss_changes":[5.3470057E-2,0E0,0E0],"parents":[2147483647,0,0],"right_children":[2,-1,-1],"split_conditions":[-7.115407E-33,3.417208E-2,-3.4903727E-2],"split_indices":[223,0,0],"split_type":[0,0,0],"sum_hessian":[2.0343533E0,1.0244691E0,1.0098842E0],"tree_param":{"num_deleted":"0","num_feature":"384","num_nodes":"3","size_leaf_vector":"1"}},{"base_weights":[-9.990061E-4,3.4224167E-2,-3.4804285E-2],"categories":[],"categories_nodes":[],"categories_segments":[],"categories_sizes":[],"default_left":[0,0,0],"id":93,"left_children":[1,-1,-1],"loss_changes":[5.3198375E-2,0E0,0E0],"parents":[2147483647,0,0],"right_children":[2,-1,-1],"split_conditions":[-1.2329067E-2,3.4224167E-2,-3.4804285E-2],"split_indices":[66,0,0],"split_type":[0,0,0],"sum_hessian":[2.019317E0,1.0134387E0,1.0058782E0],"tree_param":{"num_deleted":"0","num_feature":"384","num_nodes":"3","size_leaf_vector":"1"}},{"base_weights":[-9.013004E-4,-3.4139927E-2,3.366069E-2],"categories":[],"categories_nodes":[],"categories_segments":[],"categories_sizes":[],"default_left":[0,0,0],"id":94,"left_children":[1,-1,-1],"loss_changes":[5.113932E-2,0E0,0E0],"parents":[2147483647,0,0],"right_children":[2,-1,-1],"split_conditions":[-1.680546E-2,-3.4139927E-2,3.366069E-2],"split_indices":[282,0,0],"split_type":[0,0,0],"sum_hessian":[2.0049388E0,1.0002991E0,1.0046397E0],"tree_param":{"num_deleted":"0","num_feature":"384","num_nodes":"3","size_leaf_vector":"1"}},{"base_weights":[-7.988279E-4],"categories":[],"categories_nodes":[],"categories_segments":[],"categories_sizes":[],"default_left":[0],"id":95,"left_children":[-1],"loss_changes":[0E0],"parents":[2147483647],"right_children":[-1],"split_conditions":[-2.3964838E-4],"split_indices":[0],"split_type":[0],"sum_hessian":[1.991172E0],"tree_param":{"num_deleted":"0","num_feature":"384","num_nodes":"1","size_leaf_vector":"1"}},{"base_weights":[-6.3893694E-4],"categories":[],"categories_nodes":[],"categories_segments":[],"categories_sizes":[],"default_left":[0],"id":96,"left_children":[-1],"loss_changes":[0E0],"parents":[2147483647],"right_children":[-1],"split_conditions":[-1.9168109E-4],"split_indices":[0],"split_type":[0],"sum_hessian":[1.9911683E0],"tree_param":{"num_deleted":"0","num_feature":"384","num_nodes":"1","size_leaf_vector":"1"}},{"base_weights":[-5.1129534E-4],"categories":[],"categories_nodes":[],"categories_segments":[],"categories_sizes":[],"default_left":[0],"id":97,"left_children":[-1],"loss_changes":[0E0],"parents":[2147483647],"right_children":[-1],"split_conditions":[-1.5338861E-4],"split_indices":[0],"split_type":[0],"sum_hessian":[1.9911649E0],"tree_param":{"num_deleted":"0","num_feature":"384","num_nodes":"1","size_leaf_vector":"1"}},{"base_weights":[-4.091226E-4],"categories":[],"categories_nodes":[],"categories_segments":[],"categories_sizes":[],"default_left":[0],"id":98,"left_children":[-1],"loss_changes":[0E0],"parents":[2147483647],"right_children":[-1],"split_conditions":[-1.2273678E-4],"split_indices":[0],"split_type":[0],"sum_hessian":[1.9911622E0],"tree_param":{"num_deleted":"0","num_feature":"384","num_nodes":"1","size_leaf_vector":"1"}},{"base_weights":[-3.273327E-4],"categories":[],"categories_nodes":[],"categories_segments":[],"categories_sizes":[],"default_left":[0],"id":99,"left_children":[-1],"loss_changes":[0E0],"parents":[2147483647],"right_children":[-1],"split_conditions":[-9.819982E-5],"split_indices":[0],"split_type":[0],"sum_hessian":[1.9911605E0],"tree_param":{"num_deleted":"0","num_feature":"384","num_nodes":"1","size_leaf_vector":"1"}}]},"name":"gbtree"},"learner_model_param":{"base_score":"3.1630743E-1","boost_from_average":"1","num_class":"0","num_feature":"384","num_target":"1"},"objective":{"name":"binary:logistic","reg_loss_param":{"scale_pos_weight":"1"}}},"version":[2,1,4]}