{"learner":{"attributes":{"scikit_learn":"{\"_estimator_type\": \"classifier\"}"},"feature_names":[],"feature_types":[],"gradient_booster":{"model":{"gbtree_model_param":{"num_parallel_tree":"1","num_trees":"100"},"iteration_indptr":[0,1,2,3,4,5,6,7,8,9,10,11,12,13,14,15,16,17,18,19,20,21,22,23,24,25,26,27,28,29,30,31,32,33,34,35,36,37,38,39,40,41,42,43,44,45,46,47,48,49,50,51,52,53,54,55,56,57,58,59,60,61,62,63,64,65,66,67,68,69,70,71,72,73,74,75,76,77,78,79,80,81,82,83,84,85,86,87,88,89,90,91,92,93,94,95,96,97,98,99,100],"tree_info":[0,0,0,0,0,0,0,0,0,0,0,0,0,0,0,0,0,0,0,0,0,0,0,0,0,0,0,0,0,0,0,0,0,0,0,0,0,0,0,0,0,0,0,0,0,0,0,0,0,0,0,0,0,0,0,0,0,0,0,0,0,0,0,0,0,0,0,0,0,0,0,0,0,0,0,0,0,0,0,0,0,0,0,0,0,0,0,0,0,0,0,0,0,0,0,0,0,0,0,0],"trees":[{"base_weights":[-2.5539495E-2,-1.3114765E0,2.4701989E0,-1.3846776E0,1.1107714E0,-5.6822366E-1,2.712647E0,-1.4646206E0,-6.20482E-1,-6.892876E-1,2.2396111E0,-1.2285117E0,1.8135699E0,-4.592107E-1,2.7864435E0,-1.480591E0,-7.825093E-1,-1.1296636E0,1.07075E0,2.2577543E0,-1.1270602E0,-6.601888E-1,2.6409624E0,-1.3902142E0,7.8010684E-1,-1.0344543E0,2.3895257E0,-1.2726378E0,1.9085431E0,2.9764086E-1,2.8309739E0,-1.1316793E0,-1.4905635E0,-1.137622E0,6.9801044E-1,1.1302071E0,-1.2956166E0,2.2377033E0,-5.6485677E-1,1.8315211E-1,7.376348E-1,-1.3872536E0,9.261741E-1,4.5839587E-1,-1.2465917E0,-2.2248034E-1,2.7561018E0,-1.4428781E0,4.5839587E-1,1.9834036E0,-3.6063167E-1,-3.8127175E-1,4.185617E-2,-6.197951E-1,2.703349E0,7.87662E-1,-1.4474885E0,-2.0518978E-1,2.4212058E0,-9.040655E-1,1.9819151E0,9.3490875E-1,2.8606539E0,-4.2447332E-1,1.6334714E-2,-2.3017187E-1,-4.4783813E-1,-3.9158794E-1,3.924176E-1,6.844739E-1,-1.9805665E-1,-3.2258365E-1,6.41982E-1,-1.1955943E-1,-4.1415873E-1,7.791902E-1,3.307406E-2,-3.7844762E-1,5.2973413E-1,1.2208775E-1,-4.3674323E-1,-2.9237494E-1,5.956217E-1,-3.9949158E-1,-9.943976E-2,-4.4930562E-2,8.468094E-1,-4.4205868E-1,2.4986455E-1,7.376348E-1,-9.943976E-2,4.185617E-2,-2.9237494E-1,8.391725E-1,1.2208775E-1,5.381633E-1,-2.4073571E-1,-4.4211718E-1,-9.943976E-2,7.960301E-1,4.185617E-2,2.6191816E-1,-3.8686812E-1,-2.0518978E-1,7.1850276E-1,-2.0930682E-1,6.9167316E-1,1.4058611E-1,8.6236227E-1],"categories":[],"categories_nodes":[],"categories_segments":[],"categories_sizes":[],"default_left":[0,0,0,0,0,0,0,0,0,0,0,0,0,0,0,0,0,0,0,0,0,0,0,0,0,0,0,0,0,0,0,0,0,0,0,0,0,0,0,0,0,0,0,0,0,0,0,0,0,0,0,0,0,0,0,0,0,0,0,0,0,0,0,0,0,0,0,0,0,0,0,0,0,0,0,0,0,0,0,0,0,0,0,0,0,0,0,0,0,0,0,0,0,0,0,0,0,0,0,0,0,0,0,0,0,0,0,0,0],"id":0,"left_children":[1,3,5,7,9,11,13,15,17,19,21,23,25,27,29,31,33,35,37,39,41,43,45,47,49,51,53,55,57,59,61,63,65,67,69,71,73,75,77,-1,-1,79,81,-1,83,-1,85,87,-1,89,-1,-1,-1,91,93,95,97,-1,99,101,103,105,107,-1,-1,-1,-1,-1,-1,-1,-1,-1,-1,-1,-1,-1,-1,-1,-1,-1,-1,-1,-1,-1,-1,-1,-1,-1,-1,-1,-1,-1,-1,-1,-1,-1,-1,-1,-1,-1,-1,-1,-1,-1,-1,-1,-1,-1,-1],"loss_changes":[2.2716479E4,8.298086E2,1.7746113E3,2.7612402E2,2.8110638E2,2.8324954E2,5.2307227E2,4.3555664E1,3.7252362E2,7.194166E1,1.00426575E2,4.6719345E1,6.675484E1,1.0170267E2,2.4061328E2,1.2263672E1,5.1278286E1,1.25936035E2,1.926874E2,9.1291046E-1,2.6661484E1,1.6159096E1,3.1130127E1,2.2244003E1,2.8880928E1,2.2009177E0,3.274518E1,1.5176811E1,1.9704803E1,8.156493E1,1.1776953E2,3.8901596E1,5.1376953E0,3.3621964E1,4.2792847E1,5.4054108E1,2.3037476E1,4.4645782E1,7.132571E1,0E0,0E0,5.827408E0,1.3898412E1,0E0,2.8332424E-1,0E0,1.444043E1,1.0197357E1,0E0,8.837143E0,0E0,0E0,0E0,1.1920956E0,5.3254395E0,7.352594E0,5.734329E-1,0E0,5.754097E0,1.7354359E1,2.0056496E1,7.8747116E1,6.863867E1,0E0,0E0,0E0,0E0,0E0,0E0,0E0,0E0,0E0,0E0,0E0,0E0,0E0,0E0,0E0,0E0,0E0,0E0,0E0,0E0,0E0,0E0,0E0,0E0,0E0,0E0,0E0,0E0,0E0,0E0,0E0,0E0,0E0,0E0,0E0,0E0,0E0,0E0,0E0,0E0,0E0,0E0,0E0,0E0,0E0,0E0],"parents":[2147483647,0,0,1,1,2,2,3,3,4,4,5,5,6,6,7,7,8,8,9,9,10,10,11,11,12,12,13,13,14,14,15,15,16,16,17,17,18,18,19,19,20,20,21,21,22,22,23,23,24,24,25,25,26,26,27,27,28,28,29,29,30,30,31,31,32,32,33,33,34,34,35,35,36,36,37,37,38,38,41,41,42,42,44,44,46,46,47,47,49,49,53,53,54,54,55,55,56,56,58,58,59,59,60,60,61,61,62,62],"right_children":[2,4,6,8,10,12,14,16,18,20,22,24,26,28,30,32,34,36,38,40,42,44,46,48,50,52,54,56,58,60,62,64,66,68,70,72,74,76,78,-1,-1,80,82,-1,84,-1,86,88,-1,90,-1,-1,-1,92,94,96,98,-1,100,102,104,106,108,-1,-1,-1,-1,-1,-1,-1,-1,-1,-1,-1,-1,-1,-1,-1,-1,-1,-1,-1,-1,-1,-1,-1,-1,-1,-1,-1,-1,-1,-1,-1,-1,-1,-1,-1,-1,-1,-1,-1,-1,-1,-1,-1,-1,-1,-1],"split_conditions":[9.4113305E-2,5.02723E-2,3.5134017E-1,6.782386E-2,-1.9518027E-2,2.6972562E-2,-6.312529E-2,6.429007E-2,2.855399E-3,-5.8866087E-2,-4.5624997E-2,1.4572898E-2,-3.8734924E-2,1.7603739E-3,-2.7286164E-2,-2.860371E-2,4.1053373E-1,-1.800187E-2,2.5644612E-2,-1.0493266E-2,3.315513E-2,1.8546483E-2,-4.9764086E-2,3.7814364E-2,4.576567E-2,3.846055E-2,-2.0022884E-2,-2.8255891E-2,-6.2260395E-3,-1.5747808E-3,-5.5026736E-2,4.01659E-2,-9.240988E-2,5.105859E-2,-1.3134953E-2,-9.3110595E-3,-4.01412E-2,1.9568965E-2,1.8635198E-2,1.8315211E-1,7.376348E-1,-8.724122E-2,-2.334725E-2,4.5839587E-1,3.101947E-2,-2.2248034E-1,-6.625564E-2,1.1392921E-1,4.5839587E-1,4.81695E-2,-3.6063167E-1,-3.8127175E-1,4.185617E-2,-1.3909714E-2,2.6164075E-2,-3.2539066E-2,1.5380308E-2,-2.0518978E-1,2.1348275E-2,-2.899564E-2,-1.930222E-2,2.2213418E-2,-5.4956205E-2,-4.2447332E-1,1.6334714E-2,-2.3017187E-1,-4.4783813E-1,-3.9158794E-1,3.924176E-1,6.844739E-1,-1.9805665E-1,-3.2258365E-1,6.41982E-1,-1.1955943E-1,-4.1415873E-1,7.791902E-1,3.307406E-2,-3.7844762E-1,5.2973413E-1,1.2208775E-1,-4.3674323E-1,-2.9237494E-1,5.956217E-1,-3.9949158E-1,-9.943976E-2,-4.4930562E-2,8.468094E-1,-4.4205868E-1,2.4986455E-1,7.376348E-1,-9.943976E-2,4.185617E-2,-2.9237494E-1,8.391725E-1,1.2208775E-1,5.381633E-1,-2.4073571E-1,-4.4211718E-1,-9.943976E-2,7.960301E-1,4.185617E-2,2.6191816E-1,-3.8686812E-1,-2.0518978E-1,7.1850276E-1,-2.0930682E-1,6.9167316E-1,1.4058611E-1,8.6236227E-1],"split_indices":[48,202,99,48,359,239,153,231,359,185,250,21,124,124,239,287,99,287,88,7,234,163,124,153,129,13,344,11,130,359,359,48,263,372,364,124,309,11,234,0,0,295,131,0,1,0,131,294,0,24,0,0,0,4,214,18,1,0,23,309,130,130,21,0,0,0,0,0,0,0,0,0,0,0,0,0,0,0,0,0,0,0,0,0,0,0,0,0,0,0,0,0,0,0,0,0,0,0,0,0,0,0,0,0,0,0,0,0,0],"split_type":[0,0,0,0,0,0,0,0,0,0,0,0,0,0,0,0,0,0,0,0,0,0,0,0,0,0,0,0,0,0,0,0,0,0,0,0,0,0,0,0,0,0,0,0,0,0,0,0,0,0,0,0,0,0,0,0,0,0,0,0,0,0,0,0,0,0,0,0,0,0,0,0,0,0,0,0,0,0,0,0,0,0,0,0,0,0,0,0,0,0,0,0,0,0,0,0,0,0,0,0,0,0,0,0,0,0,0,0,0],"sum_hessian":[7.076181E3,4.6702793E3,2.4059016E3,4.5336978E3,1.3658153E2,1.7769077E2,2.2282107E3,4.103511E3,4.301869E2,5.2790558E1,8.379097E1,1.3950186E2,3.8188915E1,5.054415E1,2.1776667E3,4.008488E3,9.5023E1,3.308957E2,9.9291176E1,6.289939E0,4.6500618E1,1.010883E1,7.368214E1,1.2939302E2,1.010883E1,6.289939E0,3.1898975E1,3.796427E1,1.2579878E1,3.8413555E1,2.1392532E3,1.1456674E2,3.8939214E3,7.682711E1,1.8195894E1,2.2239426E1,3.0865628E2,5.773265E1,4.1558525E1,1.1232033E0,5.166735E0,4.1558525E1,4.942095E0,1.7971253E0,8.311705E0,2.2464066E0,7.143573E1,1.275959E2,1.7971253E0,6.289939E0,3.8188913E0,5.166735E0,1.1232033E0,2.9203286E0,2.8978645E1,2.695688E0,3.5268585E1,2.021766E0,1.0558111E1,2.2688707E1,1.5724847E1,3.347146E1,2.1057817E3,9.232732E1,2.2239426E1,1.3029159E1,3.880892E3,7.23343E1,4.492813E0,8.087064E0,1.010883E1,6.9638605E0,1.5275565E1,2.718152E1,2.8147476E2,4.9196304E1,8.5363455E0,3.2348255E1,9.210267E0,1.347844E0,4.021068E1,1.7971253E0,3.1449695E0,7.1885014E0,1.1232033E0,1.5724847E0,6.986325E1,1.26248055E2,1.347844E0,5.166735E0,1.1232033E0,1.1232033E0,1.7971253E0,2.7630802E1,1.347844E0,1.5724847E0,1.1232033E0,3.4145382E1,1.1232033E0,9.434908E0,1.1232033E0,3.8188913E0,1.8869816E1,2.021766E0,1.3703081E1,1.5500206E1,1.7971252E1,1.2355237E1,2.0934263E3],"tree_param":{"num_deleted":"0","num_feature":"384","num_nodes":"109","size_leaf_vector":"1"}},{"base_weights":[-6.857403E-2,-1.1656812E0,1.4920112E0,-1.2354671E0,1.9844653E-1,-5.0552815E-1,1.6637621E0,-1.2656977E0,-4.8449653E-1,1.2446656E0,-8.424412E-1,-1.1122785E0,1.1001776E0,-3.351986E-1,1.7172501E0,-1.2968073E0,-8.7798876E-1,6.192653E-1,-1.0131847E0,1.7366942E0,-2.7681777E-1,-1.1712375E0,6.0728985E-1,2.065322E-1,-1.262817E0,1.4779422E0,-9.8322225E-1,1.4514499E0,-9.255132E-1,-1.8793733E-1,1.7459638E0,-9.925625E-1,-1.3057559E0,8.394794E-1,-1.0510508E0,1.2153572E0,-1.1685582E0,-1.2040739E0,1.878694E-1,1.809103E-1,1.8972069E0,-9.8613656E-1,1.3224518E0,-1.2454394E0,7.070856E-1,-3.3466864E-1,1.3598742E0,1.4165474E0,-7.4795955E-1,-1.2957631E0,2.3231572E-1,1.6745641E0,1.1368514E-2,-3.6358267E-1,1.2271632E-1,-2.2761182E-1,1.6898518E0,2.1367987E-1,-1.2454786E0,-9.563058E-1,1.2279454E0,-2.0843674E-1,1.7663656E0,-3.3884245E-1,3.1851202E-1,-2.996901E-1,-3.9360556E-1,-3.3257112E-1,4.2362604E-1,-3.5678306E-1,-4.8682285E-3,-1.7882086E-1,5.4961544E-1,-3.7134802E-1,-5.8460433E-2,-3.820616E-1,6.1987553E-2,-3.5057792E-1,3.9449257E-1,-2.7922085E-1,4.255293E-1,5.8074296E-1,-7.637435E-2,1.3961111E-1,-3.6703464E-1,4.9305508E-1,-1.0528716E-1,2.3285368E-1,-3.8985506E-1,4.1673908E-1,-1.0955756E-1,-1.7401558E-1,5.1539576E-1,-1.9450561E-4,4.9566567E-1,-3.3539107E-1,3.1403944E-1,-3.9708802E-1,1.2005296E-1,-8.3802976E-2,5.275352E-1,3.5787135E-1,-2.9945612E-1,2.3293138E-2,5.427296E-1,3.810595E-1,-3.467202E-1,-2.451379E-2,-3.9239094E-1,4.665824E-1,-3.425237E-1,5.0387794E-1,-3.2656655E-1,-3.7105617E-1,2.795658E-1,5.347171E-1,2.5666702E-1],"categories":[],"categories_nodes":[],"categories_segments":[],"categories_sizes":[],"default_left":[0,0,0,0,0,0,0,0,0,0,0,0,0,0,0,0,0,0,0,0,0,0,0,0,0,0,0,0,0,0,0,0,0,0,0,0,0,0,0,0,0,0,0,0,0,0,0,0,0,0,0,0,0,0,0,0,0,0,0,0,0,0,0,0,0,0,0,0,0,0,0,0,0,0,0,0,0,0,0,0,0,0,0,0,0,0,0,0,0,0,0,0,0,0,0,0,0,0,0,0,0,0,0,0,0,0,0,0,0,0,0,0,0,0,0,0,0],"id":1,"left_children":[1,3,5,7,9,11,13,15,17,19,21,23,25,27,29,31,33,35,37,39,41,43,45,47,49,51,53,55,57,59,61,63,65,67,69,71,73,75,77,79,81,83,85,87,89,-1,91,93,95,97,-1,99,101,-1,-1,-1,103,105,107,109,111,113,115,-1,-1,-1,-1,-1,-1,-1,-1,-1,-1,-1,-1,-1,-1,-1,-1,-1,-1,-1,-1,-1,-1,-1,-1,-1,-1,-1,-1,-1,-1,-1,-1,-1,-1,-1,-1,-1,-1,-1,-1,-1,-1,-1,-1,-1,-1,-1,-1,-1,-1,-1,-1,-1,-1],"loss_changes":[1.1204065E4,3.6604248E2,9.276299E2,8.237842E1,2.0563873E2,2.1034505E2,2.6656494E2,4.1240723E1,8.412445E1,7.092444E1,4.588565E1,3.1286942E1,4.8177666E1,7.0603065E1,1.3288379E2,7.5527344E0,7.937515E1,5.1466476E1,2.2493896E1,1.744754E1,2.8367125E1,1.16951065E1,2.5087692E1,2.0544106E1,1.0427292E1,1.4587837E1,3.5887346E0,1.0080399E1,1.8480541E1,4.1296158E1,9.5552734E1,2.8492798E1,4.7504883E0,2.9151436E1,3.4360565E1,4.098178E1,5.8514977E-1,8.488777E0,2.3223213E1,1.2006718E1,5.848343E0,6.4594917E0,4.7445536E0,9.20858E0,3.1303377E0,0E0,1.0099176E1,2.6012077E0,7.867858E0,7.076721E0,0E0,7.8112183E0,9.53483E0,0E0,0E0,0E0,2.816761E0,1.8556517E1,2.7409859E0,1.3171761E1,1.5859627E1,3.1123701E1,3.2958008E1,0E0,0E0,0E0,0E0,0E0,0E0,0E0,0E0,0E0,0E0,0E0,0E0,0E0,0E0,0E0,0E0,0E0,0E0,0E0,0E0,0E0,0E0,0E0,0E0,0E0,0E0,0E0,0E0,0E0,0E0,0E0,0E0,0E0,0E0,0E0,0E0,0E0,0E0,0E0,0E0,0E0,0E0,0E0,0E0,0E0,0E0,0E0,0E0,0E0,0E0,0E0,0E0,0E0,0E0],"parents":[2147483647,0,0,1,1,2,2,3,3,4,4,5,5,6,6,7,7,8,8,9,9,10,10,11,11,12,12,13,13,14,14,15,15,16,16,17,17,18,18,19,19,20,20,21,21,22,22,23,23,24,24,25,25,26,26,27,27,28,28,29,29,30,30,31,31,32,32,33,33,34,34,35,35,36,36,37,37,38,38,39,39,40,40,41,41,42,42,43,43,44,44,46,46,47,47,48,48,49,49,51,51,52,52,56,56,57,57,58,58,59,59,60,60,61,61,62,62],"right_children":[2,4,6,8,10,12,14,16,18,20,22,24,26,28,30,32,34,36,38,40,42,44,46,48,50,52,54,56,58,60,62,64,66,68,70,72,74,76,78,80,82,84,86,88,90,-1,92,94,96,98,-1,100,102,-1,-1,-1,104,106,108,110,112,114,116,-1,-1,-1,-1,-1,-1,-1,-1,-1,-1,-1,-1,-1,-1,-1,-1,-1,-1,-1,-1,-1,-1,-1,-1,-1,-1,-1,-1,-1,-1,-1,-1,-1,-1,-1,-1,-1,-1,-1,-1,-1,-1,-1,-1,-1,-1,-1,-1,-1,-1,-1,-1,-1,-1],"split_conditions":[8.7808736E-2,3.9212894E-2,-4.5968473E-2,5.6142576E-2,9.045086E-3,6.190122E-3,3.3883318E-1,6.782386E-2,6.0907397E-3,5.6728527E-2,9.729416E-3,-5.7027087E-2,8.089129E-2,-8.3620444E-2,-3.12191E-2,-2.860371E-2,-1.800187E-2,2.8198717E-2,1.5960526E-2,-6.3747987E-3,3.3846744E-3,5.23436E-2,-2.100729E-3,1.1595942E-2,1.7725635E-1,3.6175843E-2,3.3291586E-2,-2.365813E-2,-2.1444274E-2,-5.9185567E-4,-6.3368924E-2,4.7080245E-2,-7.36418E-2,-5.864231E-2,-1.4652191E-4,-2.6259227E-2,-5.6452194E-4,3.6788937E-2,2.3489363E-2,-1.3743572E-1,3.073208E-2,-2.9893585E-2,6.6321326E-4,-6.5851785E-2,1.920509E-2,-3.3466864E-1,-3.8317353E-2,2.7441233E-4,4.406675E-2,4.416337E-2,2.3231572E-1,-1.6660383E-2,3.1440225E-3,-3.6358267E-1,1.2271632E-1,-2.2761182E-1,-4.3936815E-2,6.2021278E-2,-9.0203434E-2,-5.022906E-2,-2.4115482E-2,2.670078E-3,6.108608E-2,-3.3884245E-1,3.1851202E-1,-2.996901E-1,-3.9360556E-1,-3.3257112E-1,4.2362604E-1,-3.5678306E-1,-4.8682285E-3,-1.7882086E-1,5.4961544E-1,-3.7134802E-1,-5.8460433E-2,-3.820616E-1,6.1987553E-2,-3.5057792E-1,3.9449257E-1,-2.7922085E-1,4.255293E-1,5.8074296E-1,-7.637435E-2,1.3961111E-1,-3.6703464E-1,4.9305508E-1,-1.0528716E-1,2.3285368E-1,-3.8985506E-1,4.1673908E-1,-1.0955756E-1,-1.7401558E-1,5.1539576E-1,-1.9450561E-4,4.9566567E-1,-3.3539107E-1,3.1403944E-1,-3.9708802E-1,1.2005296E-1,-8.3802976E-2,5.275352E-1,3.5787135E-1,-2.9945612E-1,2.3293138E-2,5.427296E-1,3.810595E-1,-3.467202E-1,-2.451379E-2,-3.9239094E-1,4.665824E-1,-3.425237E-1,5.0387794E-1,-3.2656655E-1,-3.7105617E-1,2.795658E-1,5.347171E-1,2.5666702E-1],"split_indices":[48,202,153,231,287,124,99,48,88,163,359,295,247,141,239,287,287,65,21,239,359,124,48,377,48,46,164,250,100,359,225,239,267,153,153,359,131,1,48,62,195,309,114,263,25,0,375,130,231,359,0,239,351,0,0,0,0,174,94,11,263,124,88,0,0,0,0,0,0,0,0,0,0,0,0,0,0,0,0,0,0,0,0,0,0,0,0,0,0,0,0,0,0,0,0,0,0,0,0,0,0,0,0,0,0,0,0,0,0,0,0,0,0,0,0,0,0],"split_type":[0,0,0,0,0,0,0,0,0,0,0,0,0,0,0,0,0,0,0,0,0,0,0,0,0,0,0,0,0,0,0,0,0,0,0,0,0,0,0,0,0,0,0,0,0,0,0,0,0,0,0,0,0,0,0,0,0,0,0,0,0,0,0,0,0,0,0,0,0,0,0,0,0,0,0,0,0,0,0,0,0,0,0,0,0,0,0,0,0,0,0,0,0,0,0,0,0,0,0,0,0,0,0,0,0,0,0,0,0,0,0,0,0,0,0,0,0],"sum_hessian":[6.5419204E3,3.8415352E3,2.700385E3,3.6546648E3,1.8687035E2,2.1364577E2,2.4867393E3,3.512579E3,1.4208563E2,9.309887E1,9.3771484E1,1.5527795E2,5.83678E1,6.466866E1,2.4220708E3,3.2494966E3,2.6308252E2,4.5960617E1,9.6125015E1,7.024203E1,2.2856838E1,7.659254E1,1.7178947E1,1.5870509E1,1.3940746E2,4.9654922E1,8.712879E0,1.5698066E1,4.89706E1,3.5879436E1,2.3861912E3,9.604234E1,3.1534543E3,2.373047E1,2.3935205E2,3.470842E1,1.1252194E1,8.2940384E1,1.3184625E1,6.768152E0,6.3473877E1,1.6099613E1,6.757225E0,7.400592E1,2.586615E0,5.0761275E0,1.2102819E1,6.785016E0,9.085493E0,1.3754695E2,1.8604933E0,4.36597E1,5.9952254E0,7.594755E0,1.1181241E0,1.3159355E0,1.438213E1,1.0811153E1,3.8159447E1,2.3468294E1,1.2411141E1,2.4556742E1,2.3616345E3,9.046335E1,5.5789914E0,6.6296646E1,3.0871577E3,5.1781263E0,1.8552345E1,2.1101637E2,2.8335684E1,8.82374E0,2.588468E1,1.0251619E1,1.0005755E0,7.9140625E1,3.7997608E0,5.9668093E0,7.217815E0,3.6959963E0,3.072156E0,6.2453835E1,1.0200443E0,2.1272712E0,1.39723425E1,5.6844525E0,1.0727723E0,1.5801635E0,7.242576E1,1.4003792E0,1.1862358E0,1.7894475E0,1.0313372E1,1.1096218E0,5.675394E0,7.8452024E0,1.2402906E0,1.3553963E2,2.007324E0,1.701351E0,4.1958347E1,2.6786485E0,3.316577E0,1.1042241E0,1.3277905E1,6.143683E0,4.6674705E0,2.0622306E0,3.6097218E1,1.1057091E0,2.2362585E1,1.061624E1,1.794902E0,1.2867417E1,1.1689325E1,2.3198625E3,4.177202E1],"tree_param":{"num_deleted":"0","num_feature":"384","num_nodes":"117","size_leaf_vector":"1"}},{"base_weights":[-7.26551E-2,-1.0503129E0,1.2004563E0,-1.1269777E0,-2.9832653E-3,-3.4905142E-1,1.3442883E0,-1.18528E0,-7.5129837E-1,9.2516303E-1,-8.5220003E-1,-1.0454898E0,8.111186E-1,-1.72177E-2,1.4008605E0,-1.1913999E0,-2.6375642E-1,3.568272E-1,-1.0495818E0,-4.1034243E-1,1.4020787E0,1.0992228E0,-1.0334883E0,-1.1600615E0,6.380085E-1,1.2011714E0,-6.21942E-1,-9.0536654E-1,9.918098E-1,-4.7833297E-1,1.4177758E0,-1.2017276E0,-9.116273E-1,1.0438534E0,-9.4607955E-1,-7.6967007E-1,1.1667743E0,-1.08183E0,5.3318155E-1,1.1996219E0,-9.068642E-1,-1.5459482E-1,1.5563632E0,4.892076E-1,-1.971498E-1,-1.1215205E0,5.2224976E-1,2.0586376E-1,-1.1938084E0,-5.2949804E-1,3.924558E-1,-3.471586E-1,1.3244387E0,-1.0444673E0,3.0578804E-1,4.764618E-1,-1.2761536E0,1.3523902E0,-7.652889E-1,-1.201692E0,8.0622405E-1,4.6535897E-1,1.4422892E0,-3.6098894E-1,-4.5959957E-2,2.5885773E-1,-3.0793092E-1,-1.4887448E-1,4.7987157E-1,-3.5138154E-1,1.7543906E-1,2.640894E-1,-3.1754348E-1,4.8144782E-1,-1.4365554E-1,-3.382541E-1,1.9824687E-1,4.5152104E-1,-9.1877304E-2,-3.206699E-1,2.576185E-1,2.864169E-1,-2.9642394E-1,4.7973788E-1,-3.5037484E-2,2.397983E-1,-3.4574094E-1,-2.0300291E-1,4.2796192E-1,1.4399406E-1,-3.6455733E-1,-2.658417E-1,7.484809E-2,-5.225647E-2,4.297331E-1,-3.826617E-1,1.04954205E-1,3.2499215E-1,-3.2335564E-1,1.3310592E-1,-4.1380778E-1,4.5845005E-1,-1.8604647E-1,-3.3073065E-1,1.6473496E-1,-4.2044625E-1,7.897651E-2,-1.6731435E-1,3.7404686E-1,-3.237338E-1,2.8709882E-1,-1.2003692E-1,4.3545875E-1],"categories":[],"categories_nodes":[],"categories_segments":[],"categories_sizes":[],"default_left":[0,0,0,0,0,0,0,0,0,0,0,0,0,0,0,0,0,0,0,0,0,0,0,0,0,0,0,0,0,0,0,0,0,0,0,0,0,0,0,0,0,0,0,0,0,0,0,0,0,0,0,0,0,0,0,0,0,0,0,0,0,0,0,0,0,0,0,0,0,0,0,0,0,0,0,0,0,0,0,0,0,0,0,0,0,0,0,0,0,0,0,0,0,0,0,0,0,0,0,0,0,0,0,0,0,0,0,0,0,0,0,0,0],"id":2,"left_children":[1,3,5,7,9,11,13,15,17,19,21,23,25,27,29,31,33,35,37,39,41,43,45,47,49,51,53,55,57,59,61,63,65,67,69,71,73,75,-1,77,79,81,83,-1,-1,85,87,-1,89,91,-1,-1,93,95,-1,97,99,101,103,105,107,109,111,-1,-1,-1,-1,-1,-1,-1,-1,-1,-1,-1,-1,-1,-1,-1,-1,-1,-1,-1,-1,-1,-1,-1,-1,-1,-1,-1,-1,-1,-1,-1,-1,-1,-1,-1,-1,-1,-1,-1,-1,-1,-1,-1,-1,-1,-1,-1,-1,-1,-1],"loss_changes":[6.859773E3,2.5029932E2,5.340093E2,6.273169E1,1.6917061E2,1.657879E2,1.6876904E2,1.3856934E1,1.3026173E2,6.589232E1,4.0786125E1,2.5428787E1,4.3864582E1,8.010803E1,6.753955E1,6.116211E0,1.6924269E1,7.762078E1,3.0170868E1,2.3277576E1,1.844368E1,1.0417214E1,1.4701271E1,8.308289E0,7.5790515E0,1.9258713E1,1.2966074E1,2.496194E1,2.755341E1,1.909975E1,4.800537E1,3.7702637E0,1.9831703E1,6.442558E0,4.9121456E0,1.7978899E1,3.6317978E1,2.5185394E1,0E0,3.6685276E0,7.150343E0,8.103586E0,5.1270905E0,0E0,0E0,6.7391357E0,7.6894207E0,0E0,4.820984E0,1.3105679E0,0E0,0E0,9.70414E0,5.0027647E0,0E0,1.1339611E1,7.312214E0,1.3114319E1,4.046569E0,4.140127E0,5.2793655E0,4.1878067E1,3.517578E1,0E0,0E0,0E0,0E0,0E0,0E0,0E0,0E0,0E0,0E0,0E0,0E0,0E0,0E0,0E0,0E0,0E0,0E0,0E0,0E0,0E0,0E0,0E0,0E0,0E0,0E0,0E0,0E0,0E0,0E0,0E0,0E0,0E0,0E0,0E0,0E0,0E0,0E0,0E0,0E0,0E0,0E0,0E0,0E0,0E0,0E0,0E0,0E0,0E0,0E0],"parents":[2147483647,0,0,1,1,2,2,3,3,4,4,5,5,6,6,7,7,8,8,9,9,10,10,11,11,12,12,13,13,14,14,15,15,16,16,17,17,18,18,19,19,20,20,21,21,22,22,23,23,24,24,25,25,26,26,27,27,28,28,29,29,30,30,31,31,32,32,33,33,34,34,35,35,36,36,37,37,39,39,40,40,41,41,42,42,45,45,46,46,48,48,49,49,52,52,53,53,55,55,56,56,57,57,58,58,59,59,60,60,61,61,62,62],"right_children":[2,4,6,8,10,12,14,16,18,20,22,24,26,28,30,32,34,36,38,40,42,44,46,48,50,52,54,56,58,60,62,64,66,68,70,72,74,76,-1,78,80,82,84,-1,-1,86,88,-1,90,92,-1,-1,94,96,-1,98,100,102,104,106,108,110,112,-1,-1,-1,-1,-1,-1,-1,-1,-1,-1,-1,-1,-1,-1,-1,-1,-1,-1,-1,-1,-1,-1,-1,-1,-1,-1,-1,-1,-1,-1,-1,-1,-1,-1,-1,-1,-1,-1,-1,-1,-1,-1,-1,-1,-1,-1,-1,-1,-1,-1],"split_conditions":[8.7808736E-2,3.3125587E-2,-1.006619E-2,5.678446E-2,1.05751185E-2,-1.2589993E-3,-4.607928E-2,8.7980576E-2,5.615651E-3,3.9005663E-2,-5.2459605E-2,1.5509486E-2,-2.0243784E-2,1.2961362E-1,-7.548498E-2,2.270911E-2,2.9410973E-2,-2.433382E-2,6.876318E-2,-5.094771E-2,-2.708493E-2,2.5840964E-2,5.0896116E-2,-6.7954294E-2,1.4500599E-2,-5.6779534E-2,3.4126054E-2,-1.2861249E-2,4.1741364E-2,-1.038139E-2,-4.8944004E-2,6.240771E-2,-2.3632139E-2,1.7386221E-3,5.0843928E-2,-4.001546E-2,1.8696666E-2,4.8270546E-2,5.3318155E-1,-2.3104278E-2,6.680844E-2,-3.41145E-2,2.921804E-2,4.892076E-1,-1.971498E-1,-9.826248E-2,-2.885388E-3,2.0586376E-1,-8.004621E-2,-6.567636E-3,3.924558E-1,-3.471586E-1,-3.9801233E-2,1.9880138E-2,3.0578804E-1,4.7433052E-2,-5.6286708E-2,4.379253E-2,2.1047797E-2,3.4200687E-2,-2.7006494E-2,1.7023409E-2,-4.9182676E-2,-3.6098894E-1,-4.5959957E-2,2.5885773E-1,-3.0793092E-1,-1.4887448E-1,4.7987157E-1,-3.5138154E-1,1.7543906E-1,2.640894E-1,-3.1754348E-1,4.8144782E-1,-1.4365554E-1,-3.382541E-1,1.9824687E-1,4.5152104E-1,-9.1877304E-2,-3.206699E-1,2.576185E-1,2.864169E-1,-2.9642394E-1,4.7973788E-1,-3.5037484E-2,2.397983E-1,-3.4574094E-1,-2.0300291E-1,4.2796192E-1,1.4399406E-1,-3.6455733E-1,-2.658417E-1,7.484809E-2,-5.225647E-2,4.297331E-1,-3.826617E-1,1.04954205E-1,3.2499215E-1,-3.2335564E-1,1.3310592E-1,-4.1380778E-1,4.5845005E-1,-1.8604647E-1,-3.3073065E-1,1.6473496E-1,-4.2044625E-1,7.897651E-2,-1.6731435E-1,3.7404686E-1,-3.237338E-1,2.8709882E-1,-1.2003692E-1,4.3545875E-1],"split_indices":[48,202,239,48,287,21,359,231,88,48,263,153,263,48,375,225,232,359,359,185,231,11,231,100,353,225,130,287,88,359,225,186,339,372,14,364,11,234,0,295,16,260,260,0,0,113,329,0,195,352,0,0,81,320,0,168,137,287,82,109,27,130,202,0,0,0,0,0,0,0,0,0,0,0,0,0,0,0,0,0,0,0,0,0,0,0,0,0,0,0,0,0,0,0,0,0,0,0,0,0,0,0,0,0,0,0,0,0,0,0,0,0,0],"split_type":[0,0,0,0,0,0,0,0,0,0,0,0,0,0,0,0,0,0,0,0,0,0,0,0,0,0,0,0,0,0,0,0,0,0,0,0,0,0,0,0,0,0,0,0,0,0,0,0,0,0,0,0,0,0,0,0,0,0,0,0,0,0,0,0,0,0,0,0,0,0,0,0,0,0,0,0,0,0,0,0,0,0,0,0,0,0,0,0,0,0,0,0,0,0,0,0,0,0,0,0,0,0,0,0,0,0,0,0,0,0,0,0,0],"sum_hessian":[5.509318E3,3.116356E3,2.3929622E3,2.9037266E3,2.1262947E2,2.0313684E2,2.1898252E3,2.5117664E3,3.9196002E2,1.0155076E2,1.1107871E2,1.2699929E2,7.613755E1,8.738767E1,2.1024375E3,2.4949045E3,1.6862003E1,8.308865E1,3.0887137E2,2.6758532E1,7.479223E1,9.011691E0,1.02067024E2,1.19198105E2,7.801185E0,5.997521E1,1.6162338E1,4.653243E1,4.085524E1,1.851248E1,2.083925E3,2.4029075E3,9.199709E1,5.60009E0,1.1261912E1,3.477388E1,4.831477E1,3.059979E2,2.8734624E0,5.9734993E0,2.0785032E1,6.744156E0,6.804807E1,6.973217E0,2.0384743E0,9.6864975E1,5.2020464E0,1.7925949E0,1.1740551E2,2.9215348E0,4.8796506E0,2.5624466E0,5.741276E1,1.3142497E1,3.0198412E0,9.7842045E0,3.6748226E1,3.4089867E1,6.7653723E0,1.1884562E1,6.6279182E0,5.2792057E1,2.031133E3,2.39917E3,3.7373464E0,5.1945567E0,8.6802536E1,1.5132709E0,4.086819E0,1.0022502E1,1.2394111E0,4.8749766E0,2.9898905E1,3.8177135E1,1.0137636E1,2.9852505E2,7.4728417E0,4.966622E0,1.0068773E0,1.9399277E1,1.3857546E0,2.8309176E0,3.9132383E0,6.639536E1,1.6527089E0,1.1422861E0,9.572269E1,2.3448718E0,2.8571749E0,1.2103947E0,1.16195114E2,1.9096882E0,1.0118467E0,3.8183448E0,5.3594418E1,1.1347181E1,1.7953157E0,7.2547784E0,2.5294256E0,1.893614E0,3.485461E1,3.150747E1,2.5823991E0,5.5126405E0,1.252732E0,1.04963455E1,1.388216E0,1.5533828E0,5.074536E0,1.2458598E1,4.0333458E1,9.924464E0,2.0212085E3],"tree_param":{"num_deleted":"0","num_feature":"384","num_nodes":"113","size_leaf_vector":"1"}},{"base_weights":[-7.171659E-2,-9.21131E-1,1.1070318E0,-1.0208646E0,1.6938715E-1,-4.48819E-1,1.1925331E0,-1.0748444E0,-3.563409E-1,-7.3047006E-1,8.6307544E-1,-9.518982E-1,6.7242557E-1,3.4827572E-1,1.2500888E0,-6.0811436E-1,-1.1065514E0,-8.39551E-1,7.6708704E-1,9.2373854E-1,-9.3258363E-1,-9.195867E-1,1.12684E0,-1.1190027E0,6.5506265E-2,-6.0648715E-1,1.0759457E0,-8.51805E-1,1.0061189E0,1.8991139E-2,1.2676964E0,-1.0127697E0,3.3614072E-1,-7.2823685E-1,-1.1271812E0,6.398905E-1,-9.468461E-1,-3.0892015E-1,1.2379085E0,-5.315365E-1,1.3743676E0,7.274006E-1,-1.0486577E0,-1.0917946E0,2.504096E-1,-7.594633E-1,1.2485962E0,8.3874844E-2,-1.1525217E0,-7.4214053E-1,9.907273E-1,-3.043229E-1,1.9195752E-1,1.269077E0,-2.9116014E-1,2.967254E-1,-1.3701991E0,-4.1532522E-1,1.2040045E0,-1.2719864E0,9.42315E-1,1.2803311E0,1.6716555E-1,2.3774916E-1,-3.1486607E-1,3.2202727E-1,-1.928231E-1,4.2078403E-1,-2.7876082E-1,-1.4155768E-1,-3.4013575E-1,4.9623555E-1,-1.8678999E-1,3.5091136E-2,-3.0903018E-1,1.949758E-2,5.0991637E-1,-2.1975392E-2,-2.0977713E-1,-2.9295698E-2,4.998346E-1,-1.6440274E-1,3.8256207E-1,2.1469973E-1,-3.361961E-1,7.3147506E-2,-3.614525E-1,1.1007882E-1,-3.035298E-1,3.9499977E-1,-2.3839738E-2,-3.5076177E-1,-3.264944E-2,5.6118954E-2,-2.9217407E-1,1.1041609E-2,3.640719E-1,3.929307E-1,6.727541E-2,1.5752473E-1,-2.39632E-1,-2.3497504E-1,2.7181718E-1,1.78565E-1,-4.5142925E-1,-3.7731984E-1,2.913272E-1,-1.9114867E-1,3.7866634E-1,-4.298114E-1,5.1749055E-3,3.4796757E-1,-2.427167E-1,-8.292039E-3,3.8639194E-1,-2.6303726E-1,3.234086E-1],"categories":[],"categories_nodes":[],"categories_segments":[],"categories_sizes":[],"default_left":[0,0,0,0,0,0,0,0,0,0,0,0,0,0,0,0,0,0,0,0,0,0,0,0,0,0,0,0,0,0,0,0,0,0,0,0,0,0,0,0,0,0,0,0,0,0,0,0,0,0,0,0,0,0,0,0,0,0,0,0,0,0,0,0,0,0,0,0,0,0,0,0,0,0,0,0,0,0,0,0,0,0,0,0,0,0,0,0,0,0,0,0,0,0,0,0,0,0,0,0,0,0,0,0,0,0,0,0,0,0,0,0,0,0,0,0,0],"id":3,"left_children":[1,3,5,7,9,11,13,15,17,19,21,23,25,27,29,31,33,35,37,39,41,43,45,47,49,51,53,55,57,59,61,63,65,67,69,71,73,-1,75,77,79,81,83,85,-1,87,89,-1,91,93,95,-1,-1,97,99,101,103,105,107,109,111,113,115,-1,-1,-1,-1,-1,-1,-1,-1,-1,-1,-1,-1,-1,-1,-1,-1,-1,-1,-1,-1,-1,-1,-1,-1,-1,-1,-1,-1,-1,-1,-1,-1,-1,-1,-1,-1,-1,-1,-1,-1,-1,-1,-1,-1,-1,-1,-1,-1,-1,-1,-1,-1,-1,-1],"loss_changes":[4.4820195E3,2.8312842E2,2.4993555E2,8.512451E1,1.3724274E2,5.613878E1,8.593262E1,3.194629E1,9.867407E1,3.2894608E1,5.9361183E1,1.1690315E1,1.6680893E1,9.150725E1,3.6036865E1,5.4764442E1,1.5277588E1,2.0725601E1,4.7663776E1,7.9009914E0,1.7309563E1,5.9076138E0,2.5868164E1,3.0761871E0,8.644457E0,4.761487E0,6.698303E0,2.493555E1,2.1491348E1,3.0370132E1,2.2591797E1,7.469261E0,3.2069645E1,4.8190857E1,7.92334E0,1.2768753E1,1.0622955E1,0E0,2.3670677E1,2.029174E-1,3.86796E0,5.0326414E0,1.1049522E1,2.6330833E0,0E0,2.417647E0,9.352905E0,0E0,8.751526E-1,1.522393E0,1.0950451E0,0E0,0E0,6.071739E-1,1.9858011E0,9.681782E0,8.45015E0,1.2740733E1,7.8532104E0,2.2273617E0,6.5943117E0,1.62417E1,1.9740782E1,0E0,0E0,0E0,0E0,0E0,0E0,0E0,0E0,0E0,0E0,0E0,0E0,0E0,0E0,0E0,0E0,0E0,0E0,0E0,0E0,0E0,0E0,0E0,0E0,0E0,0E0,0E0,0E0,0E0,0E0,0E0,0E0,0E0,0E0,0E0,0E0,0E0,0E0,0E0,0E0,0E0,0E0,0E0,0E0,0E0,0E0,0E0,0E0,0E0,0E0,0E0,0E0,0E0,0E0],"parents":[2147483647,0,0,1,1,2,2,3,3,4,4,5,5,6,6,7,7,8,8,9,9,10,10,11,11,12,12,13,13,14,14,15,15,16,16,17,17,18,18,19,19,20,20,21,21,22,22,23,23,24,24,25,25,26,26,27,27,28,28,29,29,30,30,31,31,32,32,33,33,34,34,35,35,36,36,38,38,39,39,40,40,41,41,42,42,43,43,45,45,46,46,48,48,49,49,50,50,53,53,54,54,55,55,56,56,57,57,58,58,59,59,60,60,61,61,62,62],"right_children":[2,4,6,8,10,12,14,16,18,20,22,24,26,28,30,32,34,36,38,40,42,44,46,48,50,52,54,56,58,60,62,64,66,68,70,72,74,-1,76,78,80,82,84,86,-1,88,90,-1,92,94,96,-1,-1,98,100,102,104,106,108,110,112,114,116,-1,-1,-1,-1,-1,-1,-1,-1,-1,-1,-1,-1,-1,-1,-1,-1,-1,-1,-1,-1,-1,-1,-1,-1,-1,-1,-1,-1,-1,-1,-1,-1,-1,-1,-1,-1,-1,-1,-1,-1,-1,-1,-1,-1,-1,-1,-1,-1,-1,-1,-1,-1,-1,-1],"split_conditions":[9.6928865E-2,3.3125587E-2,3.4916025E-1,1.5341317E-2,5.3243864E-2,2.4199074E-2,-7.155678E-3,-1.8672314E-2,-1.6468039E-2,-4.795322E-2,-3.0967291E-2,4.1095777E-3,-3.428768E-2,-1.0399711E-2,-5.7139263E-2,5.1207684E-2,-5.9117418E-2,-1.103676E-2,5.0375294E-3,-2.1382459E-2,-6.6768914E-2,3.1640172E-2,-5.2465957E-2,-6.333006E-2,-1.1681069E-2,-1.9362943E-2,3.9405536E-2,-1.6213452E-2,-1.4780771E-2,-2.1600904E-2,5.355614E-2,-5.9187964E-2,-2.1444274E-2,-5.4949127E-2,-8.186682E-2,8.036296E-3,-5.4170515E-2,-3.0892015E-1,-1.3345829E-2,1.2990292E-2,-1.53605305E-2,2.7608002E-2,-5.651392E-2,-1.1519362E-2,2.504096E-1,-1.737704E-2,9.9937946E-2,8.3874844E-2,4.232537E-2,-6.4396164E-3,-1.5428925E-2,-3.043229E-1,1.9195752E-1,7.380957E-2,-1.8560058E-2,3.8195038E-3,-2.3042709E-2,1.3586402E-1,-3.8404865E-3,1.7416083E-3,3.8811818E-2,-3.7147198E-2,2.6430208E-2,2.3774916E-1,-3.1486607E-1,3.2202727E-1,-1.928231E-1,4.2078403E-1,-2.7876082E-1,-1.4155768E-1,-3.4013575E-1,4.9623555E-1,-1.8678999E-1,3.5091136E-2,-3.0903018E-1,1.949758E-2,5.0991637E-1,-2.1975392E-2,-2.0977713E-1,-2.9295698E-2,4.998346E-1,-1.6440274E-1,3.8256207E-1,2.1469973E-1,-3.361961E-1,7.3147506E-2,-3.614525E-1,1.1007882E-1,-3.035298E-1,3.9499977E-1,-2.3839738E-2,-3.5076177E-1,-3.264944E-2,5.6118954E-2,-2.9217407E-1,1.1041609E-2,3.640719E-1,3.929307E-1,6.727541E-2,1.5752473E-1,-2.39632E-1,-2.3497504E-1,2.7181718E-1,1.78565E-1,-4.5142925E-1,-3.7731984E-1,2.913272E-1,-1.9114867E-1,3.7866634E-1,-4.298114E-1,5.1749055E-3,3.4796757E-1,-2.427167E-1,-8.292039E-3,3.8639194E-1,-2.6303726E-1,3.234086E-1],"split_indices":[48,202,99,225,48,239,130,287,153,263,124,225,21,225,124,48,263,163,48,359,185,359,359,235,153,5,368,11,81,225,92,9,100,267,100,90,260,0,359,104,255,48,11,347,0,115,247,0,136,157,13,0,0,16,42,202,308,48,294,113,24,239,239,0,0,0,0,0,0,0,0,0,0,0,0,0,0,0,0,0,0,0,0,0,0,0,0,0,0,0,0,0,0,0,0,0,0,0,0,0,0,0,0,0,0,0,0,0,0,0,0,0,0,0,0,0,0],"split_type":[0,0,0,0,0,0,0,0,0,0,0,0,0,0,0,0,0,0,0,0,0,0,0,0,0,0,0,0,0,0,0,0,0,0,0,0,0,0,0,0,0,0,0,0,0,0,0,0,0,0,0,0,0,0,0,0,0,0,0,0,0,0,0,0,0,0,0,0,0,0,0,0,0,0,0,0,0,0,0,0,0,0,0,0,0,0,0,0,0,0,0,0,0,0,0,0,0,0,0,0,0,0,0,0,0,0,0,0,0,0,0,0,0,0,0,0,0],"sum_hessian":[4.4744243E3,2.6006187E3,1.8738057E3,2.382766E3,2.1785266E2,9.738889E1,1.7764167E3,2.2031826E3,1.7958351E2,9.481064E1,1.2304203E2,6.733024E1,3.0058651E1,1.1382491E2,1.6625918E3,1.4143474E2,2.0617478E3,1.25748924E2,5.3834583E1,9.934101E0,8.487653E1,1.5538457E1,1.0750358E2,5.774586E1,9.584381E0,7.0887256E0,2.2969925E1,4.0198082E1,7.362683E1,2.3472954E1,1.6391189E3,9.895538E1,4.2479347E1,1.0849198E2,1.9532559E3,8.167485E0,1.17581436E2,1.09309845E1,4.29036E1,2.3063526E0,7.627748E0,5.2028866E0,7.9673645E1,1.449337E1,1.0450873E0,6.2007675E0,1.0130281E2,1.1797457E0,5.6566113E1,5.22299E0,4.361391E0,5.480936E0,1.6077896E0,2.0189463E1,2.780462E0,1.2634116E1,2.7563967E1,8.863082E0,6.476375E1,9.630341E0,1.3842614E1,1.6203528E3,1.8766062E1,1.5657775E0,9.738961E1,2.417469E1,1.8304655E1,8.834973E0,9.9657005E1,2.0212173E1,1.9330437E3,4.3571067E0,3.810379E0,8.504677E0,1.0907676E2,1.2442565E1,3.0461033E1,1.0028576E0,1.303495E0,1.3717643E0,6.255984E0,1.5631558E0,3.639731E0,2.7732174E0,7.690043E1,1.0407188E0,1.3452651E1,1.0516055E0,5.149162E0,9.637186E1,4.930948E0,5.555772E1,1.0083928E0,1.0812082E0,4.141782E0,1.046569E0,3.3148222E0,1.9188566E1,1.0008975E0,1.0529319E0,1.7275302E0,4.4541636E0,8.179953E0,1.5469155E0,2.6017052E1,5.570922E0,3.2921603E0,1.6802169E0,6.308353E1,8.463931E0,1.1664093E0,1.2613351E1,1.2292626E0,9.39674E0,1.610956E3,8.7616205E0,1.0004441E1],"tree_param":{"num_deleted":"0","num_feature":"384","num_nodes":"117","size_leaf_vector":"1"}},{"base_weights":[-6.938657E-2,-9.532554E-1,8.91731E-1,-1.0377204E0,-4.7017005E-1,-4.723063E-1,1.0460587E0,-1.0613494E0,-5.037536E-1,5.6167114E-1,-8.470156E-1,-9.1059697E-1,6.614002E-1,-2.4434341E-2,1.1195031E0,-8.8803726E-1,-1.0930451E0,-7.540221E-1,9.7613174E-1,-5.060188E-1,1.2690452E0,-1.008525E0,8.321345E-2,1.04395986E-1,-1.0407245E0,9.4205445E-1,-8.635339E-1,-7.235068E-1,8.90348E-1,2.331556E-1,1.1635184E0,1.2099008E-1,-9.948968E-1,-2.3633233E-1,-1.0971714E0,-9.314071E-1,3.0125117E-1,1.4637876E0,-2.345234E-1,-7.5250006E-1,1.1563108E0,-4.6103042E-1,1.4712739E0,-1.036306E0,4.084166E-1,7.5788635E-1,-8.412682E-1,8.6034274E-1,-7.289646E-1,-1.7039396E-1,-1.1285905E0,1.0706128E0,-7.0378834E-1,-3.1779507E-1,4.9787305E-2,-9.724143E-1,6.361611E-1,-6.3470155E-1,1.0982398E0,-4.890564E-1,1.0138965E0,1.9496098E-1,1.1832428E0,-2.1512544E-1,4.8512638E-1,-3.063899E-1,1.487686E-1,5.26675E-1,-2.564576E-1,9.951045E-3,-3.2983553E-1,-1.9248705E-2,-3.1683135E-1,3.124498E-1,-1.8223494E-1,5.319128E-1,-8.7292515E-2,-2.8790987E-1,1.8925034E-1,8.560124E-2,3.997418E-1,2.2336894E-1,-2.6774767E-1,4.6819538E-1,-9.701629E-2,2.2900079E-1,-3.1747642E-1,-2.5698103E-2,4.6493408E-1,-3.3255252E-1,1.4520265E-1,3.338192E-1,-1.1946113E-1,-2.9949403E-1,1.5531634E-1,2.5069484E-1,-3.081471E-1,-3.4225786E-1,5.4870727E-3,-1.525225E-1,3.4943494E-1,1.8801369E-2,-3.0593964E-1,7.6612666E-2,-3.4358305E-1,-3.0145848E-1,3.455506E-1,1.4290744E-1,-3.111725E-1,3.5133684E-1,-1.481296E-1,2.1046682E-1,-2.7831277E-1,-1.4127626E-1,3.4614384E-1,-2.1866341E-1,2.8824413E-1,3.5712314E-1,-3.9998747E-2],"categories":[],"categories_nodes":[],"categories_segments":[],"categories_sizes":[],"default_left":[0,0,0,0,0,0,0,0,0,0,0,0,0,0,0,0,0,0,0,0,0,0,0,0,0,0,0,0,0,0,0,0,0,0,0,0,0,0,0,0,0,0,0,0,0,0,0,0,0,0,0,0,0,0,0,0,0,0,0,0,0,0,0,0,0,0,0,0,0,0,0,0,0,0,0,0,0,0,0,0,0,0,0,0,0,0,0,0,0,0,0,0,0,0,0,0,0,0,0,0,0,0,0,0,0,0,0,0,0,0,0,0,0,0,0,0,0,0,0],"id":4,"left_children":[1,3,5,7,9,11,13,15,17,19,21,23,25,27,29,31,33,35,37,39,41,43,45,47,49,51,53,55,57,59,61,63,65,67,69,71,73,75,-1,77,79,81,83,85,-1,87,89,91,93,95,97,99,101,-1,-1,103,105,107,109,111,113,115,117,-1,-1,-1,-1,-1,-1,-1,-1,-1,-1,-1,-1,-1,-1,-1,-1,-1,-1,-1,-1,-1,-1,-1,-1,-1,-1,-1,-1,-1,-1,-1,-1,-1,-1,-1,-1,-1,-1,-1,-1,-1,-1,-1,-1,-1,-1,-1,-1,-1,-1,-1,-1,-1,-1,-1,-1],"loss_changes":[3.0352295E3,7.545776E1,3.6082483E2,1.944336E1,1.0889543E2,8.739396E1,1.2095117E2,7.354004E0,2.629247E1,5.7430885E1,3.0828247E1,1.680204E1,2.190384E1,6.441893E1,5.588086E1,2.5957779E1,4.2540283E0,1.1434387E1,1.0074271E1,1.344038E1,1.6601685E1,1.2895523E1,2.009576E1,1.0247743E1,8.38166E0,9.660744E0,1.8248353E0,1.993612E1,1.4535E1,3.9596565E1,2.5960571E1,3.1049398E1,9.039413E0,1.0611269E1,3.3111572E0,5.475151E0,6.9087753E0,5.13023E0,0E0,8.437006E0,2.8811026E-1,3.5382156E0,7.079193E0,7.640579E0,0E0,1.2531606E1,5.365837E0,3.1323352E0,3.1377401E0,1.0735346E1,1.4513397E0,6.45739E0,9.4879806E-1,0E0,0E0,1.0616325E1,9.143234E0,3.1193392E0,5.0775414E0,1.9816505E1,7.5336304E0,2.0906887E1,1.28359375E1,0E0,0E0,0E0,0E0,0E0,0E0,0E0,0E0,0E0,0E0,0E0,0E0,0E0,0E0,0E0,0E0,0E0,0E0,0E0,0E0,0E0,0E0,0E0,0E0,0E0,0E0,0E0,0E0,0E0,0E0,0E0,0E0,0E0,0E0,0E0,0E0,0E0,0E0,0E0,0E0,0E0,0E0,0E0,0E0,0E0,0E0,0E0,0E0,0E0,0E0,0E0,0E0,0E0,0E0,0E0,0E0],"parents":[2147483647,0,0,1,1,2,2,3,3,4,4,5,5,6,6,7,7,8,8,9,9,10,10,11,11,12,12,13,13,14,14,15,15,16,16,17,17,18,18,19,19,20,20,21,21,22,22,23,23,24,24,25,25,26,26,27,27,28,28,29,29,30,30,31,31,32,32,33,33,34,34,35,35,36,36,37,37,39,39,40,40,41,41,42,42,43,43,45,45,46,46,47,47,48,48,49,49,50,50,51,51,52,52,55,55,56,56,57,57,58,58,59,59,60,60,61,61,62,62],"right_children":[2,4,6,8,10,12,14,16,18,20,22,24,26,28,30,32,34,36,38,40,42,44,46,48,50,52,54,56,58,60,62,64,66,68,70,72,74,76,-1,78,80,82,84,86,-1,88,90,92,94,96,98,100,102,-1,-1,104,106,108,110,112,114,116,118,-1,-1,-1,-1,-1,-1,-1,-1,-1,-1,-1,-1,-1,-1,-1,-1,-1,-1,-1,-1,-1,-1,-1,-1,-1,-1,-1,-1,-1,-1,-1,-1,-1,-1,-1,-1,-1,-1,-1,-1,-1,-1,-1,-1,-1,-1,-1,-1,-1,-1,-1,-1,-1,-1,-1,-1],"split_conditions":[7.899571E-2,5.3243864E-2,-4.2524625E-2,5.4953672E-2,-3.258374E-2,9.966889E-3,-3.8813498E-2,3.8498547E-2,4.365394E-2,-5.533914E-3,1.7419888E-2,4.562202E-3,8.089129E-2,1.282812E-1,-4.2756483E-2,-8.621281E-2,-7.567446E-2,5.9179883E-3,2.0083006E-2,1.8587476E-2,-1.5935265E-2,7.7116966E-2,-1.0183328E-2,-3.684996E-2,-4.1996785E-2,8.692668E-3,4.1845185E-1,4.890582E-3,3.013992E-2,3.8512215E-2,-3.2853443E-2,3.1487923E-2,7.247194E-2,-1.4843828E-2,-1.0569425E-1,-4.1378643E-2,-8.001567E-3,-4.446476E-4,-2.345234E-1,1.6773678E-2,6.031295E-3,-4.4437725E-2,2.8404811E-2,-2.7024979E-2,4.084166E-1,5.4597664E-3,5.899234E-3,1.7458452E-2,4.1053265E-2,1.1428306E-3,6.6773556E-2,-5.8550805E-2,1.4197575E-2,-3.1779507E-1,4.9787305E-2,-1.0466605E-2,-1.6237723E-2,-1.4947828E-2,5.929694E-2,-1.5706252E-2,-2.7204867E-2,1.1694438E-1,6.3441865E-2,-2.1512544E-1,4.8512638E-1,-3.063899E-1,1.487686E-1,5.26675E-1,-2.564576E-1,9.951045E-3,-3.2983553E-1,-1.9248705E-2,-3.1683135E-1,3.124498E-1,-1.8223494E-1,5.319128E-1,-8.7292515E-2,-2.8790987E-1,1.8925034E-1,8.560124E-2,3.997418E-1,2.2336894E-1,-2.6774767E-1,4.6819538E-1,-9.701629E-2,2.2900079E-1,-3.1747642E-1,-2.5698103E-2,4.6493408E-1,-3.3255252E-1,1.4520265E-1,3.338192E-1,-1.1946113E-1,-2.9949403E-1,1.5531634E-1,2.5069484E-1,-3.081471E-1,-3.4225786E-1,5.4870727E-3,-1.525225E-1,3.4943494E-1,1.8801369E-2,-3.0593964E-1,7.6612666E-2,-3.4358305E-1,-3.0145848E-1,3.455506E-1,1.4290744E-1,-3.111725E-1,3.5133684E-1,-1.481296E-1,2.1046682E-1,-2.7831277E-1,-1.4127626E-1,3.4614384E-1,-2.1866341E-1,2.8824413E-1,3.5712314E-1,-3.9998747E-2],"split_indices":[48,48,153,231,100,124,359,163,372,231,124,88,247,48,225,279,9,315,118,131,130,68,267,263,100,18,99,131,294,130,202,130,81,222,281,11,50,77,0,359,353,83,261,247,0,81,131,92,176,92,130,359,103,0,0,88,353,351,88,11,291,48,92,0,0,0,0,0,0,0,0,0,0,0,0,0,0,0,0,0,0,0,0,0,0,0,0,0,0,0,0,0,0,0,0,0,0,0,0,0,0,0,0,0,0,0,0,0,0,0,0,0,0,0,0,0,0,0,0],"split_type":[0,0,0,0,0,0,0,0,0,0,0,0,0,0,0,0,0,0,0,0,0,0,0,0,0,0,0,0,0,0,0,0,0,0,0,0,0,0,0,0,0,0,0,0,0,0,0,0,0,0,0,0,0,0,0,0,0,0,0,0,0,0,0,0,0,0,0,0,0,0,0,0,0,0,0,0,0,0,0,0,0,0,0,0,0,0,0,0,0,0,0,0,0,0,0,0,0,0,0,0,0,0,0,0,0,0,0,0,0,0,0,0,0,0,0,0,0,0,0],"sum_hessian":[3.570952E3,1.8602373E3,1.7107146E3,1.5824122E3,2.7782507E2,1.7366878E2,1.5370458E3,1.5144094E3,6.8002716E1,7.419132E1,2.0363376E2,1.2538988E2,4.8278896E1,9.87261E1,1.4383197E3,2.3862537E2,1.275784E3,5.858559E1,9.417126E0,2.967914E1,4.451218E1,1.7343692E2,3.019684E1,1.4271343E1,1.1111853E2,4.1097416E1,7.1814804E0,5.60795E1,4.26466E1,6.8344666E1,1.369975E3,2.283858E1,2.1578679E2,6.394569E0,1.2693895E3,5.0255352E1,8.330237E0,7.503001E0,1.914124E0,2.6323376E1,3.355765E0,4.524565E0,3.9987617E1,1.7198358E2,1.4533352E0,1.7561167E1,1.26356735E1,7.466267E0,6.805076E0,1.0459026E1,1.0065951E2,3.8444023E1,2.6533957E0,6.0096316E0,1.1718488E0,4.764262E1,8.436877E0,4.8697925E0,3.7776806E1,3.5697166E1,3.2647503E1,2.7559526E1,1.3424155E3,1.4972226E1,7.8663535E0,2.1234105E2,3.4457464E0,1.0795691E0,5.315E0,2.5285392E0,1.266861E3,6.5080075E0,4.3747345E1,4.510082E0,3.8201551E0,6.369958E0,1.1330432E0,2.3160566E1,3.1628084E0,1.005273E0,2.350492E0,1.001234E0,3.5233312E0,3.8214844E1,1.7727728E0,1.6652607E0,1.7031833E2,8.935093E0,8.626073E0,1.0651399E1,1.9842744E0,6.315602E0,1.1506654E0,5.7598715E0,1.0452049E0,4.8217683E0,5.637258E0,9.959927E1,1.0602293E0,1.9161267E0,3.6527897E1,1.008656E0,1.6447396E0,5.820937E0,4.1821682E1,1.7904665E0,6.646411E0,1.2463456E0,3.623447E0,3.6375866E1,1.4009391E0,9.449511E0,2.6247656E1,2.6077602E0,3.0039742E1,1.2513238E1,1.5046289E1,1.3352422E3,7.1732793E0],"tree_param":{"num_deleted":"0","num_feature":"384","num_nodes":"119","size_leaf_vector":"1"}},{"base_weights":[-6.715246E-2,-8.989239E-1,8.157918E-1,-9.8156714E-1,-3.7019414E-1,-2.0087734E-1,9.970835E-1,-2.7827945E-1,-1.0166523E0,-8.272562E-1,8.576254E-1,-9.134814E-1,5.473079E-1,2.2151896E-1,1.076609E0,5.9226555E-1,-8.790276E-1,-2.0070301E-1,-1.0310639E0,-9.734987E-1,1.6034043E-1,-3.3447343E-1,1.4759904E0,-9.864651E-1,3.5667208E-1,-2.9991576E-1,9.786033E-1,-4.5138285E-1,9.2197895E-1,-3.6721565E-2,1.0965387E0,-3.5488063E-1,1.3474355E0,-9.8531514E-1,4.2366663E-1,-6.3273937E-1,1.1227696E0,-1.0349122E0,3.722155E-1,-1.0066268E0,3.7510315E-1,-6.10476E-1,1.3796282E0,1.1292225E0,-7.744092E-1,-2.4526647E-1,1.6606237E0,2.0698741E-2,-1.0598804E0,-2.148936E-1,2.7052727E-1,-9.3935096E-1,5.153557E-1,1.1200328E0,-3.913572E-1,6.7513883E-1,-1.0071231E0,-8.912359E-1,1.0451555E0,7.392398E-1,-6.846436E-1,1.1056086E0,-3.5091388E-1,-2.1928638E-1,3.4726158E-1,-1.2375573E-1,4.7292918E-1,-3.1678727E-1,-1.2079522E-2,-8.338378E-2,2.605106E-1,-2.824654E-1,1.7634931E-1,-3.8621716E-2,4.2719337E-1,-3.1299534E-1,-1.0113413E-1,-1.4603831E-1,4.155983E-1,-3.0928653E-1,1.7591166E-1,3.2876998E-1,-1.4904279E-1,1.7214762E-1,-2.719599E-1,-1.2051829E-1,5.9203136E-1,5.0802594E-1,-2.8850378E-2,-2.932393E-1,1.3155465E-1,-2.3443757E-1,2.1952812E-1,5.436829E-1,2.8325595E-2,2.5217727E-1,-2.2145133E-1,1.4355479E-1,-3.2663324E-1,-3.5151953E-1,4.4500016E-2,-2.744017E-1,2.5755674E-1,-1.0915998E-1,3.4633783E-1,-2.3789784E-1,1.9808638E-1,-1.2657565E-1,3.222037E-1,3.843381E-2,-3.7873802E-1,6.4930774E-2,-4.114315E-1,2.4529396E-2,3.3814943E-1,3.262908E-1,-1.00126475E-1,-3.0021134E-1,1.02074355E-1,-4.4544887E-2,3.3392838E-1,-4.334964E-1,1.3855112E-1],"categories":[],"categories_nodes":[],"categories_segments":[],"categories_sizes":[],"default_left":[0,0,0,0,0,0,0,0,0,0,0,0,0,0,0,0,0,0,0,0,0,0,0,0,0,0,0,0,0,0,0,0,0,0,0,0,0,0,0,0,0,0,0,0,0,0,0,0,0,0,0,0,0,0,0,0,0,0,0,0,0,0,0,0,0,0,0,0,0,0,0,0,0,0,0,0,0,0,0,0,0,0,0,0,0,0,0,0,0,0,0,0,0,0,0,0,0,0,0,0,0,0,0,0,0,0,0,0,0,0,0,0,0,0,0,0,0,0,0,0,0,0,0],"id":5,"left_children":[1,3,5,7,9,11,13,15,17,19,21,23,25,27,29,31,33,35,37,39,41,43,45,47,49,51,53,55,57,59,61,63,65,67,69,71,73,75,77,79,81,83,85,87,89,91,93,95,97,-1,-1,99,101,103,105,107,109,111,113,115,117,119,121,-1,-1,-1,-1,-1,-1,-1,-1,-1,-1,-1,-1,-1,-1,-1,-1,-1,-1,-1,-1,-1,-1,-1,-1,-1,-1,-1,-1,-1,-1,-1,-1,-1,-1,-1,-1,-1,-1,-1,-1,-1,-1,-1,-1,-1,-1,-1,-1,-1,-1,-1,-1,-1,-1,-1,-1,-1,-1,-1,-1],"loss_changes":[2.0744897E3,6.3190918E1,2.5275531E2,3.0739746E1,1.1194581E2,1.1150196E2,7.149512E1,3.2483845E1,1.3870239E1,2.1091576E1,4.049253E1,1.0271576E1,3.763337E1,5.1992924E1,2.3440796E1,1.875484E1,5.480255E0,1.3300489E1,6.7366943E0,6.0246887E0,1.9220688E1,1.3333437E1,1.1820526E1,7.523964E0,4.4762983E0,1.885388E1,1.3603935E1,3.604071E1,1.2979549E1,1.0317199E1,1.3990112E1,7.743723E0,6.4641266E0,2.2345161E0,1.3201677E0,7.051479E0,2.3619213E0,6.529297E0,4.1136985E0,5.3961716E0,2.9069116E0,4.963939E0,9.128974E0,3.5354886E0,4.2387457E0,2.8508992E0,7.5631332E0,5.519672E0,4.725815E0,0E0,0E0,5.254896E0,8.703243E0,3.5797577E0,3.5223117E0,8.880057E0,1.1241741E1,2.409122E0,3.935009E0,3.8622546E0,3.9534936E0,9.834106E0,7.0794516E0,0E0,0E0,0E0,0E0,0E0,0E0,0E0,0E0,0E0,0E0,0E0,0E0,0E0,0E0,0E0,0E0,0E0,0E0,0E0,0E0,0E0,0E0,0E0,0E0,0E0,0E0,0E0,0E0,0E0,0E0,0E0,0E0,0E0,0E0,0E0,0E0,0E0,0E0,0E0,0E0,0E0,0E0,0E0,0E0,0E0,0E0,0E0,0E0,0E0,0E0,0E0,0E0,0E0,0E0,0E0,0E0,0E0,0E0,0E0,0E0],"parents":[2147483647,0,0,1,1,2,2,3,3,4,4,5,5,6,6,7,7,8,8,9,9,10,10,11,11,12,12,13,13,14,14,15,15,16,16,17,17,18,18,19,19,20,20,21,21,22,22,23,23,24,24,25,25,26,26,27,27,28,28,29,29,30,30,31,31,32,32,33,33,34,34,35,35,36,36,37,37,38,38,39,39,40,40,41,41,42,42,43,43,44,44,45,45,46,46,47,47,48,48,51,51,52,52,53,53,54,54,55,55,56,56,57,57,58,58,59,59,60,60,61,61,62,62],"right_children":[2,4,6,8,10,12,14,16,18,20,22,24,26,28,30,32,34,36,38,40,42,44,46,48,50,52,54,56,58,60,62,64,66,68,70,72,74,76,78,80,82,84,86,88,90,92,94,96,98,-1,-1,100,102,104,106,108,110,112,114,116,118,120,122,-1,-1,-1,-1,-1,-1,-1,-1,-1,-1,-1,-1,-1,-1,-1,-1,-1,-1,-1,-1,-1,-1,-1,-1,-1,-1,-1,-1,-1,-1,-1,-1,-1,-1,-1,-1,-1,-1,-1,-1,-1,-1,-1,-1,-1,-1,-1,-1,-1,-1,-1,-1,-1,-1,-1,-1,-1,-1,-1,-1],"split_conditions":[7.899571E-2,4.1845185E-1,-3.2246098E-2,-5.191286E-2,-5.9185567E-4,-8.374752E-3,-3.2810207E-2,-1.6496027E-2,-8.8557154E-2,3.4118888E-3,2.6407845E-3,5.681346E-2,3.8195038E-3,3.3601877E-4,-4.5959342E-2,2.8357837E-2,4.0007418E-1,2.3378551E-2,8.407943E-2,3.19798E-2,-8.905044E-2,1.515754E-3,-3.0289263E-2,-1.166798E-2,-8.340132E-3,-1.6352126E-2,3.860468E-2,-5.158633E-2,-5.3110596E-2,-1.614122E-2,7.223575E-2,6.655166E-2,-4.0137935E-2,3.0227348E-2,5.118638E-2,5.018843E-2,-7.853789E-3,4.7135744E-2,5.9303533E-2,6.480863E-2,-1.666308E-2,-4.2795055E-2,-3.9834112E-2,-2.9369002E-2,6.2220484E-2,-3.178473E-3,-2.5456022E-2,2.2727512E-2,-9.91202E-2,-2.148936E-1,2.7052727E-1,1.2531944E-1,-1.9189484E-2,-7.135214E-2,-5.9933355E-3,2.381179E-3,-1.926212E-2,2.6895357E-2,-1.3138441E-2,3.055393E-2,1.4815265E-2,-4.3973435E-2,-2.4039311E-2,-2.1928638E-1,3.4726158E-1,-1.2375573E-1,4.7292918E-1,-3.1678727E-1,-1.2079522E-2,-8.338378E-2,2.605106E-1,-2.824654E-1,1.7634931E-1,-3.8621716E-2,4.2719337E-1,-3.1299534E-1,-1.0113413E-1,-1.4603831E-1,4.155983E-1,-3.0928653E-1,1.7591166E-1,3.2876998E-1,-1.4904279E-1,1.7214762E-1,-2.719599E-1,-1.2051829E-1,5.9203136E-1,5.0802594E-1,-2.8850378E-2,-2.932393E-1,1.3155465E-1,-2.3443757E-1,2.1952812E-1,5.436829E-1,2.8325595E-2,2.5217727E-1,-2.2145133E-1,1.4355479E-1,-3.2663324E-1,-3.5151953E-1,4.4500016E-2,-2.744017E-1,2.5755674E-1,-1.0915998E-1,3.4633783E-1,-2.3789784E-1,1.9808638E-1,-1.2657565E-1,3.222037E-1,3.843381E-2,-3.7873802E-1,6.4930774E-2,-4.114315E-1,2.4529396E-2,3.3814943E-1,3.262908E-1,-1.00126475E-1,-3.0021134E-1,1.02074355E-1,-4.4544887E-2,3.3392838E-1,-4.334964E-1,1.3855112E-1],"split_indices":[48,99,153,11,359,124,225,100,295,131,220,202,202,359,21,48,99,231,68,225,256,163,231,277,109,186,287,295,210,323,381,188,21,352,53,130,255,84,48,202,9,267,359,77,212,225,279,308,191,0,0,48,231,375,225,202,11,322,239,287,176,239,231,0,0,0,0,0,0,0,0,0,0,0,0,0,0,0,0,0,0,0,0,0,0,0,0,0,0,0,0,0,0,0,0,0,0,0,0,0,0,0,0,0,0,0,0,0,0,0,0,0,0,0,0,0,0,0,0,0,0,0,0],"split_type":[0,0,0,0,0,0,0,0,0,0,0,0,0,0,0,0,0,0,0,0,0,0,0,0,0,0,0,0,0,0,0,0,0,0,0,0,0,0,0,0,0,0,0,0,0,0,0,0,0,0,0,0,0,0,0,0,0,0,0,0,0,0,0,0,0,0,0,0,0,0,0,0,0,0,0,0,0,0,0,0,0,0,0,0,0,0,0,0,0,0,0,0,0,0,0,0,0,0,0,0,0,0,0,0,0,0,0,0,0,0,0,0,0,0,0,0,0,0,0,0,0,0,0],"sum_hessian":[2.8227122E3,1.4534664E3,1.3692458E3,1.2562512E3,1.972152E2,2.0719649E2,1.1620494E3,6.01177E1,1.1961335E3,1.4395387E2,5.3261322E1,1.0600848E2,1.01188E2,1.0842563E2,1.0536238E3,2.4552605E1,3.5565094E1,2.101876E1,1.1751147E3,1.2539915E2,1.8554733E1,1.8348242E1,3.491308E1,1.0045938E2,5.5490994E0,3.4237507E1,6.69505E1,5.548202E1,5.2943604E1,1.8514347E1,1.0351094E3,1.1127004E1,1.34256E1,3.3107468E1,2.457624E0,1.6239443E1,4.779318E0,1.1721627E3,2.9520097E0,1.2264009E2,2.759053E0,1.1673946E1,6.8807864E0,3.8782506E0,1.4469991E1,3.350394E0,3.1562685E1,6.8740597E0,9.358532E1,1.7635256E0,3.7855737E0,1.9102669E1,1.5134835E1,6.0850914E1,6.099582E0,1.8257675E1,3.7224346E1,2.9711733E0,4.997243E1,8.360612E0,1.0153736E1,1.0288984E3,6.2110133E0,9.324979E0,1.8020247E0,1.4534668E0,1.1972134E1,3.069562E1,2.4118493E0,1.0988835E0,1.3587404E0,1.3142824E1,3.096619E0,1.0382055E0,3.7411125E0,1.1577217E3,1.4441017E1,1.8786353E0,1.0733743E0,1.2114282E2,1.4972662E0,1.3697824E0,1.3892707E0,2.1470373E0,9.526909E0,1.8011208E0,5.0796657E0,2.394039E0,1.4842118E0,1.2561245E1,1.9087455E0,2.2924595E0,1.0579345E0,2.8633087E1,2.929597E0,3.252419E0,3.621641E0,1.4386127E0,9.2146706E1,1.5676217E1,3.4264524E0,2.6067443E0,1.2528091E1,1.1627599E0,5.9688156E1,4.5918508E0,1.5077313E0,4.8528013E0,1.3404874E1,6.926625E0,3.0297722E1,1.0646505E0,1.9065229E0,4.0768805E0,4.589555E1,6.301048E0,2.059564E0,7.7785506E0,2.3751855E0,5.9935937E0,1.0229048E3,2.315771E0,3.8952422E0],"tree_param":{"num_deleted":"0","num_feature":"384","num_nodes":"123","size_leaf_vector":"1"}},{"base_weights":[-6.4286165E-2,-7.344356E-1,9.053132E-1,-9.474076E-1,-1.8185106E-1,-3.093108E-1,9.869927E-1,-9.9268633E-1,-4.812553E-1,-7.91907E-1,3.7756455E-1,-8.8821995E-1,5.5929106E-1,4.0800076E-2,1.0280843E0,1.9554287E-1,-9.998653E-1,-8.870513E-1,3.0193725E-1,-9.5582616E-1,2.4462168E-1,7.7178335E-1,-5.805803E-1,-1.0442263E0,2.0120119E-1,-2.6598296E-1,8.543199E-1,-6.8147904E-1,6.3150436E-1,9.229647E-2,1.0499818E0,4.751717E-1,-2.4284606E-1,9.210728E-3,-1.0077925E0,5.396842E-1,-9.658819E-1,1.3278198E0,-5.47953E-1,-1.0451818E0,-3.4510309E-1,-6.4866203E-1,8.832628E-1,-5.7027984E-2,1.0303345E0,-8.897307E-1,3.9676785E-1,4.296599E-2,-1.1231803E0,-1.7688201E-1,2.0414655E-1,9.8812693E-1,-2.28479E-1,-1.0664121E0,4.5178682E-1,-3.3097532E-1,9.836207E-1,-6.444097E-1,8.015946E-1,1.0658734E0,2.6395044E-1,-2.605117E-1,3.829022E-1,7.3699504E-2,-3.0392963E-1,3.563568E-1,-1.6324648E-1,-3.0304116E-1,9.180374E-2,1.1647644E-1,6.7038894E-1,3.0293787E-1,-2.3416272E-1,-3.1960145E-1,1.8275934E-1,-2.7195346E-1,2.4687734E-1,2.3634599E-1,-3.0748245E-1,-1.8296255E-1,3.6017543E-1,-1.9950122E-1,2.187579E-1,-1.2050295E-1,3.4005547E-1,-3.0411774E-1,1.3073993E-1,-1.6893825E-1,2.7233732E-1,-1.4811629E-1,1.7126843E-1,-3.4575418E-1,-4.8439056E-2,3.1756604E-1,-3.5930358E-2,-3.7027302E-1,4.4579986E-2,-1.515174E-1,2.547904E-1,-2.946268E-1,1.7401722E-1,1.3725885E-2,3.1739295E-1,-3.29358E-1,2.139632E-1,3.113874E-1,-5.073074E-2,3.2160157E-1,-9.450644E-2,-2.5343412E-1,2.4488546E-1],"categories":[],"categories_nodes":[],"categories_segments":[],"categories_sizes":[],"default_left":[0,0,0,0,0,0,0,0,0,0,0,0,0,0,0,0,0,0,0,0,0,0,0,0,0,0,0,0,0,0,0,0,0,0,0,0,0,0,0,0,0,0,0,0,0,0,0,0,0,0,0,0,0,0,0,0,0,0,0,0,0,0,0,0,0,0,0,0,0,0,0,0,0,0,0,0,0,0,0,0,0,0,0,0,0,0,0,0,0,0,0,0,0,0,0,0,0,0,0,0,0,0,0,0,0,0,0,0,0,0,0],"id":6,"left_children":[1,3,5,7,9,11,13,15,17,19,21,23,25,27,29,31,33,35,37,39,41,43,45,47,49,-1,51,53,55,57,59,-1,-1,61,63,65,67,69,71,73,75,77,79,81,83,85,87,89,91,-1,-1,93,-1,95,97,99,101,103,105,107,109,-1,-1,-1,-1,-1,-1,-1,-1,-1,-1,-1,-1,-1,-1,-1,-1,-1,-1,-1,-1,-1,-1,-1,-1,-1,-1,-1,-1,-1,-1,-1,-1,-1,-1,-1,-1,-1,-1,-1,-1,-1,-1,-1,-1,-1,-1,-1,-1,-1,-1],"loss_changes":[1.4456257E3,1.5464185E2,9.051544E1,1.9558899E1,1.2561454E2,2.9689287E1,3.3093323E1,7.5683594E0,2.7595434E1,3.0132645E1,7.305563E1,6.1965237E0,1.0923693E1,1.6008291E1,1.6638733E1,9.69191E0,6.8828125E0,6.9200516E0,2.6964848E1,7.9421997E0,1.4735227E1,2.9335304E1,1.74562E1,2.706894E0,2.3913362E0,0E0,5.1423664E0,7.8573704E0,7.3084974E0,1.0847614E1,9.686096E0,0E0,0E0,9.6583605E0,5.9195557E0,3.1897783E0,3.3640175E0,1.0998007E1,7.007621E0,5.058548E0,1.44591255E1,6.713049E0,7.7914886E0,1.6466045E1,1.5850151E1,7.5603943E0,7.522859E0,1.148905E0,6.295471E-1,0E0,0E0,1.6236992E0,0E0,2.8176584E0,2.3266535E0,4.2872586E0,1.0211515E0,7.0944715E0,2.5888243E0,6.9575195E0,1.1187096E1,0E0,0E0,0E0,0E0,0E0,0E0,0E0,0E0,0E0,0E0,0E0,0E0,0E0,0E0,0E0,0E0,0E0,0E0,0E0,0E0,0E0,0E0,0E0,0E0,0E0,0E0,0E0,0E0,0E0,0E0,0E0,0E0,0E0,0E0,0E0,0E0,0E0,0E0,0E0,0E0,0E0,0E0,0E0,0E0,0E0,0E0,0E0,0E0,0E0,0E0],"parents":[2147483647,0,0,1,1,2,2,3,3,4,4,5,5,6,6,7,7,8,8,9,9,10,10,11,11,12,12,13,13,14,14,15,15,16,16,17,17,18,18,19,19,20,20,21,21,22,22,23,23,24,24,26,26,27,27,28,28,29,29,30,30,33,33,34,34,35,35,36,36,37,37,38,38,39,39,40,40,41,41,42,42,43,43,44,44,45,45,46,46,47,47,48,48,51,51,53,53,54,54,55,55,56,56,57,57,58,58,59,59,60,60],"right_children":[2,4,6,8,10,12,14,16,18,20,22,24,26,28,30,32,34,36,38,40,42,44,46,48,50,-1,52,54,56,58,60,-1,-1,62,64,66,68,70,72,74,76,78,80,82,84,86,88,90,92,-1,-1,94,-1,96,98,100,102,104,106,108,110,-1,-1,-1,-1,-1,-1,-1,-1,-1,-1,-1,-1,-1,-1,-1,-1,-1,-1,-1,-1,-1,-1,-1,-1,-1,-1,-1,-1,-1,-1,-1,-1,-1,-1,-1,-1,-1,-1,-1,-1,-1,-1,-1,-1,-1,-1,-1,-1,-1,-1],"split_conditions":[1.0177078E-1,5.3243864E-2,-5.267214E-2,1.2061153E-2,-8.374752E-3,-1.1681069E-2,-3.2542933E-2,-1.2952942E-1,-2.8032398E-2,3.8659114E-3,2.436203E-2,2.5951372E-2,-4.6088338E-2,1.7398188E-2,-3.2853443E-2,-2.5393618E-2,-8.981639E-2,-3.1561945E-2,-2.1158941E-2,1.1669303E-2,1.3921024E-2,-3.6193755E-2,4.1095777E-3,-2.4488341E-2,1.2024229E-2,-2.6598296E-1,-1.8703306E-2,7.5866687E-3,-1.7367225E-2,1.2664565E-2,6.108608E-2,4.751717E-1,-2.4284606E-1,1.3325913E-3,-7.852317E-2,1.3692242E-2,3.3117723E-2,6.1038263E-2,-8.457924E-2,7.089131E-2,-6.297658E-3,-4.776935E-2,-1.5096492E-2,1.14902565E-2,-3.7566993E-2,3.0210044E-2,1.34143755E-2,7.3534623E-3,5.3386476E-2,-1.7688201E-1,2.0414655E-1,1.7291635E-2,-2.28479E-1,1.11485915E-2,-2.5102144E-2,-4.6654646E-3,-4.8554353E-2,1.4033397E-1,2.2140782E-2,6.0646895E-2,-1.3957835E-2,-2.605117E-1,3.829022E-1,7.3699504E-2,-3.0392963E-1,3.563568E-1,-1.6324648E-1,-3.0304116E-1,9.180374E-2,1.1647644E-1,6.7038894E-1,3.0293787E-1,-2.3416272E-1,-3.1960145E-1,1.8275934E-1,-2.7195346E-1,2.4687734E-1,2.3634599E-1,-3.0748245E-1,-1.8296255E-1,3.6017543E-1,-1.9950122E-1,2.187579E-1,-1.2050295E-1,3.4005547E-1,-3.0411774E-1,1.3073993E-1,-1.6893825E-1,2.7233732E-1,-1.4811629E-1,1.7126843E-1,-3.4575418E-1,-4.8439056E-2,3.1756604E-1,-3.5930358E-2,-3.7027302E-1,4.4579986E-2,-1.515174E-1,2.547904E-1,-2.946268E-1,1.7401722E-1,1.3725885E-2,3.1739295E-1,-3.29358E-1,2.139632E-1,3.113874E-1,-5.073074E-2,3.2160157E-1,-9.450644E-2,-2.5343412E-1,2.4488546E-1],"split_indices":[48,48,375,225,124,153,21,279,366,153,287,234,124,239,202,304,100,137,83,359,220,131,225,90,239,0,141,269,71,320,88,0,0,359,77,287,293,208,11,176,21,364,239,231,202,359,109,344,109,0,0,364,0,132,114,243,359,48,88,11,71,0,0,0,0,0,0,0,0,0,0,0,0,0,0,0,0,0,0,0,0,0,0,0,0,0,0,0,0,0,0,0,0,0,0,0,0,0,0,0,0,0,0,0,0,0,0,0,0,0,0],"split_type":[0,0,0,0,0,0,0,0,0,0,0,0,0,0,0,0,0,0,0,0,0,0,0,0,0,0,0,0,0,0,0,0,0,0,0,0,0,0,0,0,0,0,0,0,0,0,0,0,0,0,0,0,0,0,0,0,0,0,0,0,0,0,0,0,0,0,0,0,0,0,0,0,0,0,0,0,0,0,0,0,0,0,0,0,0,0,0,0,0,0,0,0,0,0,0,0,0,0,0,0,0,0,0,0,0,0,0,0,0,0,0],"sum_hessian":[2.2227812E3,1.3144955E3,9.082858E2,9.482972E2,3.6619833E2,5.7055096E1,8.512307E2,8.633117E2,8.49855E1,1.7497182E2,1.9122652E2,3.422326E1,2.2831837E1,3.5511925E1,8.157188E2,5.0270076E0,8.5828467E2,5.589301E1,2.9092485E1,1.5114694E2,2.382488E1,1.3562111E2,5.56054E1,2.997263E1,4.250631E0,3.5294185E0,1.930242E1,1.590749E1,1.9604433E1,1.8770681E1,7.969481E2,1.8690693E0,3.1579385E0,6.688787E0,8.515959E2,2.6204271E0,5.3272583E1,1.2926667E1,1.6165817E1,1.312345E2,1.991244E1,9.925766E0,1.3899115E1,3.2433083E1,1.03188034E2,4.231132E1,1.329408E1,2.0601587E0,2.791247E1,1.5171728E0,2.733458E0,1.8185093E1,1.1173252E0,1.1918246E1,3.9892435E0,5.267156E0,1.4337277E1,9.252322E0,9.518359E0,7.808062E2,1.6141874E1,4.1377654E0,2.5510213E0,3.398853E0,8.48197E2,1.579727E0,1.0407002E0,5.168018E1,1.5924022E0,7.050082E0,5.8765855E0,1.6660532E0,1.4499764E1,1.3000659E2,1.2279108E0,1.359969E1,6.3127494E0,1.8332925E0,8.092474E0,2.2745273E0,1.1624587E1,1.8376734E1,1.4056349E1,6.7410545E0,9.6446976E1,3.8907043E1,3.404278E0,4.583176E0,8.710904E0,1.0537369E0,1.0064217E0,2.6893785E1,1.0186855E0,1.7140072E1,1.045021E0,1.045786E1,1.460387E0,1.0914671E0,2.8977766E0,3.0262809E0,2.2408752E0,1.1718438E0,1.3165434E1,7.079183E0,2.1731384E0,7.598777E0,1.9195821E0,7.775771E2,3.2291276E0,5.191408E0,1.0950466E1],"tree_param":{"num_deleted":"0","num_feature":"384","num_nodes":"111","size_leaf_vector":"1"}},{"base_weights":[-6.1541878E-2,-6.668143E-1,8.871186E-1,-8.5525274E-1,1.2905497E-2,-1.4441228E-1,9.610592E-1,-3.6630493E-1,-9.532742E-1,4.847547E-1,-8.0473286E-1,-7.7383095E-1,6.3434505E-1,2.3757179E-1,1.0096277E0,-7.814783E-1,4.319585E-1,-7.134398E-1,-1.0283242E0,-7.1943897E-1,7.47815E-1,-9.7373056E-1,-2.3786152E-2,-9.274196E-1,5.087522E-1,-2.5107655E-1,9.0809095E-1,-7.6890475E-1,7.49052E-1,1.0339503E0,2.2521865E-1,6.3287544E-1,-8.5631037E-1,-8.974872E-1,7.6675683E-1,2.5740457E-1,-8.54084E-1,-2.4813007E-1,-1.0342071E0,6.4594615E-1,-9.293911E-1,-3.515541E-1,9.788525E-1,-1.0076412E0,1.0654763E-1,6.643592E-1,-8.842291E-1,7.14085E-2,-1.0532023E0,1.38424095E-2,2.039993E-1,-1.1952077E-1,3.0536857E-1,-1.1143723E0,5.247319E-1,-2.6323763E-1,8.8895017E-1,-1.1611855E-2,1.0416225E0,-5.664136E-1,8.4734744E-1,4.685569E-1,-1.7712186E-1,1.2933066E-2,-2.8938866E-1,6.4988315E-2,-3.1300557E-1,-1.8316768E-1,3.193593E-1,4.4013286E-1,-1.6410348E-1,-2.849307E-1,3.7501168E-3,-2.4462079E-1,3.2310525E-1,-3.1100318E-1,2.3796327E-2,-1.1073403E-1,4.3688706E-1,-3.0157793E-1,5.9863962E-2,-2.770827E-1,1.6659689E-1,3.408686E-1,3.337469E-2,-9.706894E-3,-3.096962E-1,-2.1418232E-1,3.4562203E-1,-2.9228136E-1,-4.352357E-2,-1.8004666E-1,1.9691533E-1,-2.3826562E-2,-3.2949412E-1,4.5977302E-2,-4.0914533E-1,2.1786548E-1,-2.120324E-3,3.0035496E-1,-1.6727959E-1,2.4486683E-1,-1.8558946E-1,1.257973E-2,3.147428E-1,2.0819871E-1,-3.0137777E-1,-4.156617E-2,2.944729E-1],"categories":[],"categories_nodes":[],"categories_segments":[],"categories_sizes":[],"default_left":[0,0,0,0,0,0,0,0,0,0,0,0,0,0,0,0,0,0,0,0,0,0,0,0,0,0,0,0,0,0,0,0,0,0,0,0,0,0,0,0,0,0,0,0,0,0,0,0,0,0,0,0,0,0,0,0,0,0,0,0,0,0,0,0,0,0,0,0,0,0,0,0,0,0,0,0,0,0,0,0,0,0,0,0,0,0,0,0,0,0,0,0,0,0,0,0,0,0,0,0,0,0,0,0,0,0,0,0,0],"id":7,"left_children":[1,3,5,7,9,11,13,15,17,19,21,23,25,27,29,31,33,35,37,39,41,43,45,47,49,-1,51,53,55,57,59,61,63,65,67,69,71,73,75,77,79,81,83,85,-1,87,89,91,93,-1,-1,-1,-1,95,97,-1,99,101,103,105,107,-1,-1,-1,-1,-1,-1,-1,-1,-1,-1,-1,-1,-1,-1,-1,-1,-1,-1,-1,-1,-1,-1,-1,-1,-1,-1,-1,-1,-1,-1,-1,-1,-1,-1,-1,-1,-1,-1,-1,-1,-1,-1,-1,-1,-1,-1,-1,-1],"loss_changes":[1.0051769E3,1.3688956E2,5.2148193E1,3.9752014E1,9.025941E1,2.327303E1,2.2123047E1,4.7183792E1,1.1800537E1,4.7524574E1,1.1276005E1,5.623974E0,9.348421E0,2.1859234E1,1.1139526E1,1.0421406E1,2.2500896E1,2.3328056E1,2.1673584E0,8.369819E0,3.1388634E1,3.52845E0,1.0212773E1,3.0542145E0,2.4136114E-1,0E0,3.053588E0,7.0310783E0,7.132902E0,4.647522E0,9.938551E0,6.9059825E0,8.719971E0,1.9030409E0,1.6926874E1,2.2389038E1,1.2288361E1,4.8382497E0,1.5231323E0,3.993957E0,2.2477303E0,1.1906012E1,1.3700119E1,1.6242065E0,0E0,7.278018E0,3.6797476E-1,1.8036834E0,8.4067535E-1,0E0,0E0,0E0,0E0,3.9099464E0,4.0373278E-1,0E0,4.8126087E0,3.1171737E0,4.2686768E0,5.6957645E0,1.6121683E0,0E0,0E0,0E0,0E0,0E0,0E0,0E0,0E0,0E0,0E0,0E0,0E0,0E0,0E0,0E0,0E0,0E0,0E0,0E0,0E0,0E0,0E0,0E0,0E0,0E0,0E0,0E0,0E0,0E0,0E0,0E0,0E0,0E0,0E0,0E0,0E0,0E0,0E0,0E0,0E0,0E0,0E0,0E0,0E0,0E0,0E0,0E0,0E0],"parents":[2147483647,0,0,1,1,2,2,3,3,4,4,5,5,6,6,7,7,8,8,9,9,10,10,11,11,12,12,13,13,14,14,15,15,16,16,17,17,18,18,19,19,20,20,21,21,22,22,23,23,24,24,26,26,27,27,28,28,29,29,30,30,31,31,32,32,33,33,34,34,35,35,36,36,37,37,38,38,39,39,40,40,41,41,42,42,43,43,45,45,46,46,47,47,48,48,53,53,54,54,56,56,57,57,58,58,59,59,60,60],"right_children":[2,4,6,8,10,12,14,16,18,20,22,24,26,28,30,32,34,36,38,40,42,44,46,48,50,-1,52,54,56,58,60,62,64,66,68,70,72,74,76,78,80,82,84,86,-1,88,90,92,94,-1,-1,-1,-1,96,98,-1,100,102,104,106,108,-1,-1,-1,-1,-1,-1,-1,-1,-1,-1,-1,-1,-1,-1,-1,-1,-1,-1,-1,-1,-1,-1,-1,-1,-1,-1,-1,-1,-1,-1,-1,-1,-1,-1,-1,-1,-1,-1,-1,-1,-1,-1,-1,-1,-1,-1,-1,-1],"split_conditions":[1.061149E-1,1.356536E-2,-5.041475E-2,1.6735961E-3,2.587732E-2,-1.32227205E-2,-3.885625E-2,-9.868328E-3,-2.626286E-2,2.0403838E-2,1.3598115E-2,2.3360392E-2,-4.6088338E-2,-1.3350814E-2,5.620276E-2,-5.5828933E-2,-3.7023022E-3,-3.5921782E-2,-4.239346E-2,-3.8180996E-2,-3.4478527E-2,6.139953E-2,-2.0648884E-2,-4.0739026E-2,1.1676257E-2,-2.5107655E-1,-1.3130122E-2,5.5692676E-3,-3.8025614E-2,-4.3973435E-2,2.751823E-2,1.0919996E-2,-3.3136044E-2,-9.163286E-2,-2.2502726E-2,-1.5457019E-2,4.003772E-2,5.097833E-3,9.468865E-2,4.0780384E-2,5.4953672E-2,3.1726763E-3,4.5664124E-2,-7.4011385E-2,1.0654763E-1,1.2976187E-2,8.943531E-3,8.065279E-3,-1.173168E-2,1.38424095E-2,2.039993E-1,-1.1952077E-1,3.0536857E-1,-1.4907038E-3,-3.4506854E-3,-2.6323763E-1,4.712462E-2,-3.2793865E-2,-3.7377883E-2,3.291831E-2,-1.8249916E-2,4.685569E-1,-1.7712186E-1,1.2933066E-2,-2.8938866E-1,6.4988315E-2,-3.1300557E-1,-1.8316768E-1,3.193593E-1,4.4013286E-1,-1.6410348E-1,-2.849307E-1,3.7501168E-3,-2.4462079E-1,3.2310525E-1,-3.1100318E-1,2.3796327E-2,-1.1073403E-1,4.3688706E-1,-3.0157793E-1,5.9863962E-2,-2.770827E-1,1.6659689E-1,3.408686E-1,3.337469E-2,-9.706894E-3,-3.096962E-1,-2.1418232E-1,3.4562203E-1,-2.9228136E-1,-4.352357E-2,-1.8004666E-1,1.9691533E-1,-2.3826562E-2,-3.2949412E-1,4.5977302E-2,-4.0914533E-1,2.1786548E-1,-2.120324E-3,3.0035496E-1,-1.6727959E-1,2.4486683E-1,-1.8558946E-1,1.257973E-2,3.147428E-1,2.0819871E-1,-3.0137777E-1,-4.156617E-2,2.944729E-1],"split_indices":[48,202,375,88,287,153,225,359,100,48,359,21,124,269,88,364,212,9,57,263,359,124,295,11,176,0,13,84,81,239,239,92,267,18,250,222,231,84,13,203,231,231,88,185,0,48,239,344,287,0,0,0,0,88,251,0,167,295,212,247,331,0,0,0,0,0,0,0,0,0,0,0,0,0,0,0,0,0,0,0,0,0,0,0,0,0,0,0,0,0,0,0,0,0,0,0,0,0,0,0,0,0,0,0,0,0,0,0,0],"split_type":[0,0,0,0,0,0,0,0,0,0,0,0,0,0,0,0,0,0,0,0,0,0,0,0,0,0,0,0,0,0,0,0,0,0,0,0,0,0,0,0,0,0,0,0,0,0,0,0,0,0,0,0,0,0,0,0,0,0,0,0,0,0,0,0,0,0,0,0,0,0,0,0,0,0,0,0,0,0,0,0,0,0,0,0,0,0,0,0,0,0,0,0,0,0,0,0,0,0,0,0,0,0,0,0,0,0,0,0,0],"sum_hessian":[1.748545E3,1.0676506E3,6.808945E2,8.357091E2,2.3194151E2,4.54786E1,6.354159E2,1.4035103E2,6.953581E2,1.4732764E2,8.461388E1,2.5154325E1,2.0324272E1,4.034339E1,5.9507245E2,9.234423E1,4.8006805E1,1.682369E2,5.271212E2,2.6102959E1,1.2122468E2,6.9357895E1,1.5255983E1,2.2711544E1,2.4427826E0,2.8656008E0,1.7458672E1,1.3424245E1,2.6919147E1,5.7686707E2,1.8205393E1,4.265598E0,8.807863E1,9.319493E0,3.8687313E1,2.1183102E1,1.4705379E2,4.267983E0,5.228532E2,3.2020931E0,2.2900866E1,2.0961208E1,1.0026347E2,6.786778E1,1.4901074E0,8.603312E0,6.6526723E0,2.5885327E0,2.012301E1,1.0029119E0,1.4398706E0,1.1497855E0,1.6308886E1,1.0704237E1,2.7200081E0,1.7144265E0,2.5204721E1,4.198349E0,5.7266876E2,8.050734E0,1.0154659E1,2.2671273E0,1.9984708E0,9.5319805E0,7.854665E1,1.0227323E0,8.296761E0,6.6905627E0,3.199675E1,8.131256E0,1.3051845E1,1.3234479E2,1.47090025E1,3.2579722E0,1.0100107E0,5.217648E2,1.088447E0,1.663209E0,1.5388842E0,2.1561413E1,1.3394529E0,1.2842042E1,8.119165E0,8.460687E1,1.5656597E1,1.7320409E0,6.613574E1,2.1273847E0,6.475927E0,5.6467047E0,1.0059679E0,1.1929979E0,1.3955346E0,1.0131724E0,1.9109838E1,1.8234493E0,8.880788E0,1.7074931E0,1.012515E0,2.3675684E1,1.529038E0,1.6303242E0,2.5680249E0,4.3248262E0,5.6834393E2,1.9262143E0,6.1245193E0,1.2130053E0,8.941654E0],"tree_param":{"num_deleted":"0","num_feature":"384","num_nodes":"109","size_leaf_vector":"1"}},{"base_weights":[-5.9397012E-2,-6.1987585E-1,8.418461E-1,-9.334377E-1,-2.1447209E-1,1.0905199E-1,9.4977164E-1,-9.7114426E-1,-3.6825636E-1,2.4638996E-1,-7.684868E-1,-6.414988E-1,5.7678187E-1,-9.441072E-2,9.883671E-1,2.8260165E-1,-9.775142E-1,4.3767497E-1,-8.199941E-1,-5.888277E-1,6.608651E-1,2.7690437E-2,-9.326329E-1,2.3285562E-1,-1.0464255E0,2.3737036E-2,9.7524804E-1,6.3303137E-1,-7.6183826E-1,1.3813871E-1,1.0129322E0,1.1615156E-1,-9.8349875E-1,1.1812711E0,-6.3221765E-1,-9.452448E-1,6.984061E-2,-8.7998575E-1,3.4550732E-1,-8.4279644E-1,8.224779E-1,-7.1027714E-1,6.7034316E-1,-9.7930336E-1,2.7285157E-2,-6.1124617E-1,2.5412264E-1,9.953139E-2,-1.1663187E0,6.2245756E-1,-7.3745346E-1,1.6408392E-3,3.0613616E-1,-1.14574865E-1,8.5480624E-1,9.387707E-2,-9.2632693E-1,-1.3770267E0,7.1010005E-1,1.0229094E0,-1.4520015E-1,-2.967902E-1,7.6349765E-2,-1.15092844E-1,4.5886E-1,3.568445E-2,-2.4761692E-1,-2.7088229E-2,-2.971677E-1,-2.9835656E-1,1.3027224E-1,-1.6398957E-1,2.9258817E-1,5.6707E-2,-2.8591263E-1,-5.40281E-2,2.9902518E-1,9.373643E-2,-2.8175902E-1,-1.4700131E-1,3.4812808E-1,-3.0389E-1,-1.7841268E-2,-2.4791321E-1,2.3377158E-1,-3.051299E-1,8.527759E-2,-6.78171E-2,-3.726859E-1,2.5515556E-1,-1.8917517E-1,-3.4902933E-1,1.9143187E-1,2.778726E-1,5.8382165E-2,-4.4620685E-2,-3.0665776E-1,-5.100476E-1,-6.648212E-2,2.7426717E-1,-1.778343E-1,1.7943352E-2,3.0959448E-1,-2.3153274E-1,1.7320001E-1],"categories":[],"categories_nodes":[],"categories_segments":[],"categories_sizes":[],"default_left":[0,0,0,0,0,0,0,0,0,0,0,0,0,0,0,0,0,0,0,0,0,0,0,0,0,0,0,0,0,0,0,0,0,0,0,0,0,0,0,0,0,0,0,0,0,0,0,0,0,0,0,0,0,0,0,0,0,0,0,0,0,0,0,0,0,0,0,0,0,0,0,0,0,0,0,0,0,0,0,0,0,0,0,0,0,0,0,0,0,0,0,0,0,0,0,0,0,0,0,0,0,0,0,0,0],"id":8,"left_children":[1,3,5,7,9,11,13,15,17,19,21,23,25,27,29,-1,31,33,35,37,39,41,43,45,47,49,51,53,55,57,59,-1,61,63,65,67,-1,69,71,73,75,77,79,81,83,85,-1,-1,87,89,91,-1,-1,-1,93,-1,95,97,99,101,103,-1,-1,-1,-1,-1,-1,-1,-1,-1,-1,-1,-1,-1,-1,-1,-1,-1,-1,-1,-1,-1,-1,-1,-1,-1,-1,-1,-1,-1,-1,-1,-1,-1,-1,-1,-1,-1,-1,-1,-1,-1,-1,-1,-1],"loss_changes":[6.979094E2,1.0808145E2,4.179715E1,9.871948E0,9.537388E1,2.4642702E1,1.8698578E1,6.3973083E0,1.1875294E1,7.110116E1,2.2181992E1,9.809702E0,9.4799E0,8.915013E0,9.160431E0,0E0,4.042755E0,1.0304721E1,2.938877E0,1.8877752E1,3.3983173E1,1.4679694E1,6.324829E0,5.3758783E0,3.468399E0,9.156266E0,1.0921383E0,2.3200529E0,1.9714241E0,1.2817683E1,5.147583E0,0E0,3.4603577E0,4.639637E0,9.075017E-1,6.3207626E-1,0E0,8.309879E0,1.0050621E1,1.7486486E0,2.188002E1,3.6709838E0,9.964602E0,4.0919037E0,5.4525604E0,1.9345812E0,0E0,0E0,9.6045494E-1,3.7438407E0,5.933751E0,0E0,0E0,0E0,1.7711115E-1,0E0,4.817233E-1,1.1480975E0,3.355124E0,3.6871643E0,2.5149453E0,0E0,0E0,0E0,0E0,0E0,0E0,0E0,0E0,0E0,0E0,0E0,0E0,0E0,0E0,0E0,0E0,0E0,0E0,0E0,0E0,0E0,0E0,0E0,0E0,0E0,0E0,0E0,0E0,0E0,0E0,0E0,0E0,0E0,0E0,0E0,0E0,0E0,0E0,0E0,0E0,0E0,0E0,0E0,0E0],"parents":[2147483647,0,0,1,1,2,2,3,3,4,4,5,5,6,6,7,7,8,8,9,9,10,10,11,11,12,12,13,13,14,14,16,16,17,17,18,18,19,19,20,20,21,21,22,22,23,23,24,24,25,25,26,26,27,27,28,28,29,29,30,30,32,32,33,33,34,34,35,35,37,37,38,38,39,39,40,40,41,41,42,42,43,43,44,44,45,45,48,48,49,49,50,50,54,54,56,56,57,57,58,58,59,59,60,60],"right_children":[2,4,6,8,10,12,14,16,18,20,22,24,26,28,30,-1,32,34,36,38,40,42,44,46,48,50,52,54,56,58,60,-1,62,64,66,68,-1,70,72,74,76,78,80,82,84,86,-1,-1,88,90,92,-1,-1,-1,94,-1,96,98,100,102,104,-1,-1,-1,-1,-1,-1,-1,-1,-1,-1,-1,-1,-1,-1,-1,-1,-1,-1,-1,-1,-1,-1,-1,-1,-1,-1,-1,-1,-1,-1,-1,-1,-1,-1,-1,-1,-1,-1,-1,-1,-1,-1,-1,-1],"split_conditions":[1.061149E-1,3.3326533E-2,-1.1170622E-2,4.986054E-2,-1.2994288E-2,-2.1487936E-2,3.4916025E-1,-1.4202051E-1,-3.0785035E-2,-2.555139E-3,1.6735961E-3,-4.0461816E-2,2.333316E-3,5.8709912E-2,-1.9563979E-2,2.8260165E-1,-6.95605E-2,9.146409E-3,2.6972014E-2,3.0897163E-2,-6.416428E-2,-1.9700516E-2,4.0467124E-2,-4.3752175E-3,-7.111465E-2,1.729026E-2,-2.1621155E-2,-2.9605608E-2,-9.338268E-2,5.7248827E-3,7.470009E-2,1.1615156E-1,-2.5753567E-2,-1.3321781E-2,6.569547E-3,-2.175052E-2,6.984061E-2,3.3064112E-2,3.3714673E-3,-6.727508E-2,-2.657706E-2,-5.1793415E-2,-2.9742569E-2,4.3477528E-2,-1.3073502E-2,4.0400714E-1,2.5412264E-1,9.953139E-2,-1.1749491E-2,4.6961855E-2,3.449129E-2,1.6408392E-3,3.0613616E-1,-1.14574865E-1,4.221502E-2,9.387707E-2,-3.034866E-3,7.965083E-3,-1.1259718E-2,-8.739648E-2,-2.2095809E-2,-2.967902E-1,7.6349765E-2,-1.15092844E-1,4.5886E-1,3.568445E-2,-2.4761692E-1,-2.7088229E-2,-2.971677E-1,-2.9835656E-1,1.3027224E-1,-1.6398957E-1,2.9258817E-1,5.6707E-2,-2.8591263E-1,-5.40281E-2,2.9902518E-1,9.373643E-2,-2.8175902E-1,-1.4700131E-1,3.4812808E-1,-3.0389E-1,-1.7841268E-2,-2.4791321E-1,2.3377158E-1,-3.051299E-1,8.527759E-2,-6.78171E-2,-3.726859E-1,2.5515556E-1,-1.8917517E-1,-3.4902933E-1,1.9143187E-1,2.778726E-1,5.8382165E-2,-4.4620685E-2,-3.0665776E-1,-5.100476E-1,-6.648212E-2,2.7426717E-1,-1.778343E-1,1.7943352E-2,3.0959448E-1,-2.3153274E-1,1.7320001E-1],"split_indices":[48,48,81,231,100,153,99,279,226,220,88,295,359,174,212,0,104,86,48,13,153,72,124,21,252,217,239,225,141,200,88,0,29,220,272,217,0,1,81,263,231,191,359,359,225,99,0,0,217,287,61,0,0,0,88,0,55,176,18,72,84,0,0,0,0,0,0,0,0,0,0,0,0,0,0,0,0,0,0,0,0,0,0,0,0,0,0,0,0,0,0,0,0,0,0,0,0,0,0,0,0,0,0,0,0],"split_type":[0,0,0,0,0,0,0,0,0,0,0,0,0,0,0,0,0,0,0,0,0,0,0,0,0,0,0,0,0,0,0,0,0,0,0,0,0,0,0,0,0,0,0,0,0,0,0,0,0,0,0,0,0,0,0,0,0,0,0,0,0,0,0,0,0,0,0,0,0,0,0,0,0,0,0,0,0,0,0,0,0,0,0,0,0,0,0,0,0,0,0,0,0,0,0,0,0,0,0,0,0,0,0,0,0],"sum_hessian":[1.3796163E3,8.508123E2,5.2880396E2,4.7901385E2,3.717985E2,6.814215E1,4.6066183E2,4.4838144E2,3.0632418E1,2.0326553E2,1.6853297E2,2.6018923E1,4.2123226E1,1.6368664E1,4.4429318E2,1.0005316E0,4.473809E2,1.1013932E1,1.9618484E1,6.727586E1,1.3598967E2,2.8949095E1,1.3958388E2,8.370192E0,1.7648731E1,1.8083744E1,2.403948E1,7.8568587E0,8.511806E0,1.266217E1,4.31631E2,1.6752329E0,4.4570566E2,6.436404E0,4.5775285E0,1.7623932E1,1.9945534E0,5.1336517E1,1.5939345E1,1.2788573E1,1.23201096E2,1.3426276E1,1.5522819E1,1.3309282E2,6.4910536E0,3.5274186E0,4.842773E0,1.2710074E0,1.6377724E1,1.0224131E1,7.859615E0,1.1206064E0,2.2918873E1,1.2794402E0,6.5774183E0,1.010014E0,7.5017915E0,3.0842435E0,9.577928E0,4.2806003E2,3.5709596E0,4.4382657E2,1.8791137E0,1.153148E0,5.283256E0,1.0149696E0,3.5625587E0,1.037719E0,1.6586212E1,4.7444916E1,3.8916025E0,6.650482E0,9.288863E0,1.1655264E0,1.1623047E1,1.8239254E1,1.0496184E2,2.3888454E0,1.1037431E1,4.609438E0,1.0913381E1,1.2829628E2,4.7965364E0,2.993584E0,3.4974697E0,2.3338885E0,1.19353E0,1.5215102E0,1.4856214E1,8.921586E0,1.3025441E0,6.1189394E0,1.7406752E0,5.5715814E0,1.0058371E0,1.1033915E0,6.3984E0,2.0417662E0,1.0424774E0,8.538498E0,1.0394297E0,4.0654807E0,4.2399457E2,1.8759755E0,1.6949842E0],"tree_param":{"num_deleted":"0","num_feature":"384","num_nodes":"105","size_leaf_vector":"1"}},{"base_weights":[-5.7607755E-2,-5.5096E-1,8.4328854E-1,-7.352576E-1,2.2998556E-1,2.3621714E-1,9.5114905E-1,-9.099869E-1,-2.5175387E-1,7.994304E-1,-3.359206E-1,-4.586583E-1,6.8608296E-1,-7.938367E-2,9.806055E-1,-9.716483E-1,-4.0067297E-1,-5.824052E-1,7.6958567E-1,9.6400625E-1,-4.325605E-1,-7.168944E-1,6.399723E-1,2.8978175E-1,-1.1818501E0,-2.0550363E-1,8.61866E-1,6.8250144E-1,-7.982601E-1,-3.768168E-1,9.922618E-1,-9.8320115E-1,2.6140785E-1,9.378742E-1,-6.2929916E-1,-8.0315566E-1,3.8055903E-1,1.103042E0,-4.713917E-1,1.0910369E0,-1.0073077E-1,-7.9767E-1,4.7947118E-1,7.1658564E-1,-8.763258E-1,-1.8260287E-1,1.0267097E0,-3.5694215E-1,8.220303E-1,7.074788E-2,-1.3343289E0,-8.0421746E-1,5.310697E-1,9.6397644E-1,-1.7419069E-1,1.0587436E-2,2.4772102E-1,1.0058391E-3,-3.0525774E-1,-1.9637786E-1,3.351736E-2,1.0128876E0,2.720378E-1,-6.3723475E-2,-3.008038E-1,3.862344E-1,-1.6199356E-1,4.1699362E-1,-8.716656E-2,-2.366856E-1,6.486177E-2,-2.7333227E-1,1.4712605E-1,-1.2443652E-1,3.1007656E-1,-1.4587748E-1,3.544571E-1,-2.8754562E-1,2.1692641E-1,3.4640563E-1,-1.4668955E-1,-1.918713E-1,1.7367774E-1,-2.8273278E-1,8.366651E-4,2.365926E-1,-2.4657296E-2,-1.39161E-1,3.9492735E-1,-3.1309564E-2,-3.0342072E-1,2.1482435E-1,-2.1813014E-1,-6.3420035E-2,3.4518272E-1,-2.0727183E-1,1.2539318E-1,5.4784063E-2,2.7073005E-1,-6.0661074E-2,-4.3417796E-1,-3.2948506E-1,2.2267746E-3,2.0225173E-1,2.2288619E-2,-1.844217E-2,3.0135036E-1,-2.036061E-1,1.621139E-1,3.0926305E-1,9.3170166E-2,2.267987E-1,-2.1390791E-1],"categories":[],"categories_nodes":[],"categories_segments":[],"categories_sizes":[],"default_left":[0,0,0,0,0,0,0,0,0,0,0,0,0,0,0,0,0,0,0,0,0,0,0,0,0,0,0,0,0,0,0,0,0,0,0,0,0,0,0,0,0,0,0,0,0,0,0,0,0,0,0,0,0,0,0,0,0,0,0,0,0,0,0,0,0,0,0,0,0,0,0,0,0,0,0,0,0,0,0,0,0,0,0,0,0,0,0,0,0,0,0,0,0,0,0,0,0,0,0,0,0,0,0,0,0,0,0,0,0,0,0,0,0],"id":9,"left_children":[1,3,5,7,9,11,13,15,17,19,21,23,25,27,29,31,33,35,37,39,41,43,45,47,49,51,53,55,57,59,61,63,65,67,69,71,73,75,77,79,81,83,85,87,89,91,93,95,97,-1,99,101,103,105,107,-1,-1,-1,-1,-1,-1,109,111,-1,-1,-1,-1,-1,-1,-1,-1,-1,-1,-1,-1,-1,-1,-1,-1,-1,-1,-1,-1,-1,-1,-1,-1,-1,-1,-1,-1,-1,-1,-1,-1,-1,-1,-1,-1,-1,-1,-1,-1,-1,-1,-1,-1,-1,-1,-1,-1,-1,-1],"loss_changes":[4.8682263E2,1.0202133E2,2.515503E1,4.8161438E1,4.4056084E1,1.9010376E1,1.0058624E1,1.2812042E1,5.2262817E1,1.4209263E1,2.6058632E1,1.3388365E1,5.9296474E0,6.055824E0,5.432892E0,5.5884705E0,1.50033245E1,2.5065468E1,1.6226067E1,8.268101E0,3.2816272E0,1.2053776E1,6.505762E0,4.64695E0,3.0070019E0,3.4489129E0,3.4318352E0,4.7368073E-1,9.9439454E-1,5.409042E-1,4.4377136E0,5.3569946E0,4.2012687E0,4.442772E0,5.6814594E0,1.3723579E1,1.2062964E1,4.343334E0,5.7777376E0,5.992363E0,3.0600982E0,7.6663876E-1,6.054894E-1,4.543335E0,4.632698E0,4.044156E0,2.3387957E0,1.9468888E0,2.0745039E-1,0E0,1.1643124E0,1.0052354E0,1.9010997E-1,1.235178E0,1.6698954E0,0E0,0E0,0E0,0E0,0E0,0E0,3.572235E0,5.4019675E0,0E0,0E0,0E0,0E0,0E0,0E0,0E0,0E0,0E0,0E0,0E0,0E0,0E0,0E0,0E0,0E0,0E0,0E0,0E0,0E0,0E0,0E0,0E0,0E0,0E0,0E0,0E0,0E0,0E0,0E0,0E0,0E0,0E0,0E0,0E0,0E0,0E0,0E0,0E0,0E0,0E0,0E0,0E0,0E0,0E0,0E0,0E0,0E0,0E0,0E0],"parents":[2147483647,0,0,1,1,2,2,3,3,4,4,5,5,6,6,7,7,8,8,9,9,10,10,11,11,12,12,13,13,14,14,15,15,16,16,17,17,18,18,19,19,20,20,21,21,22,22,23,23,24,24,25,25,26,26,27,27,28,28,29,29,30,30,31,31,32,32,33,33,34,34,35,35,36,36,37,37,38,38,39,39,40,40,41,41,42,42,43,43,44,44,45,45,46,46,47,47,48,48,50,50,51,51,52,52,53,53,54,54,61,61,62,62],"right_children":[2,4,6,8,10,12,14,16,18,20,22,24,26,28,30,32,34,36,38,40,42,44,46,48,50,52,54,56,58,60,62,64,66,68,70,72,74,76,78,80,82,84,86,88,90,92,94,96,98,-1,100,102,104,106,108,-1,-1,-1,-1,-1,-1,110,112,-1,-1,-1,-1,-1,-1,-1,-1,-1,-1,-1,-1,-1,-1,-1,-1,-1,-1,-1,-1,-1,-1,-1,-1,-1,-1,-1,-1,-1,-1,-1,-1,-1,-1,-1,-1,-1,-1,-1,-1,-1,-1,-1,-1,-1,-1,-1,-1,-1,-1],"split_conditions":[1.11866474E-1,2.9010564E-2,-2.328933E-2,4.0289536E-1,-1.5108492E-2,-1.2963727E-2,-6.1925706E-2,1.2061153E-2,1.1669303E-2,3.526407E-2,3.3846744E-3,-2.3892567E-2,-1.21266E-2,-2.637475E-2,-7.163126E-2,7.351988E-2,-9.086133E-2,2.9256768E-3,1.0847739E-2,7.807666E-2,2.360469E-2,-4.4984844E-2,1.8563926E-2,-5.299888E-3,-7.609956E-3,2.0829532E-3,7.452209E-2,4.670087E-2,-5.2585337E-2,4.875444E-3,4.3424938E-2,-5.769177E-2,-6.28349E-2,3.7117607E-3,1.8622791E-2,4.165491E-2,1.8614842E-2,-5.9972825E-3,3.490343E-2,4.5656893E-2,-1.7295139E-4,1.46904625E-2,-1.08099785E-2,-9.3110595E-3,-2.77349E-2,3.3855435E-2,-3.0502403E-2,3.0687373E-2,-2.2378141E-2,7.074788E-2,-5.0203715E-2,5.331855E-3,4.1571376E-3,-1.6908439E-1,3.0179234E-2,1.0587436E-2,2.4772102E-1,1.0058391E-3,-3.0525774E-1,-1.9637786E-1,3.351736E-2,2.7234638E-2,-1.2714839E-2,-6.3723475E-2,-3.008038E-1,3.862344E-1,-1.6199356E-1,4.1699362E-1,-8.716656E-2,-2.366856E-1,6.486177E-2,-2.7333227E-1,1.4712605E-1,-1.2443652E-1,3.1007656E-1,-1.4587748E-1,3.544571E-1,-2.8754562E-1,2.1692641E-1,3.4640563E-1,-1.4668955E-1,-1.918713E-1,1.7367774E-1,-2.8273278E-1,8.366651E-4,2.365926E-1,-2.4657296E-2,-1.39161E-1,3.9492735E-1,-3.1309564E-2,-3.0342072E-1,2.1482435E-1,-2.1813014E-1,-6.3420035E-2,3.4518272E-1,-2.0727183E-1,1.2539318E-1,5.4784063E-2,2.7073005E-1,-6.0661074E-2,-4.3417796E-1,-3.2948506E-1,2.2267746E-3,2.0225173E-1,2.2288619E-2,-1.844217E-2,3.0135036E-1,-2.036061E-1,1.621139E-1,3.0926305E-1,9.3170166E-2,2.267987E-1,-2.1390791E-1],"split_indices":[48,239,225,99,364,359,375,225,359,287,359,260,81,295,153,68,141,131,364,247,352,77,13,124,88,259,174,294,230,109,381,222,100,191,293,220,331,48,231,267,359,202,46,124,380,163,238,239,21,0,380,331,107,62,297,0,0,0,0,0,0,304,267,0,0,0,0,0,0,0,0,0,0,0,0,0,0,0,0,0,0,0,0,0,0,0,0,0,0,0,0,0,0,0,0,0,0,0,0,0,0,0,0,0,0,0,0,0,0,0,0,0,0],"split_type":[0,0,0,0,0,0,0,0,0,0,0,0,0,0,0,0,0,0,0,0,0,0,0,0,0,0,0,0,0,0,0,0,0,0,0,0,0,0,0,0,0,0,0,0,0,0,0,0,0,0,0,0,0,0,0,0,0,0,0,0,0,0,0,0,0,0,0,0,0,0,0,0,0,0,0,0,0,0,0,0,0,0,0,0,0,0,0,0,0,0,0,0,0,0,0,0,0,0,0,0,0,0,0,0,0,0,0,0,0,0,0,0,0],"sum_hessian":[1.0932692E3,7.066689E2,3.8660028E2,5.717892E2,1.3487968E2,5.8806965E1,3.277933E2,4.1935867E2,1.5243051E2,6.7023964E1,6.785572E1,2.3102558E1,3.5704407E1,9.062073E0,3.1873123E2,3.732611E2,4.609756E1,1.15475815E2,3.6954704E1,5.931753E1,7.7064304E0,4.8994434E1,1.8861286E1,1.1647608E1,1.145495E1,5.852245E0,2.9852161E1,4.4239974E0,4.6380754E0,2.446962E0,3.1628427E2,3.6999713E2,3.2639775E0,6.2723517E0,3.982521E1,9.407579E1,2.1400026E1,2.9215511E1,7.739193E0,5.2972797E1,6.344732E0,5.592859E0,2.1135714E0,4.5539865E0,4.444045E1,6.200629E0,1.2660657E1,5.407021E0,6.2405868E0,1.0593153E0,1.0395635E1,3.1775663E0,2.6746788E0,2.723731E1,2.614851E0,1.0275209E0,3.3964767E0,1.207669E0,3.430406E0,1.3432956E0,1.1036665E0,3.0708368E2,9.200592E0,9.41295E0,3.605842E2,1.1653796E0,2.098598E0,4.4888067E0,1.7835448E0,3.3555893E1,6.2693176E0,8.710255E1,6.9732394E0,9.813115E0,1.1586911E1,1.1303068E0,2.8085205E1,5.637758E0,2.1014352E0,5.1180252E1,1.7925456E0,3.57188E0,2.7728517E0,4.5860405E0,1.0068184E0,1.102546E0,1.0110255E0,1.61076E0,2.9432266E0,6.882085E0,3.755836E1,2.2205412E0,3.9800882E0,1.0874712E0,1.1573186E1,3.8543448E0,1.552676E0,1.0624592E0,5.1781273E0,1.1960286E0,9.199606E0,2.0732422E0,1.1043239E0,1.6742204E0,1.0004584E0,1.0158147E0,2.6221497E1,1.562161E0,1.0526901E0,2.9895837E2,8.125321E0,6.3254614E0,2.8751304E0],"tree_param":{"num_deleted":"0","num_feature":"384","num_nodes":"113","size_leaf_vector":"1"}},{"base_weights":[-5.270578E-2,-4.6591723E-1,8.8917625E-1,-7.7821887E-1,5.920606E-2,-1.9330701E-1,9.4018877E-1,-9.107045E-1,-1.0250378E-1,-6.0175186E-1,4.5531178E-1,-7.9276717E-1,4.289445E-1,9.638348E-1,-3.0932012E-1,2.0314199E-1,-9.365989E-1,-8.965469E-1,3.495648E-1,4.6004376E-1,-7.7115697E-1,-1.4143132E-1,8.197336E-1,-2.7470064E-1,-1.4383587E-2,-1.2520961E-1,6.966163E-1,1.9434445E-1,9.93706E-1,1.3931765E-1,-8.024908E-1,9.2069376E-1,-4.746335E-1,-3.3689952E-1,-9.6687114E-1,5.5950083E-2,-2.9236925E-1,-6.57998E-1,7.422347E-1,-2.1174237E-1,1.0400305E0,-8.6425644E-1,2.6761535E-1,7.076539E-1,-4.423068E-1,-3.493645E-1,9.681661E-1,1.6180776E-2,2.4875292E-1,-5.303452E-1,7.663875E-1,-1.2730579E-1,1.0015972E0,-4.879019E-2,-3.0737182E-1,-3.6188856E-2,3.838156E-1,-2.2498336E-1,8.420605E-2,-2.4588098E-1,1.0106737E-1,1.6666107E-1,-2.926681E-1,-2.799568E-1,1.6850838E-1,3.1352946E-1,-6.271776E-2,-1.0810247E-1,3.922953E-1,-2.8630883E-1,-1.384343E-2,2.4045882E-1,-1.8358581E-1,3.000787E-1,-1.2599184E-1,1.667564E-1,-1.9930352E-1,-2.4776049E-1,1.6738468E-1,3.090829E-1,-1.5204376E-1,7.327685E-2,-2.755986E-1,2.659553E-1,2.1154128E-2,3.023137E-1,-4.597181E-2],"categories":[],"categories_nodes":[],"categories_segments":[],"categories_sizes":[],"default_left":[0,0,0,0,0,0,0,0,0,0,0,0,0,0,0,0,0,0,0,0,0,0,0,0,0,0,0,0,0,0,0,0,0,0,0,0,0,0,0,0,0,0,0,0,0,0,0,0,0,0,0,0,0,0,0,0,0,0,0,0,0,0,0,0,0,0,0,0,0,0,0,0,0,0,0,0,0,0,0,0,0,0,0,0,0,0,0],"id":10,"left_children":[1,3,5,7,9,11,13,15,17,19,21,23,25,27,29,31,33,35,37,39,41,43,45,-1,-1,-1,47,49,51,-1,53,55,57,59,61,-1,-1,63,65,-1,67,69,71,73,75,77,79,-1,-1,81,83,-1,85,-1,-1,-1,-1,-1,-1,-1,-1,-1,-1,-1,-1,-1,-1,-1,-1,-1,-1,-1,-1,-1,-1,-1,-1,-1,-1,-1,-1,-1,-1,-1,-1,-1,-1],"loss_changes":[3.398442E2,9.9566895E1,1.4886017E1,3.397937E1,5.976774E1,5.1196737E0,7.8167114E0,9.364655E0,2.311399E1,1.5748896E1,3.1139202E1,5.8565044E-1,1.8620051E0,5.5529785E0,2.4649367E0,4.3513174E0,5.3208923E0,2.1525326E0,1.6786478E1,9.120032E0,7.4052734E0,1.4348718E1,1.5733456E1,0E0,0E0,0E0,4.361236E-1,4.7944417E0,3.115158E0,0E0,3.6131907E-1,1.7416592E0,1.2084079E0,5.6364894E0,4.451721E0,0E0,0E0,4.579566E0,8.894125E0,0E0,3.726513E0,4.9920044E0,3.7144675E0,5.2899847E0,9.496362E0,5.0996237E0,7.7582703E0,0E0,0E0,1.8066794E0,4.6618032E-1,0E0,1.8448334E0,0E0,0E0,0E0,0E0,0E0,0E0,0E0,0E0,0E0,0E0,0E0,0E0,0E0,0E0,0E0,0E0,0E0,0E0,0E0,0E0,0E0,0E0,0E0,0E0,0E0,0E0,0E0,0E0,0E0,0E0,0E0,0E0,0E0,0E0],"parents":[2147483647,0,0,1,1,2,2,3,3,4,4,5,5,6,6,7,7,8,8,9,9,10,10,11,11,12,12,13,13,14,14,15,15,16,16,17,17,18,18,19,19,20,20,21,21,22,22,26,26,27,27,28,28,30,30,31,31,32,32,33,33,34,34,37,37,38,38,40,40,41,41,42,42,43,43,44,44,45,45,46,46,49,49,50,50,52,52],"right_children":[2,4,6,8,10,12,14,16,18,20,22,24,26,28,30,32,34,36,38,40,42,44,46,-1,-1,-1,48,50,52,-1,54,56,58,60,62,-1,-1,64,66,-1,68,70,72,74,76,78,80,-1,-1,82,84,-1,86,-1,-1,-1,-1,-1,-1,-1,-1,-1,-1,-1,-1,-1,-1,-1,-1,-1,-1,-1,-1,-1,-1,-1,-1,-1,-1,-1,-1,-1,-1,-1,-1,-1,-1],"split_conditions":[1.2276722E-1,-1.3073502E-2,3.4916025E-1,4.662174E-2,-6.872531E-3,-3.473309E-2,6.945681E-2,-9.139518E-2,1.9520214E-2,3.0167298E-3,-4.8610233E-3,5.7628542E-2,-1.954577E-2,-4.9909223E-2,-2.9609488E-2,-1.2614822E-2,-4.7135156E-2,-4.6725728E-2,-3.2827757E-2,5.0375294E-3,9.13296E-3,-7.872197E-2,-6.709403E-3,-2.7470064E-1,-1.4383587E-2,-1.2520961E-1,-2.423614E-2,-2.6280412E-3,-6.472268E-2,1.3931765E-1,2.1117492E-2,-8.774149E-3,2.7350849E-2,3.8631156E-1,-1.4202051E-1,5.5950083E-2,-2.9236925E-1,5.1946156E-2,-1.6140651E-2,-2.1174237E-1,1.3880133E-2,2.409738E-2,-6.3122116E-2,7.23832E-2,-4.776935E-2,1.620125E-2,2.8431067E-2,1.6180776E-2,2.4875292E-1,1.7950607E-2,1.6127728E-2,-1.2730579E-1,8.520424E-2,-4.879019E-2,-3.0737182E-1,-3.6188856E-2,3.838156E-1,-2.2498336E-1,8.420605E-2,-2.4588098E-1,1.0106737E-1,1.6666107E-1,-2.926681E-1,-2.799568E-1,1.6850838E-1,3.1352946E-1,-6.271776E-2,-1.0810247E-1,3.922953E-1,-2.8630883E-1,-1.384343E-2,2.4045882E-1,-1.8358581E-1,3.000787E-1,-1.2599184E-1,1.667564E-1,-1.9930352E-1,-2.4776049E-1,1.6738468E-1,3.090829E-1,-1.5204376E-1,7.327685E-2,-2.755986E-1,2.659553E-1,2.1154128E-2,3.023137E-1,-4.597181E-2],"split_indices":[48,225,99,130,239,375,88,295,48,247,21,294,331,225,100,380,11,108,359,48,366,279,212,0,0,0,21,372,21,0,160,150,202,99,279,0,0,7,100,0,116,1,141,163,364,202,77,0,0,92,137,0,340,0,0,0,0,0,0,0,0,0,0,0,0,0,0,0,0,0,0,0,0,0,0,0,0,0,0,0,0,0,0,0,0,0,0],"split_type":[0,0,0,0,0,0,0,0,0,0,0,0,0,0,0,0,0,0,0,0,0,0,0,0,0,0,0,0,0,0,0,0,0,0,0,0,0,0,0,0,0,0,0,0,0,0,0,0,0,0,0,0,0,0,0,0,0,0,0,0,0,0,0,0,0,0,0,0,0,0,0,0,0,0,0,0,0,0,0,0,0,0,0,0,0,0,0],"sum_hessian":[8.711301E2,6.058458E2,2.6528427E2,3.7960498E2,2.2624088E2,1.1813481E1,2.534708E2,3.1708685E2,6.2518124E1,8.458304E1,1.4165784E2,5.8773613E0,5.9361196E0,2.4898752E2,4.4832783E0,7.0485535E0,3.100383E2,2.2323841E1,4.019428E1,1.1402005E1,7.318103E1,5.3941E1,8.771683E1,4.8480196E0,1.0293417E0,1.2919765E0,4.644143E0,9.584857E0,2.3940266E2,1.767961E0,2.7153172E0,3.2497168E0,3.7988365E0,1.5481217E1,2.945571E2,1.4066062E0,2.0917236E1,1.108227E1,2.9112011E1,3.7158027E0,7.6862025E0,6.731588E1,5.865153E0,1.375938E1,4.018162E1,9.729635E0,7.79872E1,1.034678E0,3.6094654E0,4.260438E0,5.324419E0,1.032787E0,2.3836987E2,1.1459503E0,1.5693669E0,1.0026377E0,2.2470791E0,2.7892752E0,1.0095614E0,8.893505E0,6.5877123E0,1.3144828E0,2.932426E2,9.233805E0,1.8484648E0,2.2007025E1,7.1049848E0,1.1776214E0,6.508581E0,6.0487305E1,6.8285737E0,3.7049212E0,2.1602318E0,1.1014238E1,2.7451415E0,7.0382247E0,3.31434E1,6.438187E0,3.2914484E0,7.512523E1,2.861969E0,1.5465063E0,2.7139318E0,4.3069406E0,1.0174785E0,2.3724103E2,1.1288466E0],"tree_param":{"num_deleted":"0","num_feature":"384","num_nodes":"87","size_leaf_vector":"1"}},{"base_weights":[-4.9042873E-2,-4.122894E-1,8.7979853E-1,-7.1656394E-1,9.7458765E-2,9.256335E-1,-3.06656E-1,-2.0776236E-1,-8.5132176E-1,-4.0332294E-1,5.9494835E-1,-1.2831698E-1,9.562572E-1,-7.103339E-1,1.5942815E-1,5.711525E-1,-6.4340645E-1,-9.145499E-1,-3.0402777E-1,4.09423E-1,-6.713901E-1,-5.581292E-1,7.772897E-1,-5.133453E-1,1.8433544E-1,9.785961E-1,9.585052E-2,-2.652719E-1,1.5570562E-2,1.0183307E0,-3.3651155E-1,-1.3896008E-2,-9.452279E-1,3.84463E-1,-9.334161E-1,3.0882034E-1,-7.6700515E-1,8.411275E-1,-4.5370266E-1,2.3614618E-1,-8.873186E-1,1.5304622E-1,-7.778762E-1,-2.4310581E-1,8.6427075E-1,6.514649E-2,-2.3549944E-1,-5.1732957E-2,9.8982847E-1,-4.8157454E-1,2.1294543E-1,-1.3522044E-1,3.6466283E-1,1.7689095E-1,-1.9611083E-1,2.2257876E-1,-2.1823701E-1,-2.9980204E-1,7.051917E-2,3.340816E-1,-1.3048042E-1,1.527551E-1,-2.8375122E-1,2.2869097E-1,-1.7607579E-1,-2.650684E-1,6.532634E-2,3.0500925E-1,-1.1310859E-1,-2.510034E-1,6.444253E-2,-1.9797668E-1,2.6469204E-1,8.580547E-2,-2.8230318E-1,-7.4794358E-3,-2.7266872E-1,3.5867367E-2,3.0393863E-1,3.0067465E-1,4.1382894E-2,-2.2450916E-1,2.606211E-2],"categories":[],"categories_nodes":[],"categories_segments":[],"categories_sizes":[],"default_left":[0,0,0,0,0,0,0,0,0,0,0,0,0,0,0,0,0,0,0,0,0,0,0,0,0,0,0,0,0,0,0,0,0,0,0,0,0,0,0,0,0,0,0,0,0,0,0,0,0,0,0,0,0,0,0,0,0,0,0,0,0,0,0,0,0,0,0,0,0,0,0,0,0,0,0,0,0,0,0,0,0,0,0],"id":11,"left_children":[1,3,5,7,9,11,13,15,17,19,21,23,25,27,-1,29,31,33,35,37,39,41,43,45,-1,47,49,-1,-1,51,53,55,57,59,61,63,65,67,69,71,73,-1,75,-1,77,-1,-1,-1,79,81,-1,-1,-1,-1,-1,-1,-1,-1,-1,-1,-1,-1,-1,-1,-1,-1,-1,-1,-1,-1,-1,-1,-1,-1,-1,-1,-1,-1,-1,-1,-1,-1,-1],"loss_changes":[2.3746501E2,7.8529854E1,1.1044815E1,2.1550781E1,4.7566612E1,6.2799377E0,3.1216736E0,2.333268E1,8.380432E0,2.1030357E1,2.0555046E1,2.1080463E0,3.4716492E0,8.283005E-1,0E0,1.0410671E1,8.322775E0,5.843704E0,8.014344E0,9.417248E0,1.4322002E1,3.6009989E0,1.2169216E1,1.0978006E0,0E0,2.5069122E0,2.399075E0,0E0,0E0,5.434309E0,3.0113332E0,8.755375E0,2.1279678E0,2.8216808E0,4.4397125E0,5.5286784E0,2.0176125E0,3.9153605E0,2.415946E0,9.053768E0,3.947319E0,0E0,1.133184E0,0E0,8.661007E0,0E0,0E0,0E0,1.7567749E0,6.0888636E-1,0E0,0E0,0E0,0E0,0E0,0E0,0E0,0E0,0E0,0E0,0E0,0E0,0E0,0E0,0E0,0E0,0E0,0E0,0E0,0E0,0E0,0E0,0E0,0E0,0E0,0E0,0E0,0E0,0E0,0E0,0E0,0E0,0E0],"parents":[2147483647,0,0,1,1,2,2,3,3,4,4,5,5,6,6,7,7,8,8,9,9,10,10,11,11,12,12,13,13,15,15,16,16,17,17,18,18,19,19,20,20,21,21,22,22,23,23,25,25,26,26,29,29,30,30,31,31,32,32,33,33,34,34,35,35,36,36,37,37,38,38,39,39,40,40,42,42,44,44,48,48,49,49],"right_children":[2,4,6,8,10,12,14,16,18,20,22,24,26,28,-1,30,32,34,36,38,40,42,44,46,-1,48,50,-1,-1,52,54,56,58,60,62,64,66,68,70,72,74,-1,76,-1,78,-1,-1,-1,80,82,-1,-1,-1,-1,-1,-1,-1,-1,-1,-1,-1,-1,-1,-1,-1,-1,-1,-1,-1,-1,-1,-1,-1,-1,-1,-1,-1,-1,-1,-1,-1,-1,-1],"split_conditions":[1.2531944E-1,2.8324763E-3,6.4665616E-2,-4.1563347E-2,3.1726763E-3,-4.1288488E-2,4.3083508E-2,-2.3769533E-2,4.53735E-2,9.36456E-3,-3.6456477E-2,1.8427654E-3,4.7811717E-2,4.0068064E-2,1.5942815E-1,-7.3884744E-3,-8.916313E-3,-8.004591E-2,-2.1158941E-2,5.9656832E-2,-4.035431E-2,-5.4890107E-2,3.6657634E-3,-3.24204E-2,1.8433544E-1,-6.8376675E-2,9.929105E-3,-2.652719E-1,1.5570562E-2,-2.2502726E-2,-3.8855188E-2,-6.95061E-2,6.1447524E-2,-5.697304E-2,-5.4400824E-2,7.744374E-3,1.6181182E-2,1.0847739E-2,8.065516E-3,3.8631156E-1,-4.5185764E-3,1.5304622E-1,-1.5943434E-2,-2.4310581E-1,-2.2036243E-2,6.514649E-2,-2.3549944E-1,-5.1732957E-2,6.3856885E-2,2.1635467E-2,2.1294543E-1,-1.3522044E-1,3.6466283E-1,1.7689095E-1,-1.9611083E-1,2.2257876E-1,-2.1823701E-1,-2.9980204E-1,7.051917E-2,3.340816E-1,-1.3048042E-1,1.527551E-1,-2.8375122E-1,2.2869097E-1,-1.7607579E-1,-2.650684E-1,6.532634E-2,3.0500925E-1,-1.1310859E-1,-2.510034E-1,6.444253E-2,-1.9797668E-1,2.6469204E-1,8.580547E-2,-2.8230318E-1,-7.4794358E-3,-2.7266872E-1,3.5867367E-2,3.0393863E-1,3.0067465E-1,4.1382894E-2,-2.2450916E-1,2.606211E-2],"split_indices":[48,202,88,263,231,21,250,267,13,351,250,359,92,188,0,304,11,222,83,247,267,263,48,260,0,124,239,0,0,250,77,141,102,310,57,104,153,364,250,99,247,0,309,0,269,0,0,0,46,353,0,0,0,0,0,0,0,0,0,0,0,0,0,0,0,0,0,0,0,0,0,0,0,0,0,0,0,0,0,0,0,0,0],"split_type":[0,0,0,0,0,0,0,0,0,0,0,0,0,0,0,0,0,0,0,0,0,0,0,0,0,0,0,0,0,0,0,0,0,0,0,0,0,0,0,0,0,0,0,0,0,0,0,0,0,0,0,0,0,0,0,0,0,0,0,0,0,0,0,0,0,0,0,0,0,0,0,0,0,0,0,0,0,0,0,0,0,0,0],"sum_hessian":[7.0173676E2,5.0485626E2,1.968805E2,3.1589136E2,1.889649E2,1.8976918E2,7.1113105E0,6.667814E1,2.4921323E2,9.426519E1,9.469971E1,5.2681913E0,1.8450099E2,4.902408E0,2.2089028E0,2.3804876E1,4.287326E1,2.2280215E2,2.641108E1,2.3249208E1,7.101598E1,1.264913E1,8.2050575E1,3.673064E0,1.5951276E0,1.7969809E2,4.8028975E0,3.8613675E0,1.0410404E0,1.5866176E1,7.9387016E0,1.4233152E1,2.8640106E1,2.9121363E0,2.1989001E2,1.1509199E1,1.4901879E1,1.5514766E1,7.7344437E0,1.3631184E1,5.73848E1,1.9325645E0,1.0716565E1,3.8298006E0,7.822078E1,1.0500352E0,2.6230288E0,1.5979276E0,1.7810016E2,2.5862308E0,2.216667E0,1.7256888E0,1.4140487E1,1.8061368E0,6.1325645E0,6.8925734E0,7.340579E0,2.753121E1,1.1088969E0,1.3509437E0,1.5611926E0,1.5357498E0,2.1835426E2,7.7397776E0,3.7694216E0,1.341665E1,1.4852301E0,1.3704893E1,1.8098726E0,4.75745E0,2.9769933E0,5.7022476E0,7.9289355E0,2.3216863E0,5.506311E1,1.7648103E0,8.951755E0,1.3331015E1,6.488976E1,1.7536684E2,2.73332E0,1.5447375E0,1.0414934E0],"tree_param":{"num_deleted":"0","num_feature":"384","num_nodes":"83","size_leaf_vector":"1"}},{"base_weights":[-4.513039E-2,-6.4818025E-1,4.3622118E-1,-2.293753E-1,-8.6683697E-1,-1.9535679E-1,7.316792E-1,4.4099566E-1,-6.2033236E-1,-9.3502635E-1,-3.355616E-1,-8.3483297E-1,1.9424956E-1,-3.604357E-2,8.654334E-1,-6.722601E-1,7.8854597E-1,-8.310605E-1,2.6798207E-1,-9.554233E-1,2.7236766E-1,-7.567144E-1,5.7840985E-1,-5.7213806E-2,-9.445483E-1,-4.9485886E-1,5.47528E-1,6.896989E-1,-6.850987E-1,-7.4136555E-2,9.3181413E-1,5.0578464E-2,-2.6184097E-1,1.1248324E0,-7.218502E-2,2.255427E-1,-8.970617E-1,1.0360208E0,-4.453038E-1,-9.707819E-1,8.255691E-2,-1.5318862E-1,2.5907055E-1,4.3288365E-2,-9.055842E-1,-1.4577888E-1,1.0207309E0,4.1762003E-1,-2.0508708E-1,-2.3667693E-1,-1.0145737E0,4.8009607E-1,-7.3280776E-1,7.588011E-1,-2.2213726E-1,8.9216644E-1,-3.9190617E-1,-1.0818275E-2,-1.1599936E0,4.5784783E-1,-8.8350725E-1,-1.11344524E-1,9.7051543E-1,3.8400674E-1,-1.4219542E-1,1.4773226E-1,-1.8997858E-1,3.0987015E-1,-1.7622648E-1,-2.9328756E-2,-2.83694E-1,4.3065238E-1,-1.231506E-1,1.8966943E-1,-2.2493173E-1,-2.7717547E-2,-2.9649743E-1,1.9979532E-1,-1.6031429E-1,-2.8523323E-1,-6.8790145E-2,-4.9094345E-2,4.055281E-1,2.3295096E-1,-5.26731E-2,1.2559935E-1,-1.7316948E-1,-3.1594667E-1,-3.8148396E-2,-1.0154288E-1,2.5182053E-1,-3.0095652E-1,-1.8446565E-2,2.5751835E-1,-1.4790112E-1,1.1595019E-1,-2.105103E-1,2.6733803E-2,2.8440052E-1,-2.3694907E-1,6.515718E-2,-2.4510011E-1,1.4393532E-1,1.0465564E-2,-3.898068E-1,-1.3304333E-1,2.2598562E-1,-3.02205E-1,-5.114242E-2,1.5201096E-1,-2.4342033E-1,2.9552802E-1,-8.8789634E-2],"categories":[],"categories_nodes":[],"categories_segments":[],"categories_sizes":[],"default_left":[0,0,0,0,0,0,0,0,0,0,0,0,0,0,0,0,0,0,0,0,0,0,0,0,0,0,0,0,0,0,0,0,0,0,0,0,0,0,0,0,0,0,0,0,0,0,0,0,0,0,0,0,0,0,0,0,0,0,0,0,0,0,0,0,0,0,0,0,0,0,0,0,0,0,0,0,0,0,0,0,0,0,0,0,0,0,0,0,0,0,0,0,0,0,0,0,0,0,0,0,0,0,0,0,0,0,0,0,0,0,0,0,0],"id":12,"left_children":[1,3,5,7,9,11,13,15,17,19,21,23,25,27,29,31,33,35,37,39,41,43,45,47,49,51,53,55,57,59,61,-1,-1,63,65,67,69,71,73,75,77,-1,-1,-1,79,-1,81,83,-1,85,87,89,91,93,95,97,99,101,103,105,107,109,111,-1,-1,-1,-1,-1,-1,-1,-1,-1,-1,-1,-1,-1,-1,-1,-1,-1,-1,-1,-1,-1,-1,-1,-1,-1,-1,-1,-1,-1,-1,-1,-1,-1,-1,-1,-1,-1,-1,-1,-1,-1,-1,-1,-1,-1,-1,-1,-1,-1,-1],"loss_changes":[1.6557545E2,2.298449E1,5.9345837E1,2.3388998E1,5.698738E0,2.5551224E1,2.2248207E1,1.3326675E1,1.0728771E1,3.8687897E0,8.304886E0,3.2536545E0,1.588456E1,1.604608E1,1.1563538E1,1.5650647E0,7.509985E0,3.3828201E0,6.770889E0,2.3808136E0,1.9280014E0,2.0654793E0,3.7980015E0,2.0279567E0,1.4408283E0,5.516281E0,7.1402655E0,3.8769217E0,5.7367277E0,6.039709E0,7.060425E0,0E0,0E0,5.200676E0,2.8937335E0,2.8911552E0,1.5823174E0,3.96773E0,2.662589E0,2.1012878E0,1.4450126E0,0E0,0E0,0E0,1.6453648E-1,0E0,2.2902508E0,9.7789013E-1,0E0,1.2140421E0,9.1220284E-1,1.74632E0,3.2581902E0,4.6453457E0,3.192252E0,5.3754807E-1,9.555003E-1,3.7258258E0,1.7980404E0,2.612336E0,3.1676388E-1,3.4646997E0,3.3591309E0,0E0,0E0,0E0,0E0,0E0,0E0,0E0,0E0,0E0,0E0,0E0,0E0,0E0,0E0,0E0,0E0,0E0,0E0,0E0,0E0,0E0,0E0,0E0,0E0,0E0,0E0,0E0,0E0,0E0,0E0,0E0,0E0,0E0,0E0,0E0,0E0,0E0,0E0,0E0,0E0,0E0,0E0,0E0,0E0,0E0,0E0,0E0,0E0,0E0,0E0],"parents":[2147483647,0,0,1,1,2,2,3,3,4,4,5,5,6,6,7,7,8,8,9,9,10,10,11,11,12,12,13,13,14,14,15,15,16,16,17,17,18,18,19,19,20,20,21,21,22,22,23,23,24,24,25,25,26,26,27,27,28,28,29,29,30,30,33,33,34,34,35,35,36,36,37,37,38,38,39,39,40,40,44,44,46,46,47,47,49,49,50,50,51,51,52,52,53,53,54,54,55,55,56,56,57,57,58,58,59,59,60,60,61,61,62,62],"right_children":[2,4,6,8,10,12,14,16,18,20,22,24,26,28,30,32,34,36,38,40,42,44,46,48,50,52,54,56,58,60,62,-1,-1,64,66,68,70,72,74,76,78,-1,-1,-1,80,-1,82,84,-1,86,88,90,92,94,96,98,100,102,104,106,108,110,112,-1,-1,-1,-1,-1,-1,-1,-1,-1,-1,-1,-1,-1,-1,-1,-1,-1,-1,-1,-1,-1,-1,-1,-1,-1,-1,-1,-1,-1,-1,-1,-1,-1,-1,-1,-1,-1,-1,-1,-1,-1,-1,-1,-1,-1,-1,-1,-1,-1,-1],"split_conditions":[6.407906E-2,-2.3909234E-2,-1.8503653E-2,4.0545672E-2,1.2061153E-2,-1.7633723E-2,7.88188E-3,-1.6975135E-2,4.7527023E-2,4.5073584E-2,1.537005E-2,-6.432015E-2,-5.4782666E-3,-2.1545293E-2,-4.1406136E-2,-8.621281E-2,-5.6298275E-2,-3.9058838E-2,-4.0641593E-5,4.0713716E-2,2.0063011E-2,-5.407268E-2,-8.374752E-3,2.1002136E-2,-5.6599654E-2,-4.299208E-3,1.4903926E-2,2.822801E-2,2.9280024E-2,2.5086833E-2,-6.5315545E-2,5.0578464E-2,-2.6184097E-1,1.7335076E-2,-1.0097251E-2,-4.3323796E-2,-5.651392E-2,3.1245777E-2,-4.8274558E-2,-6.1605792E-2,5.412547E-3,-1.5318862E-1,2.5907055E-1,4.3288365E-2,2.7437864E-2,-1.4577888E-1,-1.6921008E-2,-1.5830373E-2,-2.0508708E-1,1.3008182E-3,4.299434E-2,3.8282895E-1,4.2804327E-2,5.9590116E-2,4.6833143E-2,-8.064001E-3,-1.4313984E-1,-4.658463E-2,-3.500952E-2,-2.0893803E-2,-7.91059E-3,6.750919E-3,6.0646895E-2,3.8400674E-1,-1.4219542E-1,1.4773226E-1,-1.8997858E-1,3.0987015E-1,-1.7622648E-1,-2.9328756E-2,-2.83694E-1,4.3065238E-1,-1.231506E-1,1.8966943E-1,-2.2493173E-1,-2.7717547E-2,-2.9649743E-1,1.9979532E-1,-1.6031429E-1,-2.8523323E-1,-6.8790145E-2,-4.9094345E-2,4.055281E-1,2.3295096E-1,-5.26731E-2,1.2559935E-1,-1.7316948E-1,-3.1594667E-1,-3.8148396E-2,-1.0154288E-1,2.5182053E-1,-3.0095652E-1,-1.8446565E-2,2.5751835E-1,-1.4790112E-1,1.1595019E-1,-2.105103E-1,2.6733803E-2,2.8440052E-1,-2.3694907E-1,6.515718E-2,-2.4510011E-1,1.4393532E-1,1.0465564E-2,-3.898068E-1,-1.3304333E-1,2.2598562E-1,-3.02205E-1,-5.114242E-2,1.5201096E-1,-2.4342033E-1,2.9552802E-1,-8.8789634E-2],"split_indices":[48,100,153,163,225,124,212,231,130,186,250,263,372,304,124,279,141,308,65,153,359,267,124,86,295,46,92,381,156,351,0,0,0,77,253,226,11,222,123,222,58,0,0,0,255,0,215,107,0,287,234,99,63,46,247,130,62,131,11,21,359,381,11,0,0,0,0,0,0,0,0,0,0,0,0,0,0,0,0,0,0,0,0,0,0,0,0,0,0,0,0,0,0,0,0,0,0,0,0,0,0,0,0,0,0,0,0,0,0,0,0,0,0],"split_type":[0,0,0,0,0,0,0,0,0,0,0,0,0,0,0,0,0,0,0,0,0,0,0,0,0,0,0,0,0,0,0,0,0,0,0,0,0,0,0,0,0,0,0,0,0,0,0,0,0,0,0,0,0,0,0,0,0,0,0,0,0,0,0,0,0,0,0,0,0,0,0,0,0,0,0,0,0,0,0,0,0,0,0,0,0,0,0,0,0,0,0,0,0,0,0,0,0,0,0,0,0,0,0,0,0,0,0,0,0,0,0,0,0],"sum_hessian":[5.68427E2,2.5216345E2,3.1626355E2,8.719781E1,1.6496564E2,1.0090515E2,2.153584E2,3.2073555E1,5.5124256E1,1.455272E2,1.9438435E1,3.7769623E1,6.3135525E1,3.2061607E1,1.8329678E2,7.408556E0,2.4664999E1,4.460694E1,1.0517316E1,1.4331482E2,2.212384E0,1.3424542E1,6.0138927E0,4.858186E0,3.2911438E1,2.1261627E1,4.18739E1,1.5107029E1,1.6954578E1,1.2087683E1,1.712091E2,1.4573513E0,5.951205E0,1.7515057E1,7.149942E0,2.4804554E0,4.2126484E1,4.8464174E0,5.670898E0,1.4128896E2,2.0258589E0,1.0104338E0,1.2019501E0,1.9079204E0,1.1516623E1,1.7365974E0,4.277295E0,2.9530292E0,1.9051564E0,3.3569207E0,2.9554518E1,3.971488E0,1.7290138E1,3.2866234E1,9.007665E0,1.2872541E1,2.2344878E0,7.429115E0,9.525463E0,7.5557466E0,4.531936E0,6.0575085E0,1.651516E2,1.6147121E1,1.3679345E0,3.6246722E0,3.5252697E0,1.108783E0,1.3716724E0,2.5865066E0,3.9539978E1,3.803592E0,1.0428255E0,1.0121882E0,4.6587095E0,2.8892174E0,1.3839973E2,1.0003476E0,1.0255113E0,1.0414763E1,1.1018595E0,1.0447959E0,3.2324994E0,1.6473635E0,1.3056657E0,1.0694941E0,2.2874265E0,2.814413E1,1.4103875E0,1.2291658E0,2.7423222E0,1.1973383E1,5.316755E0,3.073522E1,2.1310146E0,4.0551424E0,4.9525223E0,1.0055895E0,1.1866952E1,1.1720569E0,1.0624307E0,2.5589025E0,4.870212E0,1.073245E0,8.452218E0,1.74154E0,5.8142066E0,3.5096035E0,1.0223324E0,3.3638854E0,2.693623E0,1.634919E2,1.6597053E0],"tree_param":{"num_deleted":"0","num_feature":"384","num_nodes":"113","size_leaf_vector":"1"}},{"base_weights":[-4.6788257E-2,-3.5073295E-1,8.223576E-1,-8.172222E-3,-7.5922775E-1,1.3770552E-1,9.254451E-1,3.1489864E-1,-5.8268774E-1,-5.443729E-2,-8.466193E-1,-2.8438047E-1,2.488076E-1,1.959678E-1,9.7254616E-1,-1.72606E-1,6.986715E-1,-1.7886098E-2,-8.539171E-1,-2.5796652E-1,3.617161E-1,2.882247E-1,-8.8014305E-1,-7.115937E-1,4.1242725E-1,-4.2568997E-1,2.1039592E-1,-2.9657835E-2,9.8499644E-1,4.9998903E-1,-5.416836E-1,8.607993E-1,-1.5774982E-1,-2.542688E-1,4.2405242E-1,-9.107908E-1,2.2554602E-1,8.214454E-1,-2.353145E-1,-1.5025605E-1,2.4205844E-1,-9.018636E-1,1.8145098E-1,3.554553E-2,-8.8611066E-1,-9.0344645E-2,2.0654318E-1,4.295393E-2,-2.0300686E-1,9.9537265E-1,1.5713263E-3,2.3538908E-1,-1.2577069E-1,2.0301918E-2,-2.5193653E-1,-4.1381724E-2,2.947469E-1,1.4460298E-1,-2.1059227E-1,-6.824713E-2,2.837168E-1,6.666035E-2,-2.869884E-1,-4.5135785E-3,2.9255694E-1,-1.8603085E-1,1.0917211E-1,-6.1120342E-2,-2.830926E-1,-6.01828E-2,-2.9487187E-1,3.0027774E-1,8.1273966E-2],"categories":[],"categories_nodes":[],"categories_segments":[],"categories_sizes":[],"default_left":[0,0,0,0,0,0,0,0,0,0,0,0,0,0,0,0,0,0,0,0,0,0,0,0,0,0,0,0,0,0,0,0,0,0,0,0,0,0,0,0,0,0,0,0,0,0,0,0,0,0,0,0,0,0,0,0,0,0,0,0,0,0,0,0,0,0,0,0,0,0,0,0,0],"id":13,"left_children":[1,3,5,7,9,11,13,15,17,19,21,23,-1,25,27,29,31,33,35,-1,37,39,41,43,45,47,-1,-1,49,51,53,55,57,-1,59,61,-1,63,65,-1,-1,67,-1,-1,69,-1,-1,-1,-1,71,-1,-1,-1,-1,-1,-1,-1,-1,-1,-1,-1,-1,-1,-1,-1,-1,-1,-1,-1,-1,-1,-1,-1],"loss_changes":[1.2215037E2,4.7918114E1,8.329338E0,3.494482E1,9.574387E0,5.156464E0,3.3815613E0,2.2669273E1,1.0364922E1,6.444954E0,5.537842E0,3.6311178E0,0E0,2.672945E0,1.396698E0,1.36481285E1,9.52673E0,8.794343E0,4.8633347E0,0E0,3.6982126E0,2.3433685E0,4.904907E0,1.1650226E0,1.1714606E0,6.696474E-1,0E0,0E0,9.7460175E-1,5.460779E0,6.4646397E0,7.0659294E0,4.38091E0,0E0,5.5432496E0,2.5309906E0,0E0,9.7112036E-1,1.6857861E0,0E0,0E0,3.7046967E0,0E0,0E0,2.118392E-1,0E0,0E0,0E0,0E0,1.1248779E-1,0E0,0E0,0E0,0E0,0E0,0E0,0E0,0E0,0E0,0E0,0E0,0E0,0E0,0E0,0E0,0E0,0E0,0E0,0E0,0E0,0E0,0E0,0E0],"parents":[2147483647,0,0,1,1,2,2,3,3,4,4,5,5,6,6,7,7,8,8,9,9,10,10,11,11,13,13,14,14,15,15,16,16,17,17,18,18,20,20,21,21,22,22,23,23,24,24,25,25,28,28,29,29,30,30,31,31,32,32,34,34,35,35,37,37,38,38,41,41,44,44,49,49],"right_children":[2,4,6,8,10,12,14,16,18,20,22,24,-1,26,28,30,32,34,36,-1,38,40,42,44,46,48,-1,-1,50,52,54,56,58,-1,60,62,-1,64,66,-1,-1,68,-1,-1,70,-1,-1,-1,-1,72,-1,-1,-1,-1,-1,-1,-1,-1,-1,-1,-1,-1,-1,-1,-1,-1,-1,-1,-1,-1,-1,-1,-1],"split_conditions":[1.2531944E-1,2.2235844E-2,-1.1643566E-2,6.5592006E-2,-4.2841904E-2,7.167752E-3,3.6142844E-1,-2.5498645E-2,-1.6696755E-2,3.3326533E-2,-8.199698E-2,2.891785E-2,2.488076E-1,3.430295E-3,-3.0439055E-2,9.36456E-3,2.6458269E-2,1.7882079E-2,8.682522E-2,-2.5796652E-1,3.4197096E-3,2.6601499E-2,8.762413E-2,-3.0153168E-2,3.498383E-2,-1.9536873E-2,2.1039592E-1,-2.9657835E-2,2.4503604E-2,6.408126E-2,-4.371939E-2,-9.032372E-3,-2.3306059E-3,-2.542688E-1,8.374555E-3,-2.8376188E-2,2.2554602E-1,-2.9153429E-2,1.4264253E-2,-1.5025605E-1,2.4205844E-1,-6.8807356E-2,1.8145098E-1,3.554553E-2,-1.7975753E-2,-9.0344645E-2,2.0654318E-1,4.295393E-2,-2.0300686E-1,1.0131518E-1,1.5713263E-3,2.3538908E-1,-1.2577069E-1,2.0301918E-2,-2.5193653E-1,-4.1381724E-2,2.947469E-1,1.4460298E-1,-2.1059227E-1,-6.824713E-2,2.837168E-1,6.666035E-2,-2.869884E-1,-4.5135785E-3,2.9255694E-1,-1.8603085E-1,1.0917211E-1,-6.1120342E-2,-2.830926E-1,-6.01828E-2,-2.9487187E-1,3.0027774E-1,8.1273966E-2],"split_indices":[48,287,81,163,77,225,99,131,11,48,191,130,0,313,188,351,86,48,180,0,41,116,130,333,294,185,0,0,263,247,295,331,309,0,284,351,0,186,81,0,0,263,0,0,11,0,0,0,0,56,0,0,0,0,0,0,0,0,0,0,0,0,0,0,0,0,0,0,0,0,0,0,0],"split_type":[0,0,0,0,0,0,0,0,0,0,0,0,0,0,0,0,0,0,0,0,0,0,0,0,0,0,0,0,0,0,0,0,0,0,0,0,0,0,0,0,0,0,0,0,0,0,0,0,0,0,0,0,0,0,0,0,0,0,0,0,0,0,0,0,0,0,0,0,0,0,0,0,0],"sum_hessian":[4.6029727E2,3.4147736E2,1.1881989E2,1.8628236E2,1.55195E2,1.5855037E1,1.0296486E2,1.1952245E2,6.675991E1,1.729976E1,1.3789525E2,1.0211959E1,5.643078E0,6.5580316E0,9.640682E1,5.288859E1,6.663386E1,2.2004402E1,4.4755505E1,5.5301204E0,1.1769642E1,3.7386029E0,1.3415665E2,6.3174853E0,3.8944736E0,3.01131E0,3.5467212E0,1.0276994E0,9.537913E1,1.8613415E1,3.4275177E1,5.60231E1,1.0610758E1,7.3284516E0,1.4675951E1,4.364252E1,1.1129866E0,6.4370546E0,5.332587E0,1.4963201E0,2.2422826E0,1.3260965E2,1.5469844E0,1.1532401E0,5.164245E0,1.0609772E0,2.8334963E0,1.0534085E0,1.9579017E0,9.4363815E1,1.0153089E0,1.4324273E1,4.289141E0,1.1513464E1,2.2761715E1,6.070197E0,4.9952904E1,4.9298363E0,5.680922E0,6.7764215E0,7.89953E0,1.5473715E0,4.2095146E1,1.1394871E0,5.2975674E0,3.2261057E0,2.1064813E0,7.8195267E0,1.2479013E2,1.0191541E0,4.145091E0,9.326729E1,1.096527E0],"tree_param":{"num_deleted":"0","num_feature":"384","num_nodes":"73","size_leaf_vector":"1"}},{"base_weights":[-4.126352E-2,-3.044083E-1,7.98976E-1,-6.243983E-1,1.3831581E-1,-2.3709163E-1,8.693914E-1,-7.7997434E-1,-5.0361194E-2,-4.816104E-1,4.9038944E-1,-6.441238E-1,1.4509737E-1,1.1446997E-1,9.394003E-1,-7.807223E-2,-8.619085E-1,4.028046E-1,-5.6963646E-1,-7.1183217E-1,3.8393936E-1,-3.783611E-1,7.64994E-1,-2.5321805E-1,-8.5446555E-3,6.6998607E-1,-4.680573E-1,9.620197E-1,-4.2822078E-2,5.732988E-1,-5.809361E-1,-9.018654E-1,9.855611E-3,-2.9860643E-1,7.8822166E-1,6.958882E-1,-7.865601E-1,3.996428E-1,-8.2845026E-1,7.529177E-1,-1.9266875E-1,-8.4077436E-1,2.9834354E-1,-5.635897E-1,8.702478E-1,2.2382326E-1,5.8051735E-2,-2.1300367E-1,5.6288797E-2,1.365595E-2,9.7874534E-1,-1.4476746E-1,2.6181263E-1,6.02697E-2,-2.4731256E-1,-3.010866E-2,-2.808674E-1,2.1032181E-1,-1.718447E-1,-2.424627E-1,6.860212E-2,-7.271405E-2,3.0045226E-1,4.022377E-3,3.0321968E-1,1.6767235E-2,-2.864254E-1,-1.228048E-1,2.502972E-1,-2.4813332E-4,-2.741822E-1,-7.2931945E-2,2.812522E-1,6.9985405E-2,-2.921186E-1,2.3110579E-1,-1.265981E-1,1.2572661E-1,-2.7527133E-1,3.08643E-1,9.070234E-2,3.4394044E-2,2.9791513E-1],"categories":[],"categories_nodes":[],"categories_segments":[],"categories_sizes":[],"default_left":[0,0,0,0,0,0,0,0,0,0,0,0,0,0,0,0,0,0,0,0,0,0,0,0,0,0,0,0,0,0,0,0,0,0,0,0,0,0,0,0,0,0,0,0,0,0,0,0,0,0,0,0,0,0,0,0,0,0,0,0,0,0,0,0,0,0,0,0,0,0,0,0,0,0,0,0,0,0,0,0,0,0,0],"id":14,"left_children":[1,3,5,7,9,11,13,15,17,19,21,23,-1,25,27,29,31,33,35,37,39,41,43,-1,-1,45,47,49,-1,51,53,55,57,59,61,63,65,67,69,71,-1,73,75,77,79,-1,-1,-1,-1,-1,81,-1,-1,-1,-1,-1,-1,-1,-1,-1,-1,-1,-1,-1,-1,-1,-1,-1,-1,-1,-1,-1,-1,-1,-1,-1,-1,-1,-1,-1,-1,-1,-1],"loss_changes":[8.472267E1,4.140811E1,6.874035E0,1.5097313E1,2.7123827E1,2.2483997E0,4.426857E0,7.597664E0,8.985541E0,9.265539E0,1.9151377E1,5.481032E-1,0E0,3.0383005E0,2.0557327E0,5.256604E0,4.162697E0,5.765195E0,5.4212875E0,4.996769E0,4.319356E0,6.402298E0,8.937599E0,0E0,0E0,2.6800394E-2,8.7865937E-1,1.1342621E0,0E0,2.6505165E0,1.874656E0,3.0464249E0,2.9048493E0,2.3288696E0,3.2049751E0,6.586884E-1,2.2674122E0,1.780735E0,2.3272495E0,1.6825261E0,0E0,1.9322252E0,3.289331E0,2.1381211E0,4.7645607E0,0E0,0E0,0E0,0E0,0E0,8.190689E-1,0E0,0E0,0E0,0E0,0E0,0E0,0E0,0E0,0E0,0E0,0E0,0E0,0E0,0E0,0E0,0E0,0E0,0E0,0E0,0E0,0E0,0E0,0E0,0E0,0E0,0E0,0E0,0E0,0E0,0E0,0E0,0E0],"parents":[2147483647,0,0,1,1,2,2,3,3,4,4,5,5,6,6,7,7,8,8,9,9,10,10,11,11,13,13,14,14,15,15,16,16,17,17,18,18,19,19,20,20,21,21,22,22,25,25,26,26,27,27,29,29,30,30,31,31,32,32,33,33,34,34,35,35,36,36,37,37,38,38,39,39,41,41,42,42,43,43,44,44,50,50],"right_children":[2,4,6,8,10,12,14,16,18,20,