{"learner":{"attributes":{"scikit_learn":"{\"_estimator_type\": \"classifier\"}"},"feature_names":[],"feature_types":[],"gradient_booster":{"model":{"gbtree_model_param":{"num_parallel_tree":"1","num_trees":"100"},"iteration_indptr":[0,1,2,3,4,5,6,7,8,9,10,11,12,13,14,15,16,17,18,19,20,21,22,23,24,25,26,27,28,29,30,31,32,33,34,35,36,37,38,39,40,41,42,43,44,45,46,47,48,49,50,51,52,53,54,55,56,57,58,59,60,61,62,63,64,65,66,67,68,69,70,71,72,73,74,75,76,77,78,79,80,81,82,83,84,85,86,87,88,89,90,91,92,93,94,95,96,97,98,99,100],"tree_info":[0,0,0,0,0,0,0,0,0,0,0,0,0,0,0,0,0,0,0,0,0,0,0,0,0,0,0,0,0,0,0,0,0,0,0,0,0,0,0,0,0,0,0,0,0,0,0,0,0,0,0,0,0,0,0,0,0,0,0,0,0,0,0,0,0,0,0,0,0,0,0,0,0,0,0,0,0,0,0,0,0,0,0,0,0,0,0,0,0,0,0,0,0,0,0,0,0,0,0,0],"trees":[{"base_weights":[-2.5662465E-2,1.6229904E0,-8.3157754E-1,-4.919001E-1,2.4858272E0,-2.1540482E-1,-1.4756805E0,-1.1349542E0,2.0559785E0,2.7126987E0,4.200815E-1,1.4525627E0,-1.0790068E0,-1.0375924E0,-1.4967111E0,7.9473335E-1,-1.3853824E0,2.5469165E0,-6.245831E-1,1.5290774E-1,2.7943885E0,-7.32587E-1,2.3002582E0,1.7573121E-1,2.2944615E0,-1.2561991E0,1.7773795E0,1.5298449E0,-1.2025782E0,-1.4980564E0,1.8334472E-1,2.0386567E0,-6.050354E-1,-1.4277533E0,7.9108214E-1,-2.9717308E-1,2.6829894E0,1.861839E0,-1.2147826E0,2.4081976E0,-6.995E-1,2.8706849E0,1.8296322E0,1.3468213E0,-1.2232451E0,2.6980522E0,-2.034887E-1,-6.887326E-1,1.591976E0,2.4744241E0,1.6839826E-1,-1.3434911E0,1.7349212E0,-3.5433665E-1,2.270404E0,7.0626813E-1,-1.0572909E-1,-1.2663351E0,5.3845614E-1,-9.148759E-1,-1.5015713E0,7.985862E-1,2.4472883E-2,-3.71567E-1,4.181534E-1,4.0463012E-1,-4.352275E-1,5.9210634E-1,-2.905504E-1,4.218143E-1,-3.5586596E-1,-2.6111624E-1,8.2049966E-1,1.8334472E-1,6.271211E-1,-4.2694893E-1,9.287331E-2,8.0759835E-1,-9.929555E-2,5.5530834E-1,-3.683598E-1,8.6449987E-1,1.6471632E-1,6.9150156E-1,-2.2475104E-1,-1.5114057E-1,7.4050677E-1,-4.2584133E-1,3.3153492E-1,-4.4753123E-2,8.3576834E-1,4.5121E-1,-3.8371313E-1,3.506319E-1,-3.123865E-1,-2.6962376E-1,6.2914455E-1,7.938557E-1,2.0795351E-1,6.577163E-1,-2.4371909E-1,-4.1583666E-1,2.7569425E-1,1.7839473E-2,7.587542E-1,5.7358176E-1,-3.2190862E-1,4.1440796E-2,7.656692E-1,-4.1006503E-1,1.7717892E-1,3.7788653E-1,-3.612985E-1,-5.5151205E-3,-4.5074174E-1],"categories":[],"categories_nodes":[],"categories_segments":[],"categories_sizes":[],"default_left":[0,0,0,0,0,0,0,0,0,0,0,0,0,0,0,0,0,0,0,0,0,0,0,0,0,0,0,0,0,0,0,0,0,0,0,0,0,0,0,0,0,0,0,0,0,0,0,0,0,0,0,0,0,0,0,0,0,0,0,0,0,0,0,0,0,0,0,0,0,0,0,0,0,0,0,0,0,0,0,0,0,0,0,0,0,0,0,0,0,0,0,0,0,0,0,0,0,0,0,0,0,0,0,0,0,0,0,0,0,0,0,0,0,0,0],"id":0,"left_children":[1,3,5,7,9,11,13,15,17,19,21,23,25,27,29,31,33,35,37,39,41,43,45,47,49,51,53,55,57,59,-1,61,63,65,67,69,71,73,75,77,79,81,83,85,87,89,91,93,95,97,99,101,103,105,107,-1,-1,109,-1,111,113,-1,-1,-1,-1,-1,-1,-1,-1,-1,-1,-1,-1,-1,-1,-1,-1,-1,-1,-1,-1,-1,-1,-1,-1,-1,-1,-1,-1,-1,-1,-1,-1,-1,-1,-1,-1,-1,-1,-1,-1,-1,-1,-1,-1,-1,-1,-1,-1,-1,-1,-1,-1,-1,-1],"loss_changes":[9.401573E3,4.2407153E3,1.8859011E3,1.1066807E3,7.722539E2,3.5021038E3,1.9854004E1,2.6149457E2,1.8081525E2,3.104629E2,3.5816144E2,8.9120447E2,8.1291113E2,4.8303802E1,7.195801E0,1.1011383E2,4.514618E1,4.5420776E1,3.4377377E1,9.210863E1,1.00793945E2,1.0645998E2,6.3052643E1,4.0592804E2,1.9079956E2,3.9626636E2,9.956705E1,1.1789978E1,2.2076813E1,3.1635742E0,0E0,4.0449707E1,3.99618E1,3.1884888E1,2.221719E1,1.10032835E1,2.273529E1,3.544712E-2,6.2508926E0,1.1095299E1,4.9317623E1,3.2411133E1,1.3454431E2,4.293754E1,3.9783005E1,1.3977081E1,1.9432467E1,1.3614116E2,1.599646E2,1.3911401E2,8.133438E1,1.427229E2,5.736284E1,3.221007E1,4.55914E1,0E0,0E0,1.9862228E1,0E0,1.1475256E1,2.9111328E0,0E0,0E0,0E0,0E0,0E0,0E0,0E0,0E0,0E0,0E0,0E0,0E0,0E0,0E0,0E0,0E0,0E0,0E0,0E0,0E0,0E0,0E0,0E0,0E0,0E0,0E0,0E0,0E0,0E0,0E0,0E0,0E0,0E0,0E0,0E0,0E0,0E0,0E0,0E0,0E0,0E0,0E0,0E0,0E0,0E0,0E0,0E0,0E0,0E0,0E0,0E0,0E0,0E0,0E0],"parents":[2147483647,0,0,1,1,2,2,3,3,4,4,5,5,6,6,7,7,8,8,9,9,10,10,11,11,12,12,13,13,14,14,15,15,16,16,17,17,18,18,19,19,20,20,21,21,22,22,23,23,24,24,25,25,26,26,27,27,28,28,29,29,31,31,32,32,33,33,34,34,35,35,36,36,37,37,38,38,39,39,40,40,41,41,42,42,43,43,44,44,45,45,46,46,47,47,48,48,49,49,50,50,51,51,52,52,53,53,54,54,57,57,59,59,60,60],"right_children":[2,4,6,8,10,12,14,16,18,20,22,24,26,28,30,32,34,36,38,40,42,44,46,48,50,52,54,56,58,60,-1,62,64,66,68,70,72,74,76,78,80,82,84,86,88,90,92,94,96,98,100,102,104,106,108,-1,-1,110,-1,112,114,-1,-1,-1,-1,-1,-1,-1,-1,-1,-1,-1,-1,-1,-1,-1,-1,-1,-1,-1,-1,-1,-1,-1,-1,-1,-1,-1,-1,-1,-1,-1,-1,-1,-1,-1,-1,-1,-1,-1,-1,-1,-1,-1,-1,-1,-1,-1,-1,-1,-1,-1,-1,-1,-1],"split_conditions":[-3.5590514E-8,-2.9260544E-2,-3.734755E-33,1.0217208E-3,5.755556E-2,1.9587763E-2,-1.9225887E-8,-3.4226803E-3,2.8704287E-2,-9.901432E-2,-7.455375E-3,-7.5780144E-3,3.6253627E-2,-6.6537954E-2,1.3333791E-1,2.8392991E-2,4.0805336E-2,-8.7561615E-2,5.4912413E-3,-1.0778579E-2,7.096262E-2,-5.6403375E-4,4.4884298E-2,-1.1476238E-2,4.2088214E-2,5.472668E-2,-4.029527E-2,3.239201E-2,9.127174E-2,-1.2616935E-1,1.8334472E-1,3.97269E-2,-2.4226734E-2,-5.9176758E-2,2.725929E-2,-3.6399383E-2,-1.2288785E-1,-3.974928E-2,4.8666757E-2,3.685694E-2,-3.2136845E-4,1.1094896E-1,1.2055949E-2,7.139728E-3,1.1276209E-3,-6.0480483E-2,-1.6824875E-2,-5.2394867E-2,-6.698336E-2,-2.2101144E-8,-3.6507554E-2,3.698884E-2,-2.6363889E-2,-2.1160556E-2,-3.2862753E-2,7.0626813E-1,-1.0572909E-1,5.4054383E-2,5.3845614E-1,-3.0116132E-33,-1.4206284E-1,7.985862E-1,2.4472883E-2,-3.71567E-1,4.181534E-1,4.0463012E-1,-4.352275E-1,5.9210634E-1,-2.905504E-1,4.218143E-1,-3.5586596E-1,-2.6111624E-1,8.2049966E-1,1.8334472E-1,6.271211E-1,-4.2694893E-1,9.287331E-2,8.0759835E-1,-9.929555E-2,5.5530834E-1,-3.683598E-1,8.6449987E-1,1.6471632E-1,6.9150156E-1,-2.2475104E-1,-1.5114057E-1,7.4050677E-1,-4.2584133E-1,3.3153492E-1,-4.4753123E-2,8.3576834E-1,4.5121E-1,-3.8371313E-1,3.506319E-1,-3.123865E-1,-2.6962376E-1,6.2914455E-1,7.938557E-1,2.0795351E-1,6.577163E-1,-2.4371909E-1,-4.1583666E-1,2.7569425E-1,1.7839473E-2,7.587542E-1,5.7358176E-1,-3.2190862E-1,4.1440796E-2,7.656692E-1,-4.1006503E-1,1.7717892E-1,3.7788653E-1,-3.612985E-1,-5.5151205E-3,-4.5074174E-1],"split_indices":[319,162,223,88,231,231,319,231,239,321,88,162,88,152,185,337,214,321,231,337,188,337,7,161,3,162,162,245,243,256,0,7,142,239,255,231,98,4,10,102,136,331,119,162,321,382,3,119,321,319,119,339,161,7,151,0,0,132,0,223,286,0,0,0,0,0,0,0,0,0,0,0,0,0,0,0,0,0,0,0,0,0,0,0,0,0,0,0,0,0,0,0,0,0,0,0,0,0,0,0,0,0,0,0,0,0,0,0,0,0,0,0,0,0,0],"split_type":[0,0,0,0,0,0,0,0,0,0,0,0,0,0,0,0,0,0,0,0,0,0,0,0,0,0,0,0,0,0,0,0,0,0,0,0,0,0,0,0,0,0,0,0,0,0,0,0,0,0,0,0,0,0,0,0,0,0,0,0,0,0,0,0,0,0,0,0,0,0,0,0,0,0,0,0,0,0,0,0,0,0,0,0,0,0,0,0,0,0,0,0,0,0,0,0,0,0,0,0,0,0,0,0,0,0,0,0,0,0,0,0,0,0,0],"sum_hessian":[7.0738906E3,2.322257E3,4.7516333E3,6.7303015E2,1.649227E3,2.4291516E3,2.3224817E3,5.378402E2,1.3518991E2,1.4857416E3,1.6348547E2,8.2843115E2,1.6007203E3,1.0869089E2,2.2137908E3,6.153162E1,4.7630862E2,1.14305084E2,2.0884819E1,4.603643E1,1.4397051E3,1.0172928E2,6.1756187E1,3.2966574E2,4.987654E2,1.5077493E3,9.297113E1,6.0633345E0,1.02627556E2,2.212668E3,1.1228397E0,3.2337784E1,2.9193834E1,4.6755048E2,8.75815E0,5.165063E0,1.0914002E2,3.5930872E0,1.7291733E1,1.2126669E1,3.390976E1,1.3323617E3,1.0734348E2,1.9088276E1,8.264101E1,5.3222603E1,8.533582E0,2.0503053E2,1.24635216E2,4.5969058E2,3.907482E1,1.4655304E3,4.2218773E1,1.75163E1,7.5454834E1,4.042223E0,2.0211115E0,1.0105558E2,1.5719757E0,1.4821485E1,2.1978464E3,2.4253338E1,8.084446E0,2.2456795E1,6.7370386E0,3.3685193E0,4.6418195E2,5.165063E0,3.5930872E0,1.5719757E0,3.5930872E0,1.3474077E0,1.0779262E2,1.1228397E0,2.4702475E0,1.527062E1,2.0211115E0,1.100383E1,1.1228397E0,5.389631E0,2.852013E1,1.3258491E3,6.5124707E0,9.072545E1,1.6618029E1,7.4107423E0,1.1677533E1,7.657767E1,6.0633345E0,1.5719757E0,5.1650627E1,3.1439514E0,5.389631E0,3.2337784E1,1.7269275E2,2.0884819E1,1.0375039E2,4.188192E2,4.087137E1,1.2351237E1,2.6723585E1,1.4388069E3,2.6723585E1,1.3923213E1,2.829556E1,3.817655E0,1.3698645E1,8.9827175E0,6.6472115E1,9.611508E1,4.940495E0,1.3474077E0,1.3474077E1,1.3474077E0,2.196499E3],"tree_param":{"num_deleted":"0","num_feature":"384","num_nodes":"115","size_leaf_vector":"1"}},{"base_weights":[-6.4356424E-2,1.0006279E0,-7.381202E-1,1.4968481E0,-5.9908813E-1,-2.39261E-1,-1.2921079E0,-2.1244082E-1,1.6468301E0,-1.0661719E0,1.2737229E0,-8.61576E-1,1.0672598E0,-1.0134014E0,-1.3136858E0,-1.0169237E0,1.2964782E0,1.7299489E0,4.088857E-1,-1.2332627E0,7.6069075E-1,1.603419E0,-5.708523E-1,-1.1329151E0,5.206829E-1,1.4493682E0,-2.5458893E-1,-1.1315614E0,6.6878486E-1,-1.3151382E0,1.3663463E-1,1.4702119E0,-1.1877851E0,-2.7092507E-1,1.719001E0,5.2331394E-1,1.7583302E0,1.356908E0,-9.5817703E-1,-1.2775061E0,7.6501423E-1,1.521756E0,-6.923355E-1,-1.5990517E-1,1.7591174E0,-1.2603215E0,1.2499515E0,7.595628E-1,-1.2274748E0,1.3741994E0,-4.1384423E-1,1.6010286E0,-3.272117E-2,8.915559E-1,-1.048451E0,3.9666435E-1,-1.1826897E0,6.2465143E-1,-6.3266385E-1,2.5950613E-2,-1.3161596E0,5.425588E-1,-8.504491E-2,-3.8607004E-1,3.6673516E-1,2.544176E-1,-4.0460253E-1,5.3740174E-1,-1.5972899E-1,3.9057723E-1,-3.4174025E-1,5.327334E-1,1.3627669E-1,4.977232E-1,-2.2145692E-1,3.1656563E-1,-3.8952836E-1,-3.9029846E-1,3.419816E-1,-3.2371804E-1,4.4683683E-1,5.145156E-1,-1.3555467E-1,-3.7734327E-1,3.182943E-1,3.7804118E-1,-3.3063847E-1,5.436525E-1,-9.642245E-2,-8.265993E-2,-3.94076E-1,4.5340303E-1,1.7056013E-2,4.9763748E-1,-1.4775059E-1,-3.8487113E-1,-4.276588E-2,4.9726954E-1,-2.2779499E-1,-2.686864E-1,2.9894796E-1,5.2309203E-1,8.740456E-2,5.0384873E-1,-2.5607666E-1,3.889824E-1,-3.868742E-1,-4.0101847E-1,2.327236E-1,-3.665631E-1,3.1135392E-1,-3.1594735E-1,1.7204478E-1,-3.9518246E-1,-1.7364038E-3],"categories":[],"categories_nodes":[],"categories_segments":[],"categories_sizes":[],"default_left":[0,0,0,0,0,0,0,0,0,0,0,0,0,0,0,0,0,0,0,0,0,0,0,0,0,0,0,0,0,0,0,0,0,0,0,0,0,0,0,0,0,0,0,0,0,0,0,0,0,0,0,0,0,0,0,0,0,0,0,0,0,0,0,0,0,0,0,0,0,0,0,0,0,0,0,0,0,0,0,0,0,0,0,0,0,0,0,0,0,0,0,0,0,0,0,0,0,0,0,0,0,0,0,0,0,0,0,0,0,0,0,0,0,0,0],"id":1,"left_children":[1,3,5,7,9,11,13,15,17,19,21,23,25,27,29,31,33,35,37,39,41,43,45,47,49,51,53,55,57,59,-1,61,63,65,67,69,71,73,75,77,79,81,83,85,87,89,91,93,95,97,99,101,103,105,107,-1,109,-1,111,-1,113,-1,-1,-1,-1,-1,-1,-1,-1,-1,-1,-1,-1,-1,-1,-1,-1,-1,-1,-1,-1,-1,-1,-1,-1,-1,-1,-1,-1,-1,-1,-1,-1,-1,-1,-1,-1,-1,-1,-1,-1,-1,-1,-1,-1,-1,-1,-1,-1,-1,-1,-1,-1,-1,-1],"loss_changes":[4.723016E3,2.0255996E3,1.1138501E3,4.9949512E2,5.3022E2,1.7266852E3,1.0155029E1,1.9305011E2,1.8348535E2,1.4881415E2,7.45867E1,5.400325E2,3.4648523E2,2.8906845E1,5.1452637E0,4.576384E1,3.7132256E1,5.6515625E1,1.4896455E2,4.0251648E1,4.662987E1,2.8568848E1,2.556152E1,2.1613806E2,1.8936285E2,1.1957361E2,1.415276E2,1.8211884E1,1.9571138E1,2.6452637E0,0E0,4.728299E0,2.4859268E1,1.6362856E1,8.078369E0,5.321431E1,3.6466797E1,4.40804E1,3.3734734E1,2.6182068E1,1.5297674E1,1.1212437E1,1.6061668E1,1.38004055E1,1.104248E1,3.911419E-1,1.707263E0,6.594629E1,6.871704E1,7.618819E1,7.818401E1,8.959192E1,7.218816E1,5.8011227E1,4.9284782E1,0E0,1.2625488E1,0E0,3.6132045E0,0E0,2.5742188E0,0E0,0E0,0E0,0E0,0E0,0E0,0E0,0E0,0E0,0E0,0E0,0E0,0E0,0E0,0E0,0E0,0E0,0E0,0E0,0E0,0E0,0E0,0E0,0E0,0E0,0E0,0E0,0E0,0E0,0E0,0E0,0E0,0E0,0E0,0E0,0E0,0E0,0E0,0E0,0E0,0E0,0E0,0E0,0E0,0E0,0E0,0E0,0E0,0E0,0E0,0E0,0E0,0E0,0E0],"parents":[2147483647,0,0,1,1,2,2,3,3,4,4,5,5,6,6,7,7,8,8,9,9,10,10,11,11,12,12,13,13,14,14,15,15,16,16,17,17,18,18,19,19,20,20,21,21,22,22,23,23,24,24,25,25,26,26,27,27,28,28,29,29,31,31,32,32,33,33,34,34,35,35,36,36,37,37,38,38,39,39,40,40,41,41,42,42,43,43,44,44,45,45,46,46,47,47,48,48,49,49,50,50,51,51,52,52,53,53,54,54,56,56,58,58,60,60],"right_children":[2,4,6,8,10,12,14,16,18,20,22,24,26,28,30,32,34,36,38,40,42,44,46,48,50,52,54,56,58,60,-1,62,64,66,68,70,72,74,76,78,80,82,84,86,88,90,92,94,96,98,100,102,104,106,108,-1,110,-1,112,-1,114,-1,-1,-1,-1,-1,-1,-1,-1,-1,-1,-1,-1,-1,-1,-1,-1,-1,-1,-1,-1,-1,-1,-1,-1,-1,-1,-1,-1,-1,-1,-1,-1,-1,-1,-1,-1,-1,-1,-1,-1,-1,-1,-1,-1,-1,-1,-1,-1,-1,-1,-1,-1,-1,-1],"split_conditions":[-3.4621202E-8,4.616668E-2,-3.59031E-33,-8.322442E-2,1.6537142E-3,1.0349435E-3,-2.9200178E-33,4.4997956E-4,8.231021E-2,1.8894313E-2,5.1708825E-2,1.163931E-2,4.3778956E-2,5.5389587E-2,1.3333791E-1,-6.41614E-2,-4.505702E-2,-6.331868E-2,6.9214427E-3,4.0805336E-2,1.5994443E-2,-6.073232E-2,1.0349435E-3,-3.5589084E-2,-7.868067E-3,5.5018745E-2,9.871207E-3,-8.896477E-2,-6.2358603E-2,-2.1690685E-8,1.3663463E-1,3.085829E-2,3.3788074E-2,4.8164845E-2,6.0042143E-2,-1.20578855E-2,8.504554E-2,1.02675E-2,-4.6168886E-2,1.0405677E-1,-1.0606152E-2,5.341886E-2,-1.8970784E-2,-3.072027E-2,9.264698E-2,-1.2991068E-2,-2.8413154E-2,1.6476074E-2,1.3525881E-2,-2.083391E-8,6.5797917E-4,-2.1690685E-8,-4.7256358E-2,5.864492E-2,-1.4569105E-5,3.9666435E-1,9.127174E-2,6.2465143E-1,4.9763065E-2,2.5950613E-2,1.15788944E-1,5.425588E-1,-8.504491E-2,-3.8607004E-1,3.6673516E-1,2.544176E-1,-4.0460253E-1,5.3740174E-1,-1.5972899E-1,3.9057723E-1,-3.4174025E-1,5.327334E-1,1.3627669E-1,4.977232E-1,-2.2145692E-1,3.1656563E-1,-3.8952836E-1,-3.9029846E-1,3.419816E-1,-3.2371804E-1,4.4683683E-1,5.145156E-1,-1.3555467E-1,-3.7734327E-1,3.182943E-1,3.7804118E-1,-3.3063847E-1,5.436525E-1,-9.642245E-2,-8.265993E-2,-3.94076E-1,4.5340303E-1,1.7056013E-2,4.9763748E-1,-1.4775059E-1,-3.8487113E-1,-4.276588E-2,4.9726954E-1,-2.2779499E-1,-2.686864E-1,2.9894796E-1,5.2309203E-1,8.740456E-2,5.0384873E-1,-2.5607666E-1,3.889824E-1,-3.868742E-1,-4.0101847E-1,2.327236E-1,-3.665631E-1,3.1135392E-1,-3.1594735E-1,1.7204478E-1,-3.9518246E-1,-1.7364038E-3],"split_indices":[319,231,223,321,88,162,223,162,188,162,239,88,273,151,185,366,161,214,225,214,7,146,162,231,302,7,337,152,256,319,0,241,142,337,48,302,7,119,302,10,148,102,339,302,25,7,86,7,339,319,98,319,3,345,321,0,243,0,5,0,154,0,0,0,0,0,0,0,0,0,0,0,0,0,0,0,0,0,0,0,0,0,0,0,0,0,0,0,0,0,0,0,0,0,0,0,0,0,0,0,0,0,0,0,0,0,0,0,0,0,0,0,0,0,0],"split_type":[0,0,0,0,0,0,0,0,0,0,0,0,0,0,0,0,0,0,0,0,0,0,0,0,0,0,0,0,0,0,0,0,0,0,0,0,0,0,0,0,0,0,0,0,0,0,0,0,0,0,0,0,0,0,0,0,0,0,0,0,0,0,0,0,0,0,0,0,0,0,0,0,0,0,0,0,0,0,0,0,0,0,0,0,0,0,0,0,0,0,0,0,0,0,0,0,0,0,0,0,0,0,0,0,0,0,0,0,0,0,0,0,0,0,0],"sum_hessian":[6.5801323E3,2.5496091E3,4.0305232E3,1.9460293E3,6.035798E2,2.1215366E3,1.9089863E3,1.5694693E2,1.7890824E3,4.8343945E2,1.20140305E2,1.4372798E3,6.842569E2,1.4062332E2,1.768363E3,1.0258149E2,5.4365444E1,1.6761443E3,1.12938065E2,4.4322556E2,4.02139E1,1.0203372E2,1.8106583E1,1.2015872E3,2.356926E2,5.30739E2,1.5351787E2,1.316998E2,8.923522E0,1.767169E3,1.1941373E0,6.105301E0,9.647619E1,1.1619647E1,4.2745796E1,3.896546E1,1.6371788E3,6.669456E1,4.6243504E1,4.3397763E2,9.247929E0,2.635985E1,1.3854051E1,8.276237E0,9.3757484E1,1.3356721E1,4.749862E0,5.6846832E1,1.1447404E3,1.22939644E2,1.1275296E2,4.8139795E2,4.934108E1,6.2770042E1,9.0747826E1,2.1807165E0,1.2951909E2,3.9902177E0,4.9333043E0,1.2259585E0,1.765943E3,5.091749E0,1.013552E0,9.311321E1,3.3629792E0,5.805331E0,5.8143163E0,4.1613132E1,1.1326663E0,2.6684568E1,1.2280893E1,1.6152068E3,2.197205E1,5.846976E1,8.224796E0,6.3813405E0,3.9862164E1,4.3025894E2,3.7186818E0,2.4702857E0,6.777643E0,2.4127771E1,2.2320793E0,1.0689204E1,3.1648462E0,3.166514E0,5.1097226E0,9.155172E1,2.2057648E0,1.0021108E0,1.23546095E1,3.6774445E0,1.0724175E0,3.289611E1,2.3950724E1,1.0889247E3,5.5815735E1,1.087226E2,1.4217047E1,8.4315414E1,2.843754E1,4.3382706E2,4.7570892E1,1.5650434E1,3.3690647E1,5.328094E1,9.489099E0,7.859474E1,1.2153083E1,1.2771495E2,1.8041373E0,3.7520747E0,1.1812297E0,1.7644362E3,1.5067931E0],"tree_param":{"num_deleted":"0","num_feature":"384","num_nodes":"115","size_leaf_vector":"1"}},{"base_weights":[-6.8948776E-2,8.0403566E-1,-6.4772534E-1,-5.168161E-1,1.2187182E0,-2.070762E-1,-1.1789392E0,-9.512435E-1,9.407321E-1,2.1480224E-1,1.3848699E0,5.907029E-1,-9.6524E-1,-1.193354E0,-5.0673896E-1,-1.0795583E0,1.2624215E0,1.351608E0,-5.2861124E-1,1.0415169E0,-7.746389E-1,1.410834E0,-2.3271954E-1,1.0773036E0,-3.7291086E-1,8.7576354E-1,-1.0591267E0,-6.02076E-1,-1.2033902E0,8.8007605E-1,-1.0580561E0,3.7701502E-1,-1.1624259E0,-1.2428607E-1,1.4119117E0,-1.7649008E-1,1.495694E0,4.8339972E-1,-9.1064256E-1,1.1919318E0,-8.703894E-1,-1.112006E0,9.8846394E-1,1.4446392E0,4.789413E-1,9.222293E-1,-1.2294159E0,2.4617828E-1,1.3508253E0,-1.01414E0,5.665404E-1,-5.7623065E-1,1.658282E0,5.668374E-1,-1.129588E0,8.5684353E-1,-1.0454959E0,1.6567665E-1,-1.2062795E0,1.7697113E0,-2.3224029E-1,5.8214206E-2,-3.5235634E-1,-2.458871E-1,3.5467E-1,2.4143492E-1,-3.58956E-1,4.4674787E-1,7.1962364E-2,3.4353077E-1,-2.3714325E-1,1.1340178E-1,4.7103503E-1,-3.487317E-1,3.659253E-1,3.9112523E-1,-1.8510593E-1,-4.181024E-1,1.6824906E-1,1.620871E-1,-3.7800342E-1,4.3093258E-1,-1.8552598E-1,4.3653885E-1,-1.514836E-2,-2.3685913E-1,3.8294056E-1,3.8628915E-1,-2.3023167E-1,-4.1199845E-1,4.4401128E-2,-1.7382494E-1,2.7374157E-1,-7.951131E-2,4.4071022E-1,-3.5369003E-1,1.7039168E-1,3.5697582E-1,-1.19081214E-1,3.3632433E-1,-3.0506423E-1,-2.0401219E-1,5.3142536E-1,-2.0420055E-1,4.7851643E-1,7.919942E-2,-3.5030133E-1,5.0133705E-1,-2.4163571E-1,6.4008564E-2,-3.5353434E-1,4.5367444E-1,-2.4401297E-1,1.5726103E-1,-3.6238676E-1,-1.1810474E-1,6.888584E-1],"categories":[],"categories_nodes":[],"categories_segments":[],"categories_sizes":[],"default_left":[0,0,0,0,0,0,0,0,0,0,0,0,0,0,0,0,0,0,0,0,0,0,0,0,0,0,0,0,0,0,0,0,0,0,0,0,0,0,0,0,0,0,0,0,0,0,0,0,0,0,0,0,0,0,0,0,0,0,0,0,0,0,0,0,0,0,0,0,0,0,0,0,0,0,0,0,0,0,0,0,0,0,0,0,0,0,0,0,0,0,0,0,0,0,0,0,0,0,0,0,0,0,0,0,0,0,0,0,0,0,0,0,0,0,0,0,0],"id":2,"left_children":[1,3,5,7,9,11,13,15,17,19,21,23,25,27,29,31,33,35,37,39,41,43,45,47,49,51,53,55,57,59,61,63,65,-1,67,69,71,-1,73,75,77,79,81,83,85,87,89,91,93,95,97,99,101,103,105,107,109,111,113,115,-1,-1,-1,-1,-1,-1,-1,-1,-1,-1,-1,-1,-1,-1,-1,-1,-1,-1,-1,-1,-1,-1,-1,-1,-1,-1,-1,-1,-1,-1,-1,-1,-1,-1,-1,-1,-1,-1,-1,-1,-1,-1,-1,-1,-1,-1,-1,-1,-1,-1,-1,-1,-1,-1,-1,-1,-1],"loss_changes":[2.8495195E3,1.2321648E3,7.9357117E2,3.4151227E2,2.8518237E2,1.1224628E3,1.4292236E1,1.1921655E2,7.5587715E1,2.0057332E2,6.199463E1,4.2448264E2,1.6537482E2,8.202393E0,2.6937439E1,4.78403E1,6.3984337E0,2.1665192E1,2.4211273E1,3.9422455E1,6.756442E1,4.4836426E1,2.8822405E1,1.3634204E2,1.8383249E2,5.4031094E1,1.0440375E2,1.8433685E1,6.0473633E0,1.6412367E1,3.8433151E0,2.2065958E1,2.5901154E1,0E0,1.5913124E0,8.427081E0,6.8038025E0,0E0,1.4423569E1,2.591954E1,8.5054035E0,2.3733093E1,1.4188799E1,2.1939209E1,5.370134E1,8.22017E0,2.8475819E0,8.309124E1,8.674927E1,4.791188E1,7.497815E1,1.3930004E1,9.302963E0,5.0193024E1,4.639685E1,1.0643323E1,3.8065434E0,6.4934998E0,4.912842E0,8.821243E0,0E0,0E0,0E0,0E0,0E0,0E0,0E0,0E0,0E0,0E0,0E0,0E0,0E0,0E0,0E0,0E0,0E0,0E0,0E0,0E0,0E0,0E0,0E0,0E0,0E0,0E0,0E0,0E0,0E0,0E0,0E0,0E0,0E0,0E0,0E0,0E0,0E0,0E0,0E0,0E0,0E0,0E0,0E0,0E0,0E0,0E0,0E0,0E0,0E0,0E0,0E0,0E0,0E0,0E0,0E0,0E0,0E0],"parents":[2147483647,0,0,1,1,2,2,3,3,4,4,5,5,6,6,7,7,8,8,9,9,10,10,11,11,12,12,13,13,14,14,15,15,16,16,17,17,18,18,19,19,20,20,21,21,22,22,23,23,24,24,25,25,26,26,27,27,28,28,29,29,30,30,31,31,32,32,34,34,35,35,36,36,38,38,39,39,40,40,41,41,42,42,43,43,44,44,45,45,46,46,47,47,48,48,49,49,50,50,51,51,52,52,53,53,54,54,55,55,56,56,57,57,58,58,59,59],"right_children":[2,4,6,8,10,12,14,16,18,20,22,24,26,28,30,32,34,36,38,40,42,44,46,48,50,52,54,56,58,60,62,64,66,-1,68,70,72,-1,74,76,78,80,82,84,86,88,90,92,94,96,98,100,102,104,106,108,110,112,114,116,-1,-1,-1,-1,-1,-1,-1,-1,-1,-1,-1,-1,-1,-1,-1,-1,-1,-1,-1,-1,-1,-1,-1,-1,-1,-1,-1,-1,-1,-1,-1,-1,-1,-1,-1,-1,-1,-1,-1,-1,-1,-1,-1,-1,-1,-1,-1,-1,-1,-1,-1,-1,-1,-1,-1,-1,-1],"split_conditions":[-3.4621202E-8,-3.334901E-2,-1.9755056E-8,1.0249064E-2,-5.200531E-2,3.8852286E-2,6.9746114E-2,3.1568315E-2,5.0947204E-2,6.0719857E-3,7.923223E-2,3.186071E-2,-5.5108022E-2,-6.522738E-2,-2.1855906E-33,1.0494774E-3,-5.2285247E-2,-5.8943473E-2,-4.062702E-2,2.0226015E-2,1.2283491E-2,6.571111E-2,-1.2036925E-3,-4.2765263E-2,-2.0532286E-2,-3.730193E-2,-4.9446475E-2,-1.9639798E-2,-1.4273089E-1,2.7916143E-2,-5.126423E-2,-4.8170142E-2,-9.5438346E-2,-1.2428607E-1,6.1399534E-2,-3.066644E-2,-6.961995E-2,4.8339972E-1,7.540058E-2,5.8871828E-2,5.8045067E-2,-3.914248E-2,-4.7587994E-3,1.0968536E-1,-1.5525847E-2,3.9864697E-2,2.220282E-2,6.8377354E-3,-8.073455E-2,1.7855959E-2,-1.3713492E-2,1.6470298E-2,-7.470073E-2,4.801523E-3,-6.0513925E-2,-1.7084156E-8,-4.9419515E-2,-1.648898E-2,-4.767014E-33,9.6413214E-4,-2.3224029E-1,5.8214206E-2,-3.5235634E-1,-2.458871E-1,3.5467E-1,2.4143492E-1,-3.58956E-1,4.4674787E-1,7.1962364E-2,3.4353077E-1,-2.3714325E-1,1.1340178E-1,4.7103503E-1,-3.487317E-1,3.659253E-1,3.9112523E-1,-1.8510593E-1,-4.181024E-1,1.6824906E-1,1.620871E-1,-3.7800342E-1,4.3093258E-1,-1.8552598E-1,4.3653885E-1,-1.514836E-2,-2.3685913E-1,3.8294056E-1,3.8628915E-1,-2.3023167E-1,-4.1199845E-1,4.4401128E-2,-1.7382494E-1,2.7374157E-1,-7.951131E-2,4.4071022E-1,-3.5369003E-1,1.7039168E-1,3.5697582E-1,-1.19081214E-1,3.3632433E-1,-3.0506423E-1,-2.0401219E-1,5.3142536E-1,-2.0420055E-1,4.7851643E-1,7.919942E-2,-3.5030133E-1,5.0133705E-1,-2.4163571E-1,6.4008564E-2,-3.5353434E-1,4.5367444E-1,-2.4401297E-1,1.5726103E-1,-3.6238676E-1,-1.1810474E-1,6.888584E-1],"split_indices":[319,162,319,214,339,231,376,88,68,239,102,337,3,86,223,188,279,88,7,259,161,7,225,381,142,142,337,193,55,7,74,339,119,0,133,255,339,0,304,103,260,7,302,231,88,136,4,151,321,161,3,188,77,57,225,319,327,170,223,148,0,0,0,0,0,0,0,0,0,0,0,0,0,0,0,0,0,0,0,0,0,0,0,0,0,0,0,0,0,0,0,0,0,0,0,0,0,0,0,0,0,0,0,0,0,0,0,0,0,0,0,0,0,0,0,0,0],"split_type":[0,0,0,0,0,0,0,0,0,0,0,0,0,0,0,0,0,0,0,0,0,0,0,0,0,0,0,0,0,0,0,0,0,0,0,0,0,0,0,0,0,0,0,0,0,0,0,0,0,0,0,0,0,0,0,0,0,0,0,0,0,0,0,0,0,0,0,0,0,0,0,0,0,0,0,0,0,0,0,0,0,0,0,0,0,0,0,0,0,0,0,0,0,0,0,0,0,0,0,0,0,0,0,0,0,0,0,0,0,0,0,0,0,0,0,0,0],"sum_hessian":[5.6376455E3,2.2474167E3,3.3902285E3,5.369311E2,1.7104855E3,1.8538362E3,1.5363925E3,4.1391086E2,1.2302025E2,2.4321768E2,1.4672678E3,9.034258E2,9.5041034E2,1.5033784E3,3.3014023E1,3.9171735E2,2.2193516E1,9.61998E1,2.682045E1,1.3247624E2,1.1074144E2,1.4442145E3,2.3053339E1,6.0021454E2,3.0321127E2,4.5712692E1,9.046977E2,2.6110037E1,1.4772684E3,9.221477E0,2.3792545E1,2.0894928E1,3.7082242E2,1.6717343E0,2.0521782E1,8.269808E0,8.792999E1,3.5753531E0,2.3245096E1,1.2316323E2,9.313015E0,9.326468E1,1.7476765E1,1.3931273E3,5.1087193E1,1.0713497E1,1.2339841E1,1.4908958E2,4.5112494E2,1.8016135E2,1.2304991E2,1.6100744E1,2.9611948E1,3.7284126E1,8.674136E2,5.868714E0,2.0241323E1,2.9924247E0,1.474276E3,5.951132E0,3.2703443E0,1.968053E0,2.1824492E1,8.397489E0,1.2497438E1,5.932229E0,3.648902E2,1.8999004E1,1.522777E0,2.3488784E0,5.920929E0,5.8689313E0,8.2061066E1,2.1194431E1,2.0506663E0,1.16256226E2,6.907003E0,6.8388243E0,2.474191E0,7.4495244E0,8.581515E1,1.3749622E1,3.7271428E0,1.3834475E3,9.679801E0,1.9724804E1,3.1362389E1,9.004218E0,1.7092791E0,1.1175228E1,1.1646128E0,6.6643265E1,8.244632E1,3.0667727E1,4.204572E2,1.6339359E2,1.6767769E1,7.456843E1,4.848148E1,3.0002236E0,1.3100521E1,1.1353511E0,2.8476597E1,1.6998436E1,2.028569E1,2.291581E1,8.4449774E2,3.9355595E0,1.9331545E0,1.8757664E0,1.8365557E1,1.0304966E0,1.9619281E0,1.1250815E0,1.4731509E3,1.2141715E0,4.7369604E0],"tree_param":{"num_deleted":"0","num_feature":"384","num_nodes":"117","size_leaf_vector":"1"}},{"base_weights":[-6.776814E-2,6.732199E-1,-6.3972545E-1,1.069096E0,-9.8975354E-1,-8.5316944E-1,2.565739E-1,1.9503555E-1,1.2655362E0,-2.3105462E-1,-1.0990938E0,-9.30658E-1,3.5974243E-1,8.9625883E-1,-1.0539482E0,-6.435055E-1,9.40727E-1,1.3073456E0,1.7944576E-3,-7.11271E-1,1.0867265E0,-1.1130353E0,2.900303E-1,-3.4782532E-1,-1.030576E0,7.8993374E-1,-1.0590866E0,1.1144967E0,-3.4411505E-1,-1.0907466E0,6.1841035E-1,4.768956E-1,-9.7301024E-1,-2.3658547E-1,1.1289641E0,1.1692365E-2,1.3191668E0,-6.807165E-1,1.1186715E0,-9.056773E-1,9.851482E-1,-2.5715894E-1,1.630007E0,-1.1221706E0,1.0978591E-1,2.8279203E-1,-1.112742E0,-6.319116E-1,-1.107606E0,-5.690063E-1,1.1887411E0,1.0092249E-1,-3.3559364E-1,1.1967632E0,-6.0648113E-1,5.984106E-1,-1.1785151E0,4.2456073E-1,-1.1170228E0,3.8654363E-1,-1.8667296E-1,-2.0952848E-1,3.17963E-1,-3.3493328E-1,2.4157323E-2,2.4802665E-1,-3.414052E-1,-6.89391E-2,3.6464593E-1,2.7687505E-1,-2.921484E-1,3.2687222E-3,3.986512E-1,2.7079594E-1,-3.0109626E-1,-1.4594805E-1,4.0570495E-1,-3.2824755E-1,1.661949E-1,-1.0989145E-1,4.5542523E-1,5.727511E-1,-9.50116E-2,-3.4003025E-1,-4.2847253E-2,3.463691E-1,-2.411869E-1,2.2052546E-1,-3.4033316E-1,4.366673E-2,-2.851484E-1,-3.3862054E-1,-1.0363359E-1,2.1880208E-1,-3.3447966E-1,3.9908263E-1,-1.6436994E-1,3.74468E-1,-1.4984794E-1,-3.6278325E-1,3.0346256E-1,3.4084815E-1,-1.80509E-1,-3.7878412E-1,1.5028128E-1,-2.2982037E-1,4.992488E-1,5.5330567E-2,-3.393374E-1],"categories":[],"categories_nodes":[],"categories_segments":[],"categories_sizes":[],"default_left":[0,0,0,0,0,0,0,0,0,0,0,0,0,0,0,0,0,0,0,0,0,0,0,0,0,0,0,0,0,0,0,0,0,0,0,0,0,0,0,0,0,0,0,0,0,0,0,0,0,0,0,0,0,0,0,0,0,0,0,0,0,0,0,0,0,0,0,0,0,0,0,0,0,0,0,0,0,0,0,0,0,0,0,0,0,0,0,0,0,0,0,0,0,0,0,0,0,0,0,0,0,0,0,0,0,0,0,0,0],"id":3,"left_children":[1,3,5,7,9,11,13,15,17,19,21,23,25,27,29,31,33,35,37,39,41,43,-1,45,47,49,51,53,55,57,59,61,63,65,67,69,71,73,75,77,79,-1,81,83,-1,85,87,89,91,93,95,-1,-1,97,99,101,103,105,107,-1,-1,-1,-1,-1,-1,-1,-1,-1,-1,-1,-1,-1,-1,-1,-1,-1,-1,-1,-1,-1,-1,-1,-1,-1,-1,-1,-1,-1,-1,-1,-1,-1,-1,-1,-1,-1,-1,-1,-1,-1,-1,-1,-1,-1,-1,-1,-1,-1,-1],"loss_changes":[1.9907177E3,1.348177E3,5.073573E2,2.8362317E2,3.2428802E1,2.0158374E2,4.2901553E2,1.91048E2,7.1312256E1,3.2978554E1,1.0986023E1,1.1686633E2,7.97591E1,9.341611E1,1.1010254E1,5.360766E1,3.6082993E1,1.9994873E1,3.447364E1,1.3392797E1,1.6169983E1,5.034668E0,0E0,1.431426E2,5.205371E1,5.4759407E1,2.9121895E0,4.2136658E1,4.1746056E1,7.03183E0,4.338346E0,2.3615652E1,1.694896E1,2.308746E1,1.6680481E1,1.2412565E1,1.6365234E1,1.5260148E1,7.0918827E0,1.0105427E1,3.7079272E0,0E0,6.733303E0,3.5928955E0,0E0,1.554419E2,6.2076416E0,6.961541E1,2.2772827E1,1.7340788E1,1.9771675E1,0E0,0E0,2.502127E1,1.4885399E1,1.6926086E1,4.5896225E0,6.487486E0,3.1848297E0,0E0,0E0,0E0,0E0,0E0,0E0,0E0,0E0,0E0,0E0,0E0,0E0,0E0,0E0,0E0,0E0,0E0,0E0,0E0,0E0,0E0,0E0,0E0,0E0,0E0,0E0,0E0,0E0,0E0,0E0,0E0,0E0,0E0,0E0,0E0,0E0,0E0,0E0,0E0,0E0,0E0,0E0,0E0,0E0,0E0,0E0,0E0,0E0,0E0,0E0],"parents":[2147483647,0,0,1,1,2,2,3,3,4,4,5,5,6,6,7,7,8,8,9,9,10,10,11,11,12,12,13,13,14,14,15,15,16,16,17,17,18,18,19,19,20,20,21,21,23,23,24,24,25,25,26,26,27,27,28,28,29,29,30,30,31,31,32,32,33,33,34,34,35,35,36,36,37,37,38,38,39,39,40,40,42,42,43,43,45,45,46,46,47,47,48,48,49,49,50,50,53,53,54,54,55,55,56,56,57,57,58,58],"right_children":[2,4,6,8,10,12,14,16,18,20,22,24,26,28,30,32,34,36,38,40,42,44,-1,46,48,50,52,54,56,58,60,62,64,66,68,70,72,74,76,78,80,-1,82,84,-1,86,88,90,92,94,96,-1,-1,98,100,102,104,106,108,-1,-1,-1,-1,-1,-1,-1,-1,-1,-1,-1,-1,-1,-1,-1,-1,-1,-1,-1,-1,-1,-1,-1,-1,-1,-1,-1,-1,-1,-1,-1,-1,-1,-1,-1,-1,-1,-1,-1,-1,-1,-1,-1,-1,-1,-1,-1,-1,-1,-1],"split_conditions":[-2.4843305E-2,-4.1352113E-33,1.8894313E-2,-3.9091818E-2,-3.089505E-33,1.04821496E-1,-4.3513223E-33,-1.757281E-2,8.754057E-2,3.4706786E-2,1.2518896E-1,-6.2241044E-2,-1.9755056E-8,2.8417798E-2,8.032225E-2,-5.427469E-2,1.5941326E-3,-8.846527E-2,1.1729352E-2,7.853412E-2,-5.4523177E-2,9.805714E-2,2.900303E-1,-4.9695342E-33,-2.9322926E-2,-6.097486E-2,-7.575226E-2,9.66524E-2,3.532347E-3,-8.896477E-2,-2.1855906E-33,-5.936527E-2,2.9761627E-2,2.6171079E-2,-4.0880773E-2,1.2234806E-2,-9.038989E-2,-3.0365143E-2,-4.6437547E-2,3.8341265E-2,5.1111825E-2,-2.5715894E-1,4.4078853E-2,7.199457E-2,1.0978591E-1,6.7692744E-3,-1.6011567E-1,-3.163992E-8,8.637193E-2,-2.7709458E-2,6.605139E-2,1.0092249E-1,-3.3559364E-1,1.01803035E-1,4.9515645E-4,2.6055567E-2,2.4205903E-2,-2.4624934E-2,-8.6249635E-2,3.8654363E-1,-1.8667296E-1,-2.0952848E-1,3.17963E-1,-3.3493328E-1,2.4157323E-2,2.4802665E-1,-3.414052E-1,-6.89391E-2,3.6464593E-1,2.7687505E-1,-2.921484E-1,3.2687222E-3,3.986512E-1,2.7079594E-1,-3.0109626E-1,-1.4594805E-1,4.0570495E-1,-3.2824755E-1,1.661949E-1,-1.0989145E-1,4.5542523E-1,5.727511E-1,-9.50116E-2,-3.4003025E-1,-4.2847253E-2,3.463691E-1,-2.411869E-1,2.2052546E-1,-3.4033316E-1,4.366673E-2,-2.851484E-1,-3.3862054E-1,-1.0363359E-1,2.1880208E-1,-3.3447966E-1,3.9908263E-1,-1.6436994E-1,3.74468E-1,-1.4984794E-1,-3.6278325E-1,3.0346256E-1,3.4084815E-1,-1.80509E-1,-3.7878412E-1,1.5028128E-1,-2.2982037E-1,4.992488E-1,5.5330567E-2,-3.393374E-1],"split_indices":[302,223,162,161,223,92,223,88,231,260,260,119,319,3,376,259,380,77,57,189,178,243,0,223,3,142,277,188,7,152,223,321,162,7,243,331,162,7,162,144,92,0,359,360,0,239,193,319,10,225,136,0,0,345,300,337,36,43,205,0,0,0,0,0,0,0,0,0,0,0,0,0,0,0,0,0,0,0,0,0,0,0,0,0,0,0,0,0,0,0,0,0,0,0,0,0,0,0,0,0,0,0,0,0,0,0,0,0,0],"split_type":[0,0,0,0,0,0,0,0,0,0,0,0,0,0,0,0,0,0,0,0,0,0,0,0,0,0,0,0,0,0,0,0,0,0,0,0,0,0,0,0,0,0,0,0,0,0,0,0,0,0,0,0,0,0,0,0,0,0,0,0,0,0,0,0,0,0,0,0,0,0,0,0,0,0,0,0,0,0,0,0,0,0,0,0,0,0,0,0,0,0,0,0,0,0,0,0,0,0,0,0,0,0,0,0,0,0,0,0,0],"sum_hessian":[4.695138E3,2.0452621E3,2.6498762E3,1.652287E3,3.9297504E2,2.1402476E3,5.0962875E2,3.035655E2,1.3487216E3,4.9892185E1,3.4308286E2,2.0119445E3,1.2830315E2,3.426785E2,1.6695027E2,1.4295148E2,1.60614E2,1.3054962E3,4.3225353E1,3.6904106E1,1.2988079E1,3.412412E2,1.8416479E0,2.950964E2,1.716848E3,9.879237E1,2.9510763E1,2.9149316E2,5.118534E1,1.6369609E2,3.2541828E0,3.238541E1,1.1056606E2,2.2104769E1,1.3850923E2,1.1821177E1,1.293675E3,2.7072296E1,1.6153055E1,3.352799E1,3.3761182E0,2.7107766E0,1.0277303E1,3.3938617E2,1.8550377E0,1.6209299E2,1.3300342E2,2.7950235E2,1.4373457E3,2.2317724E1,7.647465E1,1.0176772E0,2.8493086E1,2.7848553E2,1.3007614E1,2.4168167E1,2.7017172E1,2.5318146E0,1.6116428E2,2.087948E0,1.1662347E0,1.0672003E1,2.1713406E1,9.726425E1,1.3301808E1,1.0179609E1,1.1925159E1,8.192771E0,1.3031647E2,6.1751127E0,5.6460633E0,9.508078E0,1.284167E3,4.2820735E0,2.2790222E1,1.9152263E0,1.4237829E1,2.99155E1,3.6124878E0,1.0432484E0,2.3328698E0,9.005217E0,1.2720854E0,3.353717E2,4.014474E0,8.9907936E1,7.218505E1,1.1623516E0,1.3184106E2,8.1399315E1,1.9810303E2,1.3981056E3,3.9240086E1,6.5068526E0,1.5810873E1,7.0928085E1,5.5465684E0,2.7054156E2,7.9439597E0,9.661013E0,3.346601E0,1.6726543E1,7.441625E0,2.5965166E1,1.0520062E0,1.486269E0,1.0455457E0,1.5980986E0,1.5956618E2],"tree_param":{"num_deleted":"0","num_feature":"384","num_nodes":"109","size_leaf_vector":"1"}},{"base_weights":[-6.436952E-2,5.679802E-1,-5.958738E-1,9.251703E-1,-9.1503304E-1,9.773975E-2,-8.361733E-1,-6.478044E-2,1.081981E0,-2.2778453E-1,-1.049383E0,5.961461E-1,-9.93848E-1,-9.327958E-3,-9.519804E-1,-7.690171E-1,6.609771E-1,1.1369227E0,-2.3024829E-1,4.5267627E-1,-9.8180485E-1,2.0758402E-1,-1.0732353E0,1.0984898E0,-6.326026E-1,-1.0426444E0,2.1433766E-1,6.3372844E-1,-9.875275E-1,-6.3328184E-2,-9.9800557E-1,-1.0004824E0,5.0056934E-1,-7.85962E-1,9.2153573E-1,1.1747717E0,2.826744E-1,-8.666007E-1,7.4060434E-1,-1.3273971E-1,1.6081456E0,-3.2141814E-1,1.0895085E-1,3.969231E-1,-2.4758378E-1,-1.084844E0,2.1762548E-1,-3.0428895E-1,1.2204407E0,7.9280114E-1,-9.594673E-1,3.1370458E-1,-1.0753926E0,1.1905622E0,-2.5400493E-1,-5.2411234E-1,1.2132832E0,-1.0256081E0,2.591802E-1,-7.4034834E-1,9.5138055E-1,-5.4563504E-1,-1.0679415E0,1.4813378E-1,-3.2607076E-1,2.797565E-1,-2.627472E-1,2.30742E-1,-3.4350038E-1,3.376124E-1,-4.934025E-2,3.578436E-1,4.2593922E-2,-2.2287853E-1,2.4095069E-1,2.677982E-1,-2.9290935E-1,3.4667885E-1,-1.9554809E-1,-1.8266742E-1,2.858339E-1,4.5811E-3,5.720315E-1,-3.3038923E-1,4.977232E-2,2.582005E-1,-2.7512643E-1,3.795993E-1,-1.0229075E-1,3.9707398E-1,-1.9567253E-1,2.2608982E-1,-3.148786E-1,-2.1697535E-1,3.2043266E-1,1.9389969E-1,-3.284692E-1,5.948533E-1,-2.7260906E-3,-2.775795E-1,1.6959916E-1,3.7797838E-1,-1.23024955E-1,1.2885933E-2,-3.200801E-1,-2.9178905E-1,2.454271E-1,3.32753E-1,-1.3841361E-1,-1.2274926E-2,-3.1227046E-1,-3.2276055E-1,1.8940818E-1],"categories":[],"categories_nodes":[],"categories_segments":[],"categories_sizes":[],"default_left":[0,0,0,0,0,0,0,0,0,0,0,0,0,0,0,0,0,0,0,0,0,0,0,0,0,0,0,0,0,0,0,0,0,0,0,0,0,0,0,0,0,0,0,0,0,0,0,0,0,0,0,0,0,0,0,0,0,0,0,0,0,0,0,0,0,0,0,0,0,0,0,0,0,0,0,0,0,0,0,0,0,0,0,0,0,0,0,0,0,0,0,0,0,0,0,0,0,0,0,0,0,0,0,0,0,0,0,0,0,0,0,0,0],"id":4,"left_children":[1,3,5,7,9,11,13,15,17,19,21,23,25,27,29,31,33,35,37,39,41,43,45,47,49,51,53,55,57,59,61,63,65,67,69,71,73,75,77,79,81,-1,-1,-1,-1,83,-1,85,87,89,91,93,95,97,-1,99,101,103,-1,105,107,109,111,-1,-1,-1,-1,-1,-1,-1,-1,-1,-1,-1,-1,-1,-1,-1,-1,-1,-1,-1,-1,-1,-1,-1,-1,-1,-1,-1,-1,-1,-1,-1,-1,-1,-1,-1,-1,-1,-1,-1,-1,-1,-1,-1,-1,-1,-1,-1,-1,-1,-1],"loss_changes":[1.297527E3,9.3478424E2,3.4968005E2,2.2071497E2,3.1405304E1,2.94701E2,1.4916699E2,1.0032892E2,8.8727905E1,2.9854467E1,8.809601E0,2.301635E2,1.0235764E1,1.21653564E2,5.5827026E1,2.9764973E1,3.7188904E1,3.7752686E1,3.1620209E1,2.10572E1,3.7034378E0,8.20242E0,6.6591187E0,4.557544E1,5.1319016E1,7.595627E0,8.696003E0,7.894287E1,6.294136E0,4.7663788E1,4.051819E1,1.1456413E1,1.0342693E1,9.422658E0,1.843061E1,2.0840454E1,2.7977507E1,6.809515E0,1.2537046E1,1.1628785E1,4.936121E0,0E0,0E0,0E0,0E0,5.941345E0,0E0,1.6448448E1,1.7485382E1,1.6808876E1,1.4489967E1,4.3917737E0,6.0733337E0,4.0871463E0,0E0,1.7840725E1,6.4282913E0,3.3849716E0,0E0,1.5841373E1,6.707695E0,4.3951504E1,1.5821899E1,0E0,0E0,0E0,0E0,0E0,0E0,0E0,0E0,0E0,0E0,0E0,0E0,0E0,0E0,0E0,0E0,0E0,0E0,0E0,0E0,0E0,0E0,0E0,0E0,0E0,0E0,0E0,0E0,0E0,0E0,0E0,0E0,0E0,0E0,0E0,0E0,0E0,0E0,0E0,0E0,0E0,0E0,0E0,0E0,0E0,0E0,0E0,0E0,0E0,0E0],"parents":[2147483647,0,0,1,1,2,2,3,3,4,4,5,5,6,6,7,7,8,8,9,9,10,10,11,11,12,12,13,13,14,14,15,15,16,16,17,17,18,18,19,19,20,20,21,21,22,22,23,23,24,24,25,25,26,26,27,27,28,28,29,29,30,30,31,31,32,32,33,33,34,34,35,35,36,36,37,37,38,38,39,39,40,40,45,45,47,47,48,48,49,49,50,50,51,51,52,52,53,53,55,55,56,56,57,57,59,59,60,60,61,61,62,62],"right_children":[2,4,6,8,10,12,14,16,18,20,22,24,26,28,30,32,34,36,38,40,42,44,46,48,50,52,54,56,58,60,62,64,66,68,70,72,74,76,78,80,82,-1,-1,-1,-1,84,-1,86,88,90,92,94,96,98,-1,100,102,104,-1,106,108,110,112,-1,-1,-1,-1,-1,-1,-1,-1,-1,-1,-1,-1,-1,-1,-1,-1,-1,-1,-1,-1,-1,-1,-1,-1,-1,-1,-1,-1,-1,-1,-1,-1,-1,-1,-1,-1,-1,-1,-1,-1,-1,-1,-1,-1,-1,-1,-1,-1,-1,-1],"split_conditions":[-2.2326969E-2,-2.083391E-8,-1.3656434E-2,-5.2791663E-2,-1.9639798E-2,-4.561698E-33,-5.011018E-2,-3.3611078E-2,8.754057E-2,-1.6920215E-8,-1.1710401E-1,2.9738462E-2,5.531796E-2,-4.3513223E-33,-4.6161336E-8,1.0516732E-2,-6.445424E-2,7.337271E-2,-3.1315823E-4,3.628181E-2,7.759516E-2,-3.089505E-33,1.0384913E-1,-7.374013E-2,-1.0778579E-2,-7.921638E-2,1.5028425E-2,-3.730193E-2,1.21099964E-1,-3.8867347E-2,-3.327069E-2,-3.284381E-2,2.299706E-2,-4.8684243E-2,1.5098698E-3,6.3277215E-2,-1.770369E-2,-1.1029324E-1,-1.0241042E-2,4.4490278E-2,-3.6453653E-2,-3.2141814E-1,1.0895085E-1,3.969231E-1,-2.4758378E-1,9.075521E-2,2.1762548E-1,3.271769E-2,9.9102244E-2,3.704287E-2,-5.431199E-2,7.9987375E-3,-1.0706826E-1,9.529815E-3,-2.5400493E-1,-1.509232E-2,6.909683E-2,-6.4466015E-2,2.591802E-1,4.649126E-3,5.6071583E-2,-4.3513223E-33,1.2916775E-1,1.4813378E-1,-3.2607076E-1,2.797565E-1,-2.627472E-1,2.30742E-1,-3.4350038E-1,3.376124E-1,-4.934025E-2,3.578436E-1,4.2593922E-2,-2.2287853E-1,2.4095069E-1,2.677982E-1,-2.9290935E-1,3.4667885E-1,-1.9554809E-1,-1.8266742E-1,2.858339E-1,4.5811E-3,5.720315E-1,-3.3038923E-1,4.977232E-2,2.582005E-1,-2.7512643E-1,3.795993E-1,-1.0229075E-1,3.9707398E-1,-1.9567253E-1,2.2608982E-1,-3.148786E-1,-2.1697535E-1,3.2043266E-1,1.9389969E-1,-3.284692E-1,5.948533E-1,-2.7260906E-3,-2.775795E-1,1.6959916E-1,3.7797838E-1,-1.23024955E-1,1.2885933E-2,-3.200801E-1,-2.9178905E-1,2.454271E-1,3.32753E-1,-1.3841361E-1,-1.2274926E-2,-3.1227046E-1,-3.2276055E-1,1.8940818E-1],"split_indices":[302,319,7,161,193,223,3,339,231,319,256,3,376,223,319,196,88,331,214,185,376,223,185,339,337,24,90,142,301,142,225,331,239,112,113,130,77,259,259,53,36,0,0,0,0,132,0,188,231,231,225,300,35,26,0,339,75,24,0,339,239,223,10,0,0,0,0,0,0,0,0,0,0,0,0,0,0,0,0,0,0,0,0,0,0,0,0,0,0,0,0,0,0,0,0,0,0,0,0,0,0,0,0,0,0,0,0,0,0,0,0,0,0],"split_type":[0,0,0,0,0,0,0,0,0,0,0,0,0,0,0,0,0,0,0,0,0,0,0,0,0,0,0,0,0,0,0,0,0,0,0,0,0,0,0,0,0,0,0,0,0,0,0,0,0,0,0,0,0,0,0,0,0,0,0,0,0,0,0,0,0,0,0,0,0,0,0,0,0,0,0,0,0,0,0,0,0,0,0,0,0,0,0,0,0,0,0,0,0,0,0,0,0,0,0,0,0,0,0,0,0,0,0,0,0,0,0,0,0],"sum_hessian":[3.8585708E3,1.7620856E3,2.096485E3,1.4203616E3,3.4172406E2,5.395866E2,1.5568986E3,1.9430351E2,1.226058E3,5.6320408E1,2.8540366E2,3.707571E2,1.6882953E2,1.9140149E2,1.3654971E3,9.85836E1,9.571991E1,1.1769153E3,4.914273E1,2.9814318E1,2.650609E1,5.171507E0,2.8023215E2,2.632428E2,1.0751431E2,1.6240724E2,6.4222956E0,1.15696304E2,7.5705185E1,6.73565E1,1.2981406E3,8.356108E1,1.502252E1,1.4298842E1,8.142107E1,1.1266232E3,5.0292156E1,2.9750154E1,1.9392574E1,2.0375988E1,9.438329E0,2.5041483E1,1.4646075E0,2.3512142E0,2.8202927E0,2.788294E2,1.4027485E0,2.0935106E1,2.4230768E2,1.9789602E1,8.772471E1,3.6265345E0,1.587807E2,3.2812185E0,3.141077E0,3.8625507E1,7.707079E1,7.461654E1,1.0886458E0,4.0562992E1,2.6793507E1,1.7499733E2,1.1231433E3,4.3107924E0,7.925029E1,1.1679608E1,3.3429117E0,2.4678137E0,1.1831029E1,6.852325E1,1.289782E1,1.1071294E3,1.9493713E1,1.6787014E1,3.3505142E1,1.3282822E0,2.8421873E1,1.5070994E1,4.3215804E0,1.4468576E1,5.907411E0,1.6560528E0,7.782276E0,2.7532703E2,3.5023751E0,7.0769796E0,1.3858127E1,2.3572038E2,6.5872946E0,1.4534858E1,5.2547445E0,4.0166583E0,8.3708046E1,1.5446512E0,2.0818834E0,1.4186103E0,1.5736209E2,1.5829446E0,1.698274E0,2.8340662E1,1.0284844E1,7.513578E1,1.935017E0,2.7768106E0,7.183973E1,3.5628536E1,4.9344587E0,2.4294819E1,2.4986877E0,8.7207794E1,8.778953E1,1.1182935E3,4.8497944E0],"tree_param":{"num_deleted":"0","num_feature":"384","num_nodes":"113","size_leaf_vector":"1"}},{"base_weights":[-6.059211E-2,2.4064477E-1,-9.707106E-1,8.3345836E-1,-4.651583E-1,-5.8571017E-1,-1.0569057E0,9.705757E-1,-3.328792E-1,-8.5132074E-1,4.005286E-1,-8.8513243E-1,2.0871887E-1,-1.0627649E0,-2.4244456E-1,1.9320601E-1,1.082749E0,5.47721E-1,-8.50007E-1,5.109655E-1,-9.630493E-1,8.551831E-1,-4.425092E-1,-1.057639E0,-2.06984E-1,-7.882963E-1,7.7942127E-1,5.9150965E-3,-1.0667479E0,3.2790458E-1,-2.6212886E-1,-6.737178E-1,7.5429994E-1,1.1294498E0,4.5987904E-2,-4.9803662E-1,9.565211E-1,4.0338463E-1,-1.0664527E0,-7.5895923E-1,8.6529547E-1,-1.0207338E0,3.6794728E-1,1.0538608E0,-4.8839083E-1,5.579897E-1,-8.7703085E-1,-1.1101639E0,-3.3085895E-1,-7.519096E-1,8.048672E-1,4.1971314E-1,-3.0942327E-1,-3.2757783E-1,1.2666248E0,-1.8790334E-1,2.2315885E-1,-1.0698284E0,6.11077E-2,2.2917399E-1,-2.6053894E-1,3.0856845E-1,-6.4937845E-2,8.1413165E-2,3.482201E-1,3.057331E-1,-1.8343449E-1,1.4982812E-1,-3.0289227E-1,1.9929029E-2,3.539093E-1,-2.3993446E-1,2.6264384E-1,9.595763E-2,-3.4184134E-1,1.4674939E-1,-2.9975262E-1,3.1782496E-1,-1.5633197E-1,-2.5363375E-2,-3.192799E-1,-9.833879E-2,3.1328622E-1,1.2302228E-2,3.464951E-1,2.0796816E-1,-2.8458953E-1,-2.1620613E-1,2.8464818E-1,4.233674E-2,-3.2057786E-1,-3.3843184E-1,-4.733969E-2,-2.434221E-1,2.5860187E-1,-2.934775E-1,2.0859614E-1,4.1652536E-1,-2.2583358E-1,-1.1756584E-1,3.1135517E-1,-2.8684598E-1,1.9219036E-1,-2.5966877E-2,4.7625798E-1,-7.644832E-2,-3.2186553E-1],"categories":[],"categories_nodes":[],"categories_segments":[],"categories_sizes":[],"default_left":[0,0,0,0,0,0,0,0,0,0,0,0,0,0,0,0,0,0,0,0,0,0,0,0,0,0,0,0,0,0,0,0,0,0,0,0,0,0,0,0,0,0,0,0,0,0,0,0,0,0,0,0,0,0,0,0,0,0,0,0,0,0,0,0,0,0,0,0,0,0,0,0,0,0,0,0,0,0,0,0,0,0,0,0,0,0,0,0,0,0,0,0,0,0,0,0,0,0,0,0,0,0,0,0,0,0,0],"id":5,"left_children":[1,3,5,7,9,11,13,15,17,19,21,23,25,27,29,31,33,35,37,39,41,43,45,47,49,51,53,55,57,-1,-1,59,61,63,65,67,69,71,73,75,77,79,81,83,85,87,89,91,93,95,97,99,-1,101,103,-1,-1,105,-1,-1,-1,-1,-1,-1,-1,-1,-1,-1,-1,-1,-1,-1,-1,-1,-1,-1,-1,-1,-1,-1,-1,-1,-1,-1,-1,-1,-1,-1,-1,-1,-1,-1,-1,-1,-1,-1,-1,-1,-1,-1,-1,-1,-1,-1,-1,-1,-1],"loss_changes":[8.626452E2,9.8958704E2,2.534668E1,2.0587555E2,3.6134186E2,3.476507E1,2.7872314E0,1.0010144E2,6.2376022E1,1.14203735E2,1.2831938E2,1.2154846E1,2.371749E1,2.7017212E0,5.889701E0,7.166203E1,4.861133E1,2.2239643E1,2.3773468E1,2.6431961E1,5.3414307E1,5.8490845E1,5.161744E1,2.8423157E0,1.3117803E1,4.9198236E0,1.4612872E1,2.0269754E0,2.6867676E0,0E0,0E0,1.690288E1,2.399142E1,2.5500732E1,2.9005974E1,8.141E0,7.2601547E0,8.3094635E0,7.819641E0,4.395025E0,1.27310295E1,2.6904968E1,1.419112E1,1.9364502E1,1.6245031E1,1.8786026E1,1.6218975E1,1.154602E0,4.764461E0,5.681265E0,8.704447E0,2.0474021E0,0E0,5.9923267E0,8.164427E0,0E0,0E0,1.2948608E0,0E0,0E0,0E0,0E0,0E0,0E0,0E0,0E0,0E0,0E0,0E0,0E0,0E0,0E0,0E0,0E0,0E0,0E0,0E0,0E0,0E0,0E0,0E0,0E0,0E0,0E0,0E0,0E0,0E0,0E0,0E0,0E0,0E0,0E0,0E0,0E0,0E0,0E0,0E0,0E0,0E0,0E0,0E0,0E0,0E0,0E0,0E0,0E0,0E0],"parents":[2147483647,0,0,1,1,2,2,3,3,4,4,5,5,6,6,7,7,8,8,9,9,10,10,11,11,12,12,13,13,14,14,15,15,16,16,17,17,18,18,19,19,20,20,21,21,22,22,23,23,24,24,25,25,26,26,27,27,28,28,31,31,32,32,33,33,34,34,35,35,36,36,37,37,38,38,39,39,40,40,41,41,42,42,43,43,44,44,45,45,46,46,47,47,48,48,49,49,50,50,51,51,53,53,54,54,57,57],"right_children":[2,4,6,8,10,12,14,16,18,20,22,24,26,28,30,32,34,36,38,40,42,44,46,48,50,52,54,56,58,-1,-1,60,62,64,66,68,70,72,74,76,78,80,82,84,86,88,90,92,94,96,98,100,-1,102,104,-1,-1,106,-1,-1,-1,-1,-1,-1,-1,-1,-1,-1,-1,-1,-1,-1,-1,-1,-1,-1,-1,-1,-1,-1,-1,-1,-1,-1,-1,-1,-1,-1,-1,-1,-1,-1,-1,-1,-1,-1,-1,-1,-1,-1,-1,-1,-1,-1,-1,-1,-1],"split_conditions":[-4.1352113E-33,3.814842E-2,-2.677921E-33,5.9960738E-2,-1.9481335E-2,1.9193793E-2,9.679842E-2,-5.3155404E-2,8.486975E-4,-3.9827816E-2,1.6476074E-2,2.365495E-2,-7.160541E-3,-1.1424142E-1,-1.0186023E-2,-3.4105055E-2,-5.1356485E-33,-4.5426786E-2,-2.7684608E-2,-2.831605E-2,3.2240063E-2,4.4189516E-2,-2.24182E-2,4.0538408E-2,1.5706675E-2,-2.4996534E-2,1.4437908E-2,2.7731301E-2,1.18070655E-1,3.2790458E-1,-2.6212886E-1,-5.1704228E-2,1.44655565E-2,-8.09258E-2,-1.8857103E-2,-1.2473189E-2,8.914736E-3,1.1914145E-2,-7.017124E-2,-4.930274E-2,4.1084718E-2,-5.930972E-2,-1.893352E-2,-4.8642334E-2,-3.5232056E-2,-4.704967E-2,-2.6373962E-2,1.08747244E-1,3.958537E-2,3.2016445E-2,3.313911E-2,7.212297E-2,-3.0942327E-1,2.451512E-2,-1.3618584E-2,-1.8790334E-1,2.2315885E-1,-8.69911E-2,6.11077E-2,2.2917399E-1,-2.6053894E-1,3.0856845E-1,-6.4937845E-2,8.1413165E-2,3.482201E-1,3.057331E-1,-1.8343449E-1,1.4982812E-1,-3.0289227E-1,1.9929029E-2,3.539093E-1,-2.3993446E-1,2.6264384E-1,9.595763E-2,-3.4184134E-1,1.4674939E-1,-2.9975262E-1,3.1782496E-1,-1.5633197E-1,-2.5363375E-2,-3.192799E-1,-9.833879E-2,3.1328622E-1,1.2302228E-2,3.464951E-1,2.0796816E-1,-2.8458953E-1,-2.1620613E-1,2.8464818E-1,4.233674E-2,-3.2057786E-1,-3.3843184E-1,-4.733969E-2,-2.434221E-1,2.5860187E-1,-2.934775E-1,2.0859614E-1,4.1652536E-1,-2.2583358E-1,-1.1756584E-1,3.1135517E-1,-2.8684598E-1,1.9219036E-1,-2.5966877E-2,4.7625798E-1,-7.644832E-2,-3.2186553E-1],"split_indices":[223,188,223,273,339,132,185,98,7,337,7,243,376,286,174,339,223,321,239,5,88,3,234,151,376,205,92,362,291,0,0,225,225,339,340,370,284,247,269,62,7,302,98,9,119,162,225,304,301,15,7,156,0,114,243,0,0,10,0,0,0,0,0,0,0,0,0,0,0,0,0,0,0,0,0,0,0,0,0,0,0,0,0,0,0,0,0,0,0,0,0,0,0,0,0,0,0,0,0,0,0,0,0,0,0,0,0],"split_type":[0,0,0,0,0,0,0,0,0,0,0,0,0,0,0,0,0,0,0,0,0,0,0,0,0,0,0,0,0,0,0,0,0,0,0,0,0,0,0,0,0,0,0,0,0,0,0,0,0,0,0,0,0,0,0,0,0,0,0,0,0,0,0,0,0,0,0,0,0,0,0,0,0,0,0,0,0,0,0,0,0,0,0,0,0,0,0,0,0,0,0,0,0,0,0,0,0,0,0,0,0,0,0,0,0,0,0],"sum_hessian":[3.1446365E3,2.3631885E3,7.814478E2,1.2843037E3,1.0788849E3,1.4437508E2,6.370727E2,1.1493511E3,1.3495256E2,7.460889E2,3.3279596E2,1.04772064E2,3.960302E1,6.322197E2,4.8529997E0,1.4527898E2,1.00407214E3,4.9907513E1,8.504505E1,5.628182E1,6.898071E2,2.1618948E2,1.16606476E2,8.307894E1,2.1693121E1,1.4278047E1,2.5324972E1,2.3457916E0,6.298739E2,1.3230219E0,3.5299778E0,5.7003864E1,8.8275116E1,9.607077E2,4.336442E1,1.396504E1,3.594247E1,1.2396404E1,7.264864E1,1.2028721E1,4.4253098E1,6.613766E2,2.8430544E1,1.8852715E2,2.7662348E1,3.5222195E1,8.1384285E1,7.6987495E1,6.0914464E0,1.4266754E1,7.426367E0,2.270379E0,1.2007668E1,7.839683E0,1.7485289E1,1.3448148E0,1.0009768E0,6.2850793E2,1.3660198E0,6.451984E0,5.055188E1,6.878286E1,1.9492258E1,3.4133945E1,9.265738E2,1.726259E1,2.610183E1,4.742497E0,9.222544E0,7.465523E0,2.8476948E1,3.2977498E0,9.098655E0,3.465869E0,6.918278E1,1.7741537E0,1.0254567E1,3.902478E1,5.228316E0,2.951798E1,6.318586E2,1.4268272E1,1.41622715E1,1.7241423E1,1.7128572E2,7.612321E0,2.0050026E1,8.048032E0,2.7174164E1,1.2929132E1,6.8455154E1,7.538278E1,1.6047158E0,4.57014E0,1.5213064E0,1.2617421E1,1.6493337E0,5.481457E0,1.9449097E0,1.1398304E0,1.1305487E0,4.7611446E0,3.0785387E0,3.4917057E0,1.3993584E1,2.6636837E0,6.2584424E2],"tree_param":{"num_deleted":"0","num_feature":"384","num_nodes":"107","size_leaf_vector":"1"}},{"base_weights":[-5.7984244E-2,6.8459654E-1,-3.8477495E-1,9.360819E-1,-2.6913816E-1,-6.81562E-1,1.8632118E-1,8.425254E-2,1.0219157E0,5.0487864E-1,-8.522948E-1,-8.5223496E-1,-5.7516754E-2,4.520585E-1,-9.1881746E-1,-6.1102116E-1,8.768748E-1,7.372829E-2,1.0511354E0,9.0237534E-1,-5.398957E-1,5.0492966E-1,-9.8654306E-1,-2.5551537E-1,-9.292047E-1,5.0599843E-1,-5.336147E-1,-5.20899E-1,7.781547E-1,3.325348E-1,-9.881539E-1,5.7703733E-1,-9.47915E-1,-1.9095479E-1,1.0026581E0,-5.571862E-1,9.4540524E-1,8.060168E-2,1.07404E0,1.0538691E0,-2.8991494E-1,-1.0133122E0,5.8752364E-1,9.1792405E-1,-5.0097275E-1,-1.0291163E0,2.367933E-1,2.0199093E-1,-9.768738E-1,-9.6104795E-1,3.217268E-2,8.6401665E-1,-9.3881124E-1,-9.361641E-1,-6.546195E-2,4.346337E-1,-9.0063035E-1,-1.1087813E-1,1.008298E0,1.6465749E0,-6.6838974E-1,-1.0165535E0,2.0856544E-1,-1.5375838E-1,3.0835617E-1,-3.2826972E-1,1.4445938E-2,3.2353783E-1,-3.360777E-2,1.914435E-1,-2.9657477E-1,7.0232436E-2,3.0955648E-1,2.4005732E-1,-3.077657E-1,4.9701836E-2,3.2649824E-1,-1.8393623E-2,3.3968264E-1,-2.9716387E-1,2.3379053E-1,1.7455392E-2,-3.2984403E-1,3.0416444E-1,-1.6583289E-1,8.513665E-2,2.965919E-1,-1.8827157E-1,-3.2184634E-2,2.3517093E-2,-3.245578E-1,2.6580304E-1,-1.4063455E-1,-3.062941E-1,9.953469E-2,-3.0142197E-1,-1.3245265E-1,2.0924732E-1,-2.545922E-1,3.2972413E-1,-9.147582E-3,-3.0379134E-1,1.01802684E-1,8.463523E-2,-2.991456E-1,9.4379194E-2,-2.8878394E-1,2.7795935E-1,-1.5217091E-1,1.09395586E-1,-3.032574E-1,1.847079E-1,-2.0728873E-1,-5.057092E-2,3.2491177E-1,1.23922445E-1,6.392496E-1,-4.38926E-2,-2.3158552E-1,1.1753795E-1,-3.1021336E-1,3.300361E-1,-1.8711463E-1],"categories":[],"categories_nodes":[],"categories_segments":[],"categories_sizes":[],"default_left":[0,0,0,0,0,0,0,0,0,0,0,0,0,0,0,0,0,0,0,0,0,0,0,0,0,0,0,0,0,0,0,0,0,0,0,0,0,0,0,0,0,0,0,0,0,0,0,0,0,0,0,0,0,0,0,0,0,0,0,0,0,0,0,0,0,0,0,0,0,0,0,0,0,0,0,0,0,0,0,0,0,0,0,0,0,0,0,0,0,0,0,0,0,0,0,0,0,0,0,0,0,0,0,0,0,0,0,0,0,0,0,0,0,0,0,0,0,0,0,0,0,0,0],"id":6,"left_children":[1,3,5,7,9,11,13,15,17,19,21,23,25,27,29,31,33,35,37,39,41,43,45,47,49,51,53,55,57,59,61,63,65,-1,67,69,71,73,75,77,79,81,83,85,87,89,-1,91,93,95,97,99,101,103,105,107,109,111,113,115,117,119,121,-1,-1,-1,-1,-1,-1,-1,-1,-1,-1,-1,-1,-1,-1,-1,-1,-1,-1,-1,-1,-1,-1,-1,-1,-1,-1,-1,-1,-1,-1,-1,-1,-1,-1,-1,-1,-1,-1,-1,-1,-1,-1,-1,-1,-1,-1,-1,-1,-1,-1,-1,-1,-1,-1,-1,-1,-1,-1,-1,-1],"loss_changes":[6.190428E2,1.8723581E2,3.0035324E2,4.503656E1,7.420621E1,1.2411713E2,1.7853433E2,3.226906E1,1.5453003E1,2.991453E1,1.7550476E1,4.1804382E1,6.772781E1,1.5574911E2,1.0558044E1,1.3060573E1,5.8385067E0,1.0334255E1,1.2000244E1,9.644588E0,1.1352709E1,4.2342334E0,7.2766724E0,3.5166855E1,2.4839905E1,6.0638836E1,2.5714931E1,4.5204697E1,7.522427E1,1.0225725E1,4.0171967E0,4.2247963E0,3.6577492E0,0E0,2.2847443E0,6.2900176E0,2.4167919E-1,1.1663098E1,6.7124023E0,4.0994987E0,5.7260766E0,1.4084034E0,3.7659836E0,2.4101734E-2,9.671891E-2,4.987747E0,0E0,3.0544554E1,2.72221E0,1.736316E1,1.6384848E1,1.9633057E1,2.556221E0,5.739876E0,2.2230938E1,1.705515E1,1.2740532E1,3.2622566E1,2.5842133E1,1.0841293E0,1.3844228E-1,3.103386E0,3.2277083E0,0E0,0E0,0E0,0E0,0E0,0E0,0E0,0E0,0E0,0E0,0E0,0E0,0E0,0E0,0E0,0E0,0E0,0E0,0E0,0E0,0E0,0E0,0E0,0E0,0E0,0E0,0E0,0E0,0E0,0E0,0E0,0E0,0E0,0E0,0E0,0E0,0E0,0E0,0E0,0E0,0E0,0E0,0E0,0E0,0E0,0E0,0E0,0E0,0E0,0E0,0E0,0E0,0E0,0E0,0E0,0E0,0E0,0E0,0E0,0E0],"parents":[2147483647,0,0,1,1,2,2,3,3,4,4,5,5,6,6,7,7,8,8,9,9,10,10,11,11,12,12,13,13,14,14,15,15,16,16,17,17,18,18,19,19,20,20,21,21,22,22,23,23,24,24,25,25,26,26,27,27,28,28,29,29,30,30,31,31,32,32,34,34,35,35,36,36,37,37,38,38,39,39,40,40,41,41,42,42,43,43,44,44,45,45,47,47,48,48,49,49,50,50,51,51,52,52,53,53,54,54,55,55,56,56,57,57,58,58,59,59,60,60,61,61,62,62],"right_children":[2,4,6,8,10,12,14,16,18,20,22,24,26,28,30,32,34,36,38,40,42,44,46,48,50,52,54,56,58,60,62,64,66,-1,68,70,72,74,76,78,80,82,84,86,88,90,-1,92,94,96,98,100,102,104,106,108,110,112,114,116,118,120,122,-1,-1,-1,-1,-1,-1,-1,-1,-1,-1,-1,-1,-1,-1,-1,-1,-1,-1,-1,-1,-1,-1,-1,-1,-1,-1,-1,-1,-1,-1,-1,-1,-1,-1,-1,-1,-1,-1,-1,-1,-1,-1,-1,-1,-1,-1,-1,-1,-1,-1,-1,-1,-1,-1,-1,-1,-1,-1,-1,-1],"split_conditions":[-3.8296964E-8,6.509187E-2,5.530291E-2,-4.276859E-2,3.5533675E-3,1.4908086E-3,-3.089505E-33,-3.1209697E-3,-9.901432E-2,2.9098265E-2,-2.172881E-2,-4.9379487E-2,6.506666E-4,-2.692276E-2,-6.435135E-2,-1.113957E-2,-3.465567E-2,5.273477E-3,-7.031115E-2,5.341886E-2,-1.8878387E-2,-1.8078698E-2,3.3546686E-2,-3.2039707E-33,9.734208E-2,-2.5530725E-33,-4.488028E-2,-7.839409E-3,-7.284709E-2,-2.5650538E-3,6.4759865E-2,-2.9931955E-2,-1.3098635E-2,-1.9095479E-1,6.4930536E-2,-3.948049E-2,-4.399848E-2,3.076999E-2,-7.5992525E-2,-9.3776144E-2,-2.7921298E-3,-4.5894973E-2,2.9930944E-2,1.0863374E-2,1.9402558E-2,-7.964906E-2,2.367933E-1,-2.9467113E-2,7.600235E-2,5.994946E-2,1.5560269E-2,-8.98378E-3,6.8925455E-2,-6.6072576E-2,-1.9030187E-8,1.3340417E-3,-1.9142304E-2,-1.5035344E-2,-6.1036542E-2,5.759232E-3,-4.220804E-2,-1.23073116E-1,-6.173084E-2,-1.5375838E-1,3.0835617E-1,-3.2826972E-1,1.4445938E-2,3.2353783E-1,-3.360777E-2,1.914435E-1,-2.9657477E-1,7.0232436E-2,3.0955648E-1,2.4005732E-1,-3.077657E-1,4.9701836E-2,3.2649824E-1,-1.8393623E-2,3.3968264E-1,-2.9716387E-1,2.3379053E-1,1.7455392E-2,-3.2984403E-1,3.0416444E-1,-1.6583289E-1,8.513665E-2,2.965919E-1,-1.8827157E-1,-3.2184634E-2,2.3517093E-2,-3.245578E-1,2.6580304E-1,-1.4063455E-1,-3.062941E-1,9.953469E-2,-3.0142197E-1,-1.3245265E-1,2.0924732E-1,-2.545922E-1,3.2972413E-1,-9.147582E-3,-3.0379134E-1,1.01802684E-1,8.463523E-2,-2.991456E-1,9.4379194E-2,-2.8878394E-1,2.7795935E-1,-1.5217091E-1,1.09395586E-1,-3.032574E-1,1.847079E-1,-2.0728873E-1,-5.057092E-2,3.2491177E-1,1.23922445E-1,6.392496E-1,-4.38926E-2,-2.3158552E-1,1.1753795E-1,-3.1021336E-1,3.300361E-1,-1.8711463E-1],"split_indices":[319,188,92,214,225,381,223,162,321,7,337,225,337,77,268,81,376,162,14,102,88,119,339,223,10,223,321,239,325,329,243,9,339,0,231,366,305,7,77,365,88,366,231,304,145,119,0,79,36,304,24,79,185,3,319,234,331,225,162,361,83,256,256,0,0,0,0,0,0,0,0,0,0,0,0,0,0,0,0,0,0,0,0,0,0,0,0,0,0,0,0,0,0,0,0,0,0,0,0,0,0,0,0,0,0,0,0,0,0,0,0,0,0,0,0,0,0,0,0,0,0,0,0],"split_type":[0,0,0,0,0,0,0,0,0,0,0,0,0,0,0,0,0,0,0,0,0,0,0,0,0,0,0,0,0,0,0,0,0,0,0,0,0,0,0,0,0,0,0,0,0,0,0,0,0,0,0,0,0,0,0,0,0,0,0,0,0,0,0,0,0,0,0,0,0,0,0,0,0,0,0,0,0,0,0,0,0,0,0,0,0,0,0,0,0,0,0,0,0,0,0,0,0,0,0,0,0,0,0,0,0,0,0,0,0,0,0,0,0,0,0,0,0,0,0,0,0,0,0],"sum_hessian":[2.5488955E3,7.7858594E2,1.7703097E3,6.161382E2,1.6244774E2,1.1647957E3,6.05514E2,5.6582794E1,5.5955536E2,6.9858986E1,9.258875E1,9.1435803E2,2.5043765E2,4.8861456E2,1.1689941E2,3.0264471E1,2.6318325E1,1.6833302E1,5.427221E2,5.070425E1,1.9154732E1,8.085428E0,8.450333E1,1.0495992E2,8.093981E2,1.1466087E2,1.3577678E2,1.2250497E2,3.6610962E2,5.9379497E0,1.1096146E2,6.528578E0,2.3735893E1,1.7079782E0,2.4610346E1,9.974563E0,6.8587394E0,1.2617145E1,5.301049E2,4.509103E1,5.6132236E0,1.3561368E1,5.5933647E0,5.7940297E0,2.2913988E0,8.293557E1,1.5677528E0,6.4666534E1,4.0293392E1,7.8344867E2,2.594941E1,9.221287E1,2.2448006E1,7.246595E1,6.331083E1,3.4797665E1,8.7707306E1,7.539205E1,2.9071756E2,2.288497E0,3.6494527E0,1.085363E2,2.4251537E0,1.8706268E0,4.657951E0,2.0609858E1,3.1260347E0,2.307377E1,1.5365754E0,2.5180867E0,7.4564753E0,1.1450918E0,5.7136474E0,7.8129287E0,4.8042164E0,8.403727E0,5.2170123E2,2.9763348E0,4.2114693E1,3.4355621E0,2.1776614E0,1.0335783E0,1.252779E1,4.1518526E0,1.441512E0,1.0842476E0,4.709782E0,1.2843249E0,1.007074E0,3.748005E0,7.918757E1,3.185826E1,3.2808273E1,3.9192295E1,1.1010982E0,7.218121E2,6.1636585E1,1.4901647E1,1.1047763E1,7.2842285E1,1.937058E1,2.1418596E1,1.0294098E0,3.2818885E0,6.918406E1,4.492755E1,1.8383278E1,2.286997E1,1.1927695E1,6.8435273E0,8.086378E1,3.3442738E1,4.1949314E1,1.7285528E1,2.7343204E2,1.1675415E0,1.1209555E0,1.0034716E0,2.645981E0,1.0689213E0,1.0746738E2,1.0155084E0,1.4096453E0],"tree_param":{"num_deleted":"0","num_feature":"384","num_nodes":"123","size_leaf_vector":"1"}},{"base_weights":[-5.2977152E-2,4.2344868E-1,-5.1728666E-1,6.881828E-1,-7.763347E-1,3.1264567E-1,-6.973733E-1,9.032636E-1,-2.9075772E-1,3.1171697E-1,-9.028993E-1,-6.3245976E-1,6.25833E-1,-8.237038E-1,1.2708121E-2,1.0277833E0,1.4042225E-1,-7.813572E-1,7.3355937E-1,1.1874971E0,-3.622499E-1,-1.6527986E-3,-9.5667434E-1,1.624824E-1,-8.878998E-1,-2.6025766E-1,9.880395E-1,-3.951065E-1,-9.5247394E-1,3.348004E-1,-9.6955085E-1,1.0692201E0,3.046865E-1,-5.881199E-1,7.0847076E-1,3.4879515E-1,-9.4004756E-1,9.3663365E-1,-6.0056704E-1,1.4715068E0,-7.9352155E-2,7.905138E-1,-7.5019985E-1,7.361034E-1,-2.556997E-1,3.7896416E-1,-9.807956E-1,7.876523E-1,-5.219386E-1,8.5014574E-2,-1.0375983E0,6.405288E-1,-7.4934936E-1,3.2326397E-2,1.0664936E0,6.219628E-1,-6.407097E-1,-9.942843E-3,-9.767657E-1,7.5207186E-1,-4.79026E-1,-3.0515027E-1,7.1304575E-2,1.1944301E-1,3.3260992E-1,2.6259494E-1,-2.6961446E-1,8.0729306E-2,-2.881064E-1,2.4601367E-1,-2.966337E-1,2.977108E-1,-2.4158767E-1,1.495553E-1,-3.0255204E-1,3.108285E-1,-1.4558637E-1,1.8231553E-1,-2.9289603E-1,4.782873E-1,1.1380998E-1,-1.8780429E-2,3.6257792E-1,7.4434966E-2,-2.752193E-1,-1.654347E-1,3.2893708E-1,3.738323E-1,-1.411429E-1,5.977527E-2,-3.0182067E-1,-1.4455858E-1,3.5660994E-1,-2.8022665E-1,4.7647145E-2,2.9134437E-1,-2.6346686E-1,-8.236425E-3,-3.215689E-1,-1.4076394E-1,3.0237073E-1,-2.8420272E-1,1.5120468E-1,2.2688952E-1,-2.906242E-1,-9.7821005E-2,3.2805982E-1,2.7245098E-1,-2.6191285E-1,1.2137269E-1,-2.268647E-1,-2.1280484E-1,1.7590258E-1,1.4988896E-2,-2.975747E-1,3.064049E-1,-2.257434E-2,1.2443485E-1,-2.7160826E-1],"categories":[],"categories_nodes":[],"categories_segments":[],"categories_sizes":[],"default_left":[0,0,0,0,0,0,0,0,0,0,0,0,0,0,0,0,0,0,0,0,0,0,0,0,0,0,0,0,0,0,0,0,0,0,0,0,0,0,0,0,0,0,0,0,0,0,0,0,0,0,0,0,0,0,0,0,0,0,0,0,0,0,0,0,0,0,0,0,0,0,0,0,0,0,0,0,0,0,0,0,0,0,0,0,0,0,0,0,0,0,0,0,0,0,0,0,0,0,0,0,0,0,0,0,0,0,0,0,0,0,0,0,0,0,0,0,0,0,0],"id":7,"left_children":[1,3,5,7,9,11,13,15,17,19,21,23,25,27,29,31,33,35,37,39,41,43,45,47,49,51,53,55,57,59,61,63,65,67,69,71,73,75,77,79,-1,81,83,85,-1,87,89,91,93,95,97,99,101,103,105,107,109,111,113,115,117,-1,-1,-1,-1,-1,-1,-1,-1,-1,-1,-1,-1,-1,-1,-1,-1,-1,-1,-1,-1,-1,-1,-1,-1,-1,-1,-1,-1,-1,-1,-1,-1,-1,-1,-1,-1,-1,-1,-1,-1,-1,-1,-1,-1,-1,-1,-1,-1,-1,-1,-1,-1,-1,-1,-1,-1,-1,-1],"loss_changes":[4.6446753E2,3.2971237E2,1.5913983E2,1.791401E2,2.6144714E1,5.6717342E1,7.841531E1,6.6041626E1,7.78573E1,1.2420171E1,8.164581E0,9.862204E0,4.628786E1,4.0576874E1,4.240199E1,1.7617249E1,4.136022E1,1.9064018E1,1.4195576E1,4.128662E0,6.069485E0,7.210511E0,5.494522E0,5.752606E0,5.3858337E0,1.9162971E1,7.6145325E0,4.3648773E1,1.303833E1,3.4624065E1,2.1444206E0,1.4553772E1,2.4034824E1,1.4263224E1,1.1423838E1,1.089477E1,9.55114E0,6.7345047E0,3.8880947E0,4.3265724E-1,0E0,1.3491004E0,1.8425875E0,3.4600077E0,0E0,3.1952615E0,4.866852E0,4.0974236E0,1.989181E0,5.7818794E0,1.0653496E0,6.776564E0,7.4121885E0,7.0889244E0,3.9052048E0,1.5420221E1,1.720391E1,6.808793E0,8.691223E0,1.5022827E1,1.3640188E1,0E0,0E0,0E0,0E0,0E0,0E0,0E0,0E0,0E0,0E0,0E0,0E0,0E0,0E0,0E0,0E0,0E0,0E0,0E0,0E0,0E0,0E0,0E0,0E0,0E0,0E0,0E0,0E0,0E0,0E0,0E0,0E0,0E0,0E0,0E0,0E0,0E0,0E0,0E0,0E0,0E0,0E0,0E0,0E0,0E0,0E0,0E0,0E0,0E0,0E0,0E0,0E0,0E0,0E0,0E0,0E0,0E0,0E0],"parents":[2147483647,0,0,1,1,2,2,3,3,4,4,5,5,6,6,7,7,8,8,9,9,10,10,11,11,12,12,13,13,14,14,15,15,16,16,17,17,18,18,19,19,20,20,21,21,22,22,23,23,24,24,25,25,26,26,27,27,28,28,29,29,30,30,31,31,32,32,33,33,34,34,35,35,36,36,37,37,38,38,39,39,41,41,42,42,43,43,45,45,46,46,47,47,48,48,49,49,50,50,51,51,52,52,53,53,54,54,55,55,56,56,57,57,58,58,59,59,60,60],"right_children":[2,4,6,8,10,12,14,16,18,20,22,24,26,28,30,32,34,36,38,40,42,44,46,48,50,52,54,56,58,60,62,64,66,68,70,72,74,76,78,80,-1,82,84,86,-1,88,90,92,94,96,98,100,102,104,106,108,110,112,114,116,118,-1,-1,-1,-1,-1,-1,-1,-1,-1,-1,-1,-1,-1,-1,-1,-1,-1,-1,-1,-1,-1,-1,-1,-1,-1,-1,-1,-1,-1,-1,-1,-1,-1,-1,-1,-1,-1,-1,-1,-1,-1,-1,-1,-1,-1,-1,-1,-1,-1,-1,-1,-1,-1,-1,-1,-1,-1,-1],"split_conditions":[-3.799826E-2,-2.083391E-8,-4.9466427E-2,4.045006E-2,-4.2274285E-2,4.6489894E-33,6.0676493E-2,5.6171343E-2,3.3827082E-3,-1.2120872E-2,-6.0488977E-2,-3.3635605E-2,-2.8928276E-2,-2.223068E-2,-3.089505E-33,-5.4598098E-33,-5.9168437E-3,-2.602477E-2,4.3478057E-2,-2.1855906E-33,-5.389392E-2,-2.4839522E-33,-8.8226825E-2,-1.5250658E-2,-8.982125E-2,-1.6283195E-2,-7.1895555E-2,-4.4334345E-2,-6.6102535E-2,1.0310192E-2,7.453392E-2,-5.0275996E-2,2.825469E-2,-4.6080142E-2,9.861428E-2,2.2110282E-2,-4.742917E-2,7.2450645E-2,3.905854E-4,4.171069E-2,-7.9352155E-2,1.2819059E-2,-1.9225887E-8,8.055965E-3,-2.556997E-1,-3.8573775E-2,-8.563969E-2,-1.2854569E-2,8.804041E-3,-3.708803E-2,-8.35048E-2,-4.8928767E-2,5.4869734E-2,1.344081E-2,-8.189773E-2,-2.9200178E-33,-4.2640536E-8,-5.3118016E-3,-8.2534574E-2,4.1523434E-2,1.7049067E-3,-3.0515027E-1,7.1304575E-2,1.1944301E-1,3.3260992E-1,2.6259494E-1,-2.6961446E-1,8.0729306E-2,-2.881064E-1,2.4601367E-1,-2.966337E-1,2.977108E-1,-2.4158767E-1,1.495553E-1,-3.0255204E-1,3.108285E-1,-1.4558637E-1,1.8231553E-1,-2.9289603E-1,4.782873E-1,1.1380998E-1,-1.8780429E-2,3.6257792E-1,7.4434966E-2,-2.752193E-1,-1.654347E-1,3.2893708E-1,3.738323E-1,-1.411429E-1,5.977527E-2,-3.0182067E-1,-1.4455858E-1,3.5660994E-1,-2.8022665E-1,4.7647145E-2,2.9134437E-1,-2.6346686E-1,-8.236425E-3,-3.215689E-1,-1.4076394E-1,3.0237073E-1,-2.8420272E-1,1.5120468E-1,2.2688952E-1,-2.906242E-1,-9.7821005E-2,3.2805982E-1,2.7245098E-1,-2.6191285E-1,1.2137269E-1,-2.268647E-1,-2.1280484E-1,1.7590258E-1,1.4988896E-2,-2.975747E-1,3.064049E-1,-2.257434E-2,1.2443485E-1,-2.7160826E-1],"split_indices":[259,319,302,239,152,127,10,133,162,268,193,242,161,3,223,223,162,7,7,223,353,223,235,3,256,3,88,268,7,66,114,77,152,79,345,225,85,337,136,65,0,143,319,150,0,80,242,160,104,208,174,282,148,342,77,223,319,376,352,273,337,0,0,0,0,0,0,0,0,0,0,0,0,0,0,0,0,0,0,0,0,0,0,0,0,0,0,0,0,0,0,0,0,0,0,0,0,0,0,0,0,0,0,0,0,0,0,0,0,0,0,0,0,0,0,0,0,0,0],"split_type":[0,0,0,0,0,0,0,0,0,0,0,0,0,0,0,0,0,0,0,0,0,0,0,0,0,0,0,0,0,0,0,0,0,0,0,0,0,0,0,0,0,0,0,0,0,0,0,0,0,0,0,0,0,0,0,0,0,0,0,0,0,0,0,0,0,0,0,0,0,0,0,0,0,0,0,0,0,0,0,0,0,0,0,0,0,0,0,0,0,0,0,0,0,0,0,0,0,0,0,0,0,0,0,0,0,0,0,0,0,0,0,0,0,0,0,0,0,0,0],"sum_hessian":[2.0976868E3,1.0353782E3,1.0623087E3,8.485669E2,1.8681123E2,1.8927864E2,8.7303E2,6.957767E2,1.5279025E2,1.9313538E1,1.674977E2,4.6857452E1,1.4242119E2,7.410329E2,1.3199716E2,5.978427E2,9.793397E1,1.0347014E2,4.9320118E1,8.067868E0,1.1245669E1,9.489434E0,1.5800826E2,1.1483655E1,3.53738E1,4.1406677E1,1.0101451E2,1.7214275E2,5.6889014E2,9.98986E1,3.209857E1,5.649876E2,3.285506E1,4.2890312E1,5.504366E1,1.2592389E1,9.087775E1,4.306319E1,6.256928E0,6.7367406E0,1.3311276E0,2.5703626E0,8.675306E0,5.154155E0,4.33528E0,2.5420096E0,1.5546625E2,5.9227834E0,5.5608716E0,4.7746544E0,3.0599142E1,1.4461861E1,2.6944815E1,7.7702913E0,9.324422E1,3.3185528E1,1.3895721E2,1.4328954E1,5.5456116E2,6.6088875E1,3.3809727E1,3.1032017E1,1.0665543E0,3.2007477E1,5.3298016E2,2.247193E1,1.0383129E1,1.3069561E1,2.982075E1,5.213333E1,2.9103305E0,8.174194E0,4.418195E0,3.8429081E0,8.703484E1,4.0501507E1,2.5616832E0,1.3377792E0,4.919149E0,5.6425858E0,1.094155E0,1.1249995E0,1.445363E0,1.1750809E0,7.5002255E0,1.0111148E0,4.1430397E0,1.0268177E0,1.5151918E0,3.1154864E0,1.5235075E2,1.3734916E0,4.5492916E0,3.2320113E0,2.3288603E0,2.4825826E0,2.2920718E0,1.0639588E0,2.9535185E1,3.5278656E0,1.0933995E1,2.347988E1,3.4649365E0,4.651129E0,3.1191626E0,1.5653735E0,9.167885E1,2.8182703E1,5.002827E0,1.3578077E1,1.2537914E2,6.507006E0,7.8219476E0,8.030463E0,5.465307E2,4.968332E1,1.6405552E1,1.0927461E1,2.2882265E1],"tree_param":{"num_deleted":"0","num_feature":"384","num_nodes":"119","size_leaf_vector":"1"}},{"base_weights":[-4.800755E-2,3.5618252E-1,-5.3240556E-1,6.0974485E-1,-8.5970306E-1,-7.5519145E-1,1.1572371E-1,-3.507468E-1,7.721699E-1,-9.412302E-1,1.1691374E-1,-1.6407418E-1,-8.8557374E-1,-2.8446662E-1,7.1228033E-1,5.751007E-1,-7.426227E-1,2.341076E-1,9.3963945E-1,-9.57004E-1,1.6232611E-1,8.511507E-1,-2.6079154E-1,3.1511682E-1,-9.681262E-1,-9.3820274E-1,5.462798E-2,3.0178827E-1,-6.6379887E-1,9.3967706E-1,-8.1011903E-1,8.704916E-1,-3.2905146E-1,-9.2393434E-1,3.479802E-1,-2.7737215E-1,6.867028E-1,1.0064157E0,1.7983806E-1,-9.7779125E-1,-1.3116175E-1,-2.2104876E-1,1.4438965E0,8.620844E-1,-3.6115015E-1,-1.0037677E0,1.6230306E-2,-9.913037E-1,-4.0965378E-1,5.471992E-1,-6.7970043E-1,-2.7459186E-1,5.398206E-1,2.2993518E-1,-8.419271E-1,8.4733725E-2,1.0528941E0,-2.8137696E-1,7.096626E-2,2.9385E-1,-1.5013519E-1,1.2916929E-1,-2.779323E-1,-2.9693112E-1,1.1992087E-1,2.553879E-1,-2.0654993E-1,1.4839093E-1,-1.9626112E-1,-4.1941687E-2,2.5051856E-1,-5.90084E-2,3.1089696E-1,-1.16477594E-1,3.2339713E-1,4.384363E-2,-2.9703763E-1,3.1394494E-1,-2.2702919E-1,-2.051109E-1,1.5947968E-1,5.1772106E-1,3.726846E-2,-1.3119416E-1,2.9547143E-1,-2.7637544E-1,1.23539396E-1,-3.0833706E-1,-4.6854556E-2,-3.0109727E-1,6.4869985E-2,1.6582236E-1,-1.9792472E-1,3.3823934E-1,-2.1136349E-2,-2.9197705E-1,1.2886822E-1,-1.0609784E-1,2.8103763E-1,2.5391078E-1,-1.7632681E-1,-2.7571324E-1,4.3445427E-2,-2.3740238E-1,1.6050968E-1,1.2379374E-1,3.3594513E-1],"categories":[],"categories_nodes":[],"categories_segments":[],"categories_sizes":[],"default_left":[0,0,0,0,0,0,0,0,0,0,0,0,0,0,0,0,0,0,0,0,0,0,0,0,0,0,0,0,0,0,0,0,0,0,0,0,0,0,0,0,0,0,0,0,0,0,0,0,0,0,0,0,0,0,0,0,0,0,0,0,0,0,0,0,0,0,0,0,0,0,0,0,0,0,0,0,0,0,0,0,0,0,0,0,0,0,0,0,0,0,0,0,0,0,0,0,0,0,0,0,0,0,0,0,0,0,0],"id":8,"left_children":[1,3,5,7,9,11,13,15,17,19,21,23,25,27,29,31,33,35,37,39,-1,41,-1,43,45,47,49,51,53,55,57,59,61,63,65,67,69,71,73,75,77,79,81,83,85,87,-1,89,91,93,95,-1,97,99,101,103,105,-1,-1,-1,-1,-1,-1,-1,-1,-1,-1,-1,-1,-1,-1,-1,-1,-1,-1,-1,-1,-1,-1,-1,-1,-1,-1,-1,-1,-1,-1,-1,-1,-1,-1,-1,-1,-1,-1,-1,-1,-1,-1,-1,-1,-1,-1,-1,-1,-1,-1],"loss_changes":[3.3630453E2,2.8923102E2,1.1289989E2,1.21244995E2,1.3008865E1,4.4676086E1,4.8122772E1,4.1371418E1,5.9575012E1,4.0164795E0,1.0422403E1,4.1269894E1,2.3616333E1,2.7075338E1,2.8759422E1,9.400269E0,1.6086632E1,3.6961926E1,2.5478607E1,2.4196472E0,0E0,5.511671E0,0E0,2.5232252E1,1.5097694E0,1.2253174E1,9.8450365E0,1.4447323E1,1.1924301E1,6.7665443E0,1.6996555E0,4.375038E0,4.541448E0,6.3768997E0,6.893931E0,2.2224874E1,1.0485619E1,1.6923462E1,2.1886534E1,2.1495209E0,4.3275495E0,1.6782992E0,1.7919273E0,6.4221916E0,1.3726742E1,6.264992E-1,0E0,6.320862E0,1.0685966E1,5.896043E0,3.9871812E0,0E0,1.4842753E1,7.0657682E0,4.8246994E0,4.119892E0,2.2140656E0,0E0,0E0,0E0,0E0,0E0,0E0,0E0,0E0,0E0,0E0,0E0,0E0,0E0,0E0,0E0,0E0,0E0,0E0,0E0,0E0,0E0,0E0,0E0,0E0,0E0,0E0,0E0,0E0,0E0,0E0,0E0,0E0,0E0,0E0,0E0,0E0,0E0,0E0,0E0,0E0,0E0,0E0,0E0,0E0,0E0,0E0,0E0,0E0,0E0,0E0],"parents":[2147483647,0,0,1,1,2,2,3,3,4,4,5,5,6,6,7,7,8,8,9,9,10,10,11,11,12,12,13,13,14,14,15,15,16,16,17,17,18,18,19,19,21,21,23,23,24,24,25,25,26,26,27,27,28,28,29,29,30,30,31,31,32,32,33,33,34,34,35,35,36,36,37,37,38,38,39,39,40,40,41,41,42,42,43,43,44,44,45,45,47,47,48,48,49,49,50,50,52,52,53,53,54,54,55,55,56,56],"right_children":[2,4,6,8,10,12,14,16,18,20,22,24,26,28,30,32,34,36,38,40,-1,42,-1,44,46,48,50,52,54,56,58,60,62,64,66,68,70,72,74,76,78,80,82,84,86,88,-1,90,92,94,96,-1,98,100,102,104,106,-1,-1,-1,-1,-1,-1,-1,-1,-1,-1,-1,-1,-1,-1,-1,-1,-1,-1,-1,-1,-1,-1,-1,-1,-1,-1,-1,-1,-1,-1,-1,-1,-1,-1,-1,-1,-1,-1,-1,-1,-1,-1,-1,-1,-1,-1,-1,-1,-1,-1],"split_conditions":[-6.892106E-5,-1.9225887E-8,3.305705E-2,-6.106433E-2,5.0957087E-2,-6.73079E-2,7.013641E-5,-1.1709828E-2,-3.810304E-2,1.4285426E-1,-1.3970663E-33,-2.1245109E-8,1.04821496E-1,-1.3713492E-2,-1.946345E-8,2.5263013E-2,1.3551054E-2,3.0994087E-2,-2.2101144E-8,7.232892E-2,1.6232611E-1,1.576449E-2,-2.6079154E-1,-3.7514535E-3,8.2562916E-2,4.8510652E-2,2.8495101E-2,1.5582482E-33,-3.9924156E-2,-4.268663E-2,4.850653E-2,6.534503E-2,-5.853135E-3,4.715563E-2,3.83479E-2,-5.1300924E-2,-2.6705332E-2,-9.901432E-2,1.4006735E-2,-1.2566872E-1,-7.5742304E-2,2.5322689E-2,-1.0606767E-4,-3.8041685E-2,-4.8106246E-2,9.804451E-2,1.6230306E-2,1.1360391E-1,-5.319687E-2,-3.484419E-2,1.2271719E-2,-2.7459186E-1,-4.490217E-2,-9.874119E-33,2.3243215E-2,-3.47818E-2,-2.2803035E-2,-2.8137696E-1,7.096626E-2,2.9385E-1,-1.5013519E-1,1.2916929E-1,-2.779323E-1,-2.9693112E-1,1.1992087E-1,2.553879E-1,-2.0654993E-1,1.4839093E-1,-1.9626112E-1,-4.1941687E-2,2.5051856E-1,-5.90084E-2,3.1089696E-1,-1.16477594E-1,3.2339713E-1,4.384363E-2,-2.9703763E-1,3.1394494E-1,-2.2702919E-1,-2.051109E-1,1.5947968E-1,5.1772106E-1,3.726846E-2,-1.3119416E-1,2.9547143E-1,-2.7637544E-1,1.23539396E-1,-3.0833706E-1,-4.6854556E-2,-3.0109727E-1,6.4869985E-2,1.6582236E-1,-1.9792472E-1,3.3823934E-1,-2.1136349E-2,-2.9197705E-1,1.2886822E-1,-1.0609784E-1,2.8103763E-1,2.5391078E-1,-1.7632681E-1,-2.7571324E-1,4.3445427E-2,-2.3740238E-1,1.6050968E-1,1.2379374E-1,3.3594513E-1],"split_indices":[225,319,304,339,376,79,161,7,98,382,223,319,92,3,319,370,196,10,319,183,0,240,0,239,326,5,270,127,134,162,183,331,79,77,13,79,160,321,185,122,119,53,76,132,51,294,0,132,86,302,196,0,142,223,325,5,151,0,0,0,0,0,0,0,0,0,0,0,0,0,0,0,0,0,0,0,0,0,0,0,0,0,0,0,0,0,0,0,0,0,0,0,0,0,0,0,0,0,0,0,0,0,0,0,0,0,0],"split_type":[0,0,0,0,0,0,0,0,0,0,0,0,0,0,0,0,0,0,0,0,0,0,0,0,0,0,0,0,0,0,0,0,0,0,0,0,0,0,0,0,0,0,0,0,0,0,0,0,0,0,0,0,0,0,0,0,0,0,0,0,0,0,0,0,0,0,0,0,0,0,0,0,0,0,0,0,0,0,0,0,0,0,0,0,0,0,0,0,0,0,0,0,0,0,0,0,0,0,0,0,0,0,0,0,0,0,0],"sum_hessian":[1.7157214E3,9.3543933E2,7.8028217E2,7.7443604E2,1.6100334E2,5.8055786E2,1.997243E2,1.1185111E2,6.625849E2,1.4863191E2,1.2371426E1,1.0532081E2,4.7523703E2,1.19848816E2,7.987548E1,3.312419E1,7.872692E1,1.5784459E2,5.0474033E2,1.4741759E2,1.2143338E0,7.170193E0,5.201232E0,6.6372734E1,3.894808E1,4.5004718E2,2.518985E1,4.7163082E1,7.268573E1,6.982819E1,1.0047287E1,2.4995327E1,8.128865E0,6.763542E1,1.1091499E1,7.428356E1,8.356103E1,4.636658E2,4.107452E1,1.4361858E2,3.799009E0,2.7759466E0,4.3942466E0,3.6542355E1,2.983038E1,3.7653294E1,1.294784E0,4.0816513E2,4.1882042E1,1.5229242E1,9.960608E0,7.249584E0,3.9913498E1,1.2030999E1,6.0654736E1,8.370199E0,6.1457996E1,9.046556E0,1.0007298E0,2.341875E1,1.576578E0,3.701477E0,4.4273877E0,6.46711E1,2.9643257E0,7.5862837E0,3.5052161E0,2.4263243E1,5.0020325E1,1.2725408E1,7.083562E1,1.1111182E1,4.525546E2,2.5507994E1,1.5566526E1,1.4412057E0,1.4217737E2,1.0845921E0,2.7144167E0,1.7759E0,1.0000466E0,3.367375E0,1.0268717E0,2.934604E0,3.360775E1,1.7185434E1,1.2644946E1,3.640878E1,1.2445134E0,4.0419876E2,3.9663785E0,8.389225E0,3.3492817E1,7.426702E0,7.8025403E0,7.973182E0,1.9874253E0,1.2311841E1,2.7601658E1,6.8396845E0,5.191314E0,5.6321648E1,4.333087E0,2.5845249E0,5.7856746E0,6.4942064E0,5.496379E1],"tree_param":{"num_deleted":"0","num_feature":"384","num_nodes":"107","size_leaf_vector":"1"}},{"base_weights":[-4.418741E-2,3.6119607E-1,-4.6966138E-1,5.8975774E-1,-6.694306E-1,2.1249598E-2,-7.166449E-1,1.15885094E-1,9.4598174E-1,5.08427E-2,-8.8053215E-1,4.017935E-1,-6.051935E-1,-1.1963614E-1,-8.2642806E-1,-5.8349687E-1,4.883202E-1,1.1768274E-1,9.9402255E-1,8.6686134E-1,-3.777524E-1,-9.497763E-1,1.8011159E-1,6.761458E-1,-7.961023E-1,-7.963176E-1,8.035965E-1,-5.034856E-1,5.247227E-1,2.1530777E-1,-8.6179256E-1,-8.2302547E-1,3.5902673E-1,7.1548694E-1,-3.6558878E-1,-4.633305E-1,8.4640086E-1,-2.539113E-2,1.0137018E0,1.2221922E0,-1.3851035E-1,5.38735E-1,-7.019714E-1,-9.801969E-1,2.0326738E-1,-5.9235764E-1,1.0652045E0,-3.7208328E-1,9.213831E-1,-9.488789E-1,1.944545E-1,-9.6194994E-1,-1.8322075E-2,1.0595834E0,-1.4759676E-1,-7.617529E-1,2.608E-1,-2.4757482E-1,7.6082563E-1,-6.172286E-1,7.144489E-1,-9.076071E-1,-2.514927E-1,7.8085884E-2,-2.9393497E-1,-1.7974359E-1,2.0230877E-1,-2.3767093E-1,2.3550658E-1,-2.2125806E-1,1.5851665E-1,1.9416642E-1,-2.4415348E-1,-2.6739294E-2,2.9864866E-1,-2.1517098E-1,2.16717E-1,3.0891016E-1,-1.2729232E-2,5.7634003E-2,4.330627E-1,2.7445856E-1,-1.6995324E-1,5.672162E-2,-2.6246792E-1,-3.7508834E-2,-3.0560952E-1,-1.7324674E-1,2.8615582E-1,-2.2003217E-1,-1.6118264E-2,4.151787E-1,6.545102E-2,1.5051882E-1,-2.1939662E-1,-1.1296138E-1,2.9916796E-1,-7.462147E-3,-2.9653814E-1,2.8586763E-1,-1.8464363E-1,5.8870044E-2,-3.049512E-1,1.8659526E-1,-1.7345071E-1,-3.0743664E-2,3.6322787E-1,-2.462029E-4,-2.664427E-1,1.7198901E-1,-2.2055882E-1,3.0768496E-1,-8.045453E-2,-2.5642446E-1,7.119012E-2,2.8515708E-1,-1.0868971E-1,-2.8997228E-1,-1.6611175E-1,1.519867E-1,-2.262998E-1],"categories":[],"categories_nodes":[],"categories_segments":[],"categories_sizes":[],"default_left":[0,0,0,0,0,0,0,0,0,0,0,0,0,0,0,0,0,0,0,0,0,0,0,0,0,0,0,0,0,0,0,0,0,0,0,0,0,0,0,0,0,0,0,0,0,0,0,0,0,0,0,0,0,0,0,0,0,0,0,0,0,0,0,0,0,0,0,0,0,0,0,0,0,0,0,0,0,0,0,0,0,0,0,0,0,0,0,0,0,0,0,0,0,0,0,0,0,0,0,0,0,0,0,0,0,0,0,0,0,0,0,0,0,0,0,0,0,0,0,0,0],"id":9,"left_children":[1,3,5,7,9,11,13,15,17,19,21,23,25,27,29,31,33,35,37,39,41,43,45,47,49,51,53,55,57,59,61,63,65,67,69,71,73,75,77,79,-1,81,83,85,87,89,91,93,95,97,99,101,103,105,-1,107,109,-1,111,113,115,117,119,-1,-1,-1,-1,-1,-1,-1,-1,-1,-1,-1,-1,-1,-1,-1,-1,-1,-1,-1,-1,-1,-1,-1,-1,-1,-1,-1,-1,-1,-1,-1,-1,-1,-1,-1,-1,-1,-1,-1,-1,-1,-1,-1,-1,-1,-1,-1,-1,-1,-1,-1,-1,-1,-1,-1,-1,-1,-1],"loss_changes":[2.4458305E2,1.7146542E2,8.389731E1,1.0031824E2,2.0159409E1,5.5677166E1,3.0069412E1,6.708292E1,1.3391968E1,1.1144783E1,7.68869E0,4.827755E1,2.4408314E1,1.8236837E1,1.4502777E1,2.0516026E1,3.2827175E1,8.7520685E0,6.4602356E0,5.7356224E0,6.610771E0,3.5751877E0,5.494605E0,3.0864712E1,4.3505077E0,1.0063465E1,4.18374E0,9.288063E0,9.430227E0,6.075862E0,1.0286835E1,1.2434368E1,6.098202E0,1.4559563E1,1.2339504E1,5.054691E0,1.3598156E0,4.1654778E0,5.3610535E0,1.7558231E0,0E0,3.0320742E0,2.6196356E0,2.9657516E0,2.4860163E0,2.980802E-1,6.895356E-1,7.6569867E0,9.875679E0,8.5391426E-1,3.3559124E0,4.2735977E0,5.647557E0,1.7996998E0,0E0,3.3338623E0,4.2732487E0,0E0,6.8214693E0,1.3433182E0,2.617085E0,6.756775E0,1.0919982E1,0E0,0E0,0E0,0E0,0E0,0E0,0E0,0E0,0E0,0E0,0E0,0E0,0E0,0E0,0E0,0E0,0E0,0E0,0E0,0E0,0E0,0E0,0E0,0E0,0E0,0E0,0E0,0E0,0E0,0E0,0E0,0E0,0E0,0E0,0E0,0E0,0E0,0E0,0E0,0E0,0E0,0E0,0E0,0E0,0E0,0E0,0E0,0E0,0E0,0E0,0E0,0E0,0E0,0E0,0E0,0E0,0E0,0E0],"parents":[2147483647,0,0,1,1,2,2,3,3,4,4,5,5,6,6,7,7,8,8,9,9,10,10,11,11,12,12,13,13,14,14,15,15,16,16,17,17,18,18,19,19,20,20,21,21,22,22,23,23,24,24,25,25,26,26,27,27,28,28,29,29,30,30,31,31,32,32,33,33,34,34,35,35,36,36,37,37,38,38,39,39,41,41,42,42,43,43,44,44,45,45,46,46,47,47,48,48,49,49,50,50,51,51,52,52,53,53,55,55,56,56,58,58,59,59,60,60,61,61,62,62],"right_children":[2,4,6,8,10,12,14,16,18,20,22,24,26,28,30,32,34,36,38,40,42,44,46,48,50,52,54,56,58,60,62,64,66,68,70,72,74,76,78,80,-1,82,84,86,88,90,92,94,96,98,100,102,104,106,-1,108,110,-1,112,114,116,118,120,-1,-1,-1,-1,-1,-1,-1,-1,-1,-1,-1,-1,-1,-1,-1,-1,-1,-1,-1,-1,-1,-1,-1,-1,-1,-1,-1,-1,-1,-1,-1,-1,-1,-1,-1,-1,-1,-1,-1,-1,-1,-1,-1,-1,-1,-1,-1,-1,-1,-1,-1,-1,-1,-1,-1,-1,-1,-1],"split_conditions":[-1.5301674E-2,-2.083391E-8,-2.1373264E-2,-1.0932016E-2,-1.9639798E-2,3.570015E-2,-7.279354E-2,-3.3866655E-2,-4.513246E-2,-2.8413154E-2,5.2430913E-2,-3.59031E-33,7.074265E-2,4.5012478E-2,-4.906976E-8,5.710066E-3,3.374021E-2,-3.4261155E-3,-7.879426E-2,-1.7254363E-8,-8.504353E-2,7.3386334E-2,1.5012652E-33,-2.7730228E-2,4.765461E-2,-1.0530391E-2,7.019479E-2,-1.0360831E-2,2.061284E-33,-6.813989E-2,3.160417E-2,-3.2994047E-2,-2.064936E-2,-5.1263425E-2,7.281686E-2,-3.0667035E-2,-3.6445245E-2,-1.1083704E-2,8.482361E-2,-1.4111593E-2,-1.3851035E-1,2.9890148E-2,-5.2915655E-2,-4.991295E-2,1.6992336E-2,3.4822028E-2,-3.8573775E-2,-5.42077E-3,-9.080493E-2,-3.7428346E-2,-2.5486827E-2,-3.194094E-2,-8.693537E-3,-1.3734469E-2,-1.4759676E-1,-2.191951E-2,5.2129366E-2,-2.4757482E-1,3.427811E-2,-6.1459583E-3,2.7794095E-2,2.4745664E-2,-6.292949E-3,7.8085884E-2,-2.9393497E-1,-1.7974359E-1,2.0230877E-1,-2.3767093E-1,2.3550658E-1,-2.2125806E-1,1.5851665E-1,1.9416642E-1,-2.4415348E-1,-2.6739294E-2,2.9864866E-1,-2.1517098E-1,2.16717E-1,3.0891016E-1,-1.2729232E-2,5.7634003E-2,4.330627E-1,2.7445856E-1,-1.6995324E-1,5.672162E-2,-2.6246792E-1,-3.7508834E-2,-3.0560952E-1,-1.7324674E-1,2.8615582E-1,-2.2003217E-1,-1.6118264E-2,4.151787E-1,6.545102E-2,1.5051882E-1,-2.1939662E-1,-1.1296138E-1,2.9916796E-1,-7.462147E-3,-2.9653814E-1,2.8586763E-1,-1.8464363E-1,5.8870044E-2,-3.049512E-1,1.8659526E-1,-1.7345071E-1,-3.0743664E-2,3.6322787E-1,-2.462029E-4,-2.664427E-1,1.7198901E-1,-2.2055882E-1,3.0768496E-1,-8.045453E-2,-2.5642446E-1,7.119012E-2,2.8515708E-1,-1.0868971E-1,-2.8997228E-1,-1.6611175E-1,1.519867E-1,-2.262998E-1],"split_indices":[302,319,268,161,193,273,259,88,5,86,243,223,284,284,319,196,169,88,77,319,256,376,127,5,183,325,210,381,127,142,381,7,162,380,380,159,162,162,273,237,0,74,184,152,13,236,80,331,142,100,356,90,169,92,0,130,231,0,7,282,3,98,231,0,0,0,0,0,0,0,0,0,0,0,0,0,0,0,0,0,0,0,0,0,0,0,0,0,0,0,0,0,0,0,0,0,0,0,0,0,0,0,0,0,0,0,0,0,0,0,0,0,0,0,0,0,0,0,0,0,0],"split_type":[0,0,0,0,0,0,0,0,0,0,0,0,0,0,0,0,0,0,0,0,0,0,0,0,0,0,0,0,0,0,0,0,0,0,0,0,0,0,0,0,0,0,0,0,0,0,0,0,0,0,0,0,0,0,0,0,0,0,0,0,0,0,0,0,0,0,0,0,0,0,0,0,0,0,0,0,0,0,0,0,0,0,0,0,0,0,0,0,0,0,0,0,0,0,0,0,0,0,0,0,0,0,0,0,0,0,0,0,0,0,0,0,0,0,0,0,0,0,0,0,0],"sum_hessian":[1.4160526E3,7.2522406E2,6.9082855E2,5.9393506E2,1.3128899E2,2.3153581E2,4.5929276E2,2.554474E2,3.3848767E2,2.9929474E1,1.01359505E2,1.4426071E2,8.72751E1,7.166467E1,3.8762808E2,8.856597E1,1.6688144E2,1.8744936E1,3.1974274E2,9.954381E0,1.9975092E1,9.52459E1,6.113606E0,1.1773222E2,2.652848E1,7.7232124E1,1.0042978E1,4.5047916E1,2.661676E1,1.2559957E1,3.750681E2,7.072024E1,1.784573E1,1.3194263E2,3.49388E1,1.0632074E1,8.112861E0,6.0500827E0,3.1369266E2,7.9170027E0,2.0373785E0,5.046955E0,1.4928138E1,9.294369E1,2.302212E0,3.4411047E0,2.6725013E0,2.2223604E1,9.550862E1,2.3020096E1,3.5083845E0,6.348084E1,1.3751285E1,8.538138E0,1.5048403E0,3.3672592E1,1.1375324E1,3.5907187E0,2.3026041E1,4.619064E0,7.9408927E0,3.4842508E2,2.6643047E1,8.856289E0,6.1863953E1,4.19596E0,1.364977E1,5.358621E0,1.26584015E2,2.4797035E1,1.0141765E1,2.3475928E0,8.284482E0,1.1704922E0,6.9423685E0,3.1637943E0,2.8862884E0,3.0903625E2,4.656384E0,1.7307358E0,6.186267E0,3.89403E0,1.152925E0,2.4110258E0,1.2517112E1,4.187236E0,8.8756454E1,1.241462E0,1.06075E0,2.4402537E0,1.0008508E0,1.4812723E0,1.1912291E0,6.359093E0,1.5864511E1,5.053997E0,9.045463E1,1.0124953E0,2.20076E1,1.720638E0,1.7877464E0,2.7388074E0,6.0742035E1,6.3629184E0,7.3883657E0,1.0199671E0,7.518171E0,4.9396605E0,2.8732931E1,8.981691E0,2.393633E0,1.8316114E1,4.7099266E0,3.6142213E0,1.0048426E0,6.6090918E0,1.3318013E0,2.9717798E2,5.12471E1,1.0621637E1,1.602141E1],"tree_param":{"num_deleted":"0","num_feature":"384","num_nodes":"121","size_leaf_vector":"1"}},{"base_weights":[-4.066025E-2,3.653332E-1,-4.2920354E-1,6.751045E-1,-5.3624403E-1,-7.420243E-1,1.2269742E-1,8.612142E-1,-2.943661E-1,-8.285102E-1,1.9194016E-1,5.021187E-2,-8.42794E-1,4.7282737E-1,-4.6175388E-1,9.403268E-1,-8.179982E-2,5.069338E-1,-8.05722E-1,3.5174403E-1,-9.4989884E-1,-4.7945803E-1,7.841896E-1,-5.5237895E-1,6.0116565E-1,-2.3976615E-1,-9.048828E-1,6.3872343E-1,-8.1655276E-1,-7.215997E-1,3.464669E-1,-3.0626523E-1,9.7078645E-1,5.870923E-1,-8.409174E-1,-5.853315E-1,8.107135E-1,1.4159742E-1,-9.6301436E-1,8.321817E-1,-2.1367992E-1,-1.0130439E0,-1.11911975E-1,-9.511587E-1,1.2107255E-1,1.0981935E0,-5.35944E-1,-4.454616E-2,-9.1092706E-1,7.976095E-1,-1.9192562E-1,2.4678499E-1,-7.5230485E-1,-9.338693E-1,8.87072E-2,-3.6824852E-1,8.154552E-1,1.5115982E-1,-2.8290153E-1,1.097178E-3,-9.013089E-1,-4.3524936E-1,7.5180376E-1,-2.674836E-1,1.3689865E-1,3.0065835E-1,5.715954E-2,-1.2679593E-1,2.7378336E-1,4.6604685E-2,-3.2542437E-1,-2.4838626E-1,6.50775E-2,2.8013018E-1,-1.1966163E-1,2.0503241E-1,-2.0245965E-1,6.451702E-2,-3.0182752E-1,3.806251E-1,-2.872148E-2,6.9335185E-2,-3.1060314E-1,1.9733419E-1,-2.020252E-1,-4.7363985E-2,-3.036269E-1,1.7994222E-1,-2.294203E-1,4.9902126E-3,3.7350208E-1,-2.330755E-1,6.920389E-2,1.15838625E-1,-2.1250013E-1,-2.6567286E-2,-2.9733312E-1,-1.324828E-1,2.913361E-1,-2.4280651E-1,2.279466E-1,-2.786019E-1,8.940038E-2,-2.957127E-1,-1.4765586E-1,-1.2605728E-1,2.6675716E-1,1.290788E-1,-2.5405237E-1,2.723091E-1,-7.2751135E-2,2.785037E-1,-1.2597986E-1,-2.8783527E-1,5.6661088E-2,8.825942E-2,-2.7170196E-1,-9.171406E-2,2.903662E-1],"categories":[],"categories_nodes":[],"categories_segments":[],"categories_sizes":[],"default_left":[0,0,0,0,0,0,0,0,0,0,0,0,0,0,0,0,0,0,0,0,0,0,0,0,0,0,0,0,0,0,0,0,0,0,0,0,0,0,0,0,0,0,0,0,0,0,0,0,0,0,0,0,0,0,0,0,0,0,0,0,0,0,0,0,0,0,0,0,0,0,0,0,0,0,0,0,0,0,0,0,0,0,0,0,0,0,0,0,0,0,0,0,0,0,0,0,0,0,0,0,0,0,0,0,0,0,0,0,0,0,0,0,0,0,0,0,0,0,0],"id":10,"left_children":[1,3,5,7,9,11,13,15,17,19,21,23,25,27,29,31,33,35,37,39,41,43,45,47,49,51,53,55,57,59,61,63,65,67,69,71,73,75,77,79,-1,81,83,85,87,89,91,93,95,97,-1,99,101,103,105,107,109,-1,-1,111,113,115,117,-1,-1,-1,-1,-1,-1,-1,-1,-1,-1,-1,-1,-1,-1,-1,-1,-1,-1,-1,-1,-1,-1,-1,-1,-1,-1,-1,-1,-1,-1,-1,-1,-1,-1,-1,-1,-1,-1,-1,-1,-1,-1,-1,-1,-1,-1,-1,-1,-1,-1,-1,-1,-1,-1,-1,-1],"loss_changes":[1.8531715E2,1.608223E2,1.0372071E2,7.748787E1,3.154673E1,3.0637817E1,4.4828827E1,2.6887909E1,2.8962227E1,1.5439026E1,1.749504E1,1.5003146E1,1.2515015E1,2.9788599E1,1.7508366E1,1.2889923E1,1.5084745E1,9.685711E0,6.532507E0,5.9919147E0,4.959465E0,6.006727E0,1.0227899E1,3.8973374E0,6.254225E0,8.44111E0,8.951904E0,2.1974072E1,3.152731E0,8.1194E0,6.8761454E0,4.277133E0,7.748352E0,5.600242E0,3.5380974E0,1.468435E0,3.6677294E0,3.5510185E0,2.0910683E0,3.255972E0,0E0,2.7092896E0,3.8321497E0,4.0870953E-1,4.7149615E0,3.0142689E0,1.1288232E0,3.1327605E0,7.4475193E-1,4.898572E0,0E0,1.02248745E1,3.3088865E0,6.3679504E0,4.301641E0,7.576623E0,1.0361008E1,0E0,0E0,5.6396112E0,3.354416E0,2.9055514E0,3.489915E0,0E0,0E0,0E0,0E0,0E0,0E0,0E0,0E0,0E0,0E0,0E0,0E0,0E0,0E0,0E0,0E0,0E0,0E0,0E0,0E0,0E0,0E0,0E0,0E0,0E0,0E0,0E0,0E0,0E0,0E0,0E0,0E0,0E0,0E0,0E0,0E0,0E0,0E0,0E0,0E0,0E0,0E0,0E0,0E0,0E0,0E0,0E0,0E0,0E0,0E0,0E0,0E0,0E0,0E0,0E0,0E0],"parents":[2147483647,0,0,1,1,2,2,3,3,4,4,5,5,6,6,7,7,8,8,9,9,10,10,11,11,12,12,13,13,14,14,15,15,16,16,17,17,18,18,19,19,20,20,21,21,22,22,23,23,24,24,25,25,26,26,27,27,28,28,29,29,30,30,31,31,32,32,33,33,34,34,35,35,36,36,37,37,38,38,39,39,41,41,42,42,43,43,44,44,45,45,46,46,47,47,48,48,49,49,51,51,52,52,53,53,54,54,55,55,56,56,59,59,60,60,61,61,62,62],"right_children":[2,4,6,8,10,12,14,16,18,20,22,24,26,28,30,32,34,36,38,40,42,44,46,48,50,52,54,56,58,60,62,64,66,68,70,72,74,76,78,80,-1,82,84,86,88,90,92,94,96,98,-1,100,102,104,106,108,110,-1,-1,112,114,116,118,-1,-1,-1,-1,-1,-1,-1,-1,-1,-1,-1,-1,-1,-1,-1,-1,-1,-1,-1,-1,-1,-1,-1,-1,-1,-1,-1,-1,-1,-1,-1,-1,-1,-1,-1,-1,-1,-1,-1,-1,-1,-1,-1,-1,-1,-1,-1,-1,-1,-1,-1,-1,-1,-1,-1,-1],"split_conditions":[2.9982745E-3,-5.4598098E-33,2.2594692E-2,3.70463E-2,2.1390872E-2,-5.417305E-2,-4.0740328E-4,4.931417E-2,-1.7711194E-3,-5.2440442E-2,1.2632729E-2,3.769362E-2,-5.54177E-2,-1.9030187E-8,5.0435614E-2,-1.0965049E-1,3.920878E-2,-8.524421E-3,-1.5322146E-2,-1.6920215E-8,3.8983177E-2,-8.088629E-3,-1.777222E-33,1.6801422E-2,-1.9225887E-8,-1.7991918E-3,9.268159E-2,-5.894373E-2,-5.2688133E-2,-3.0470729E-2,1.1959653E-2,2.2244785E-2,9.9042885E-2,-3.775081E-2,-1.8097742E-2,2.6219446E-2,8.609578E-2,2.1702265E-2,-5.6946248E-2,-1.820775E-5,-2.1367992E-1,-9.1257036E-2,-3.5391726E-2,-5.497715E-2,-3.2039707E-33,-2.084096E-2,3.3636402E-2,-2.3631008E-8,-3.4947252E-8,-4.5339502E-2,-1.9192562E-1,3.2588487E-33,5.3650677E-2,1.7966898E-2,5.0040726E-2,3.98429E-3,7.934417E-2,1.5115982E-1,-2.8290153E-1,-3.5215504E-2,7.5375326E-2,7.578942E-3,-5.7671852E-2,-2.674836E-1,1.3689865E-1,3.0065835E-1,5.715954E-2,-1.2679593E-1,2.7378336E-1,4.6604685E-2,-3.2542437E-1,-2.4838626E-1,6.50775E-2,2.8013018E-1,-1.1966163E-1,2.0503241E-1,-2.0245965E-1,6.451702E-2,-3.0182752E-1,3.806251E-1,-2.872148E-2,6.9335185E-2,-3.1060314E-1,1.9733419E-1,-2.020252E-1,-4.7363985E-2,-3.036269E-1,1.7994222E-1,-2.294203E-1,4.9902126E-3,3.7350208E-1,-2.330755E-1,6.920389E-2,1.15838625E-1,-2.1250013E-1,-2.6567286E-2,-2.9733312E-1,-1.324828E-1,2.913361E-1,-2.4280651E-1,2.279466E-1,-2.786019E-1,8.940038E-2,-2.957127E-1,-1.4765586E-1,-1.2605728E-1,2.6675716E-1,1.290788E-1,-2.5405237E-1,2.723091E-1,-7.2751135E-2,2.785037E-1,-1.2597986E-1,-2.8783527E-1,5.6661088E-2,8.825942E-2,-2.7170196E-1,-9.171406E-2,2.903662E-1],"split_indices":[7,223,304,3,243,3,3,102,370,340,376,92,62,319,10,321,136,247,337,319,325,304,223,277,319,239,284,339,277,342,5,148,188,162,359,148,164,81,231,169,0,78,286,175,223,114,291,319,319,77,0,127,185,325,382,331,133,0,0,255,132,231,161,0,0,0,0,0,0,0,0,0,0,0,0,0,0,0,0,0,0,0,0,0,0,0,0,0,0,0,0,0,0,0,0,0,0,0,0,0,0,0,0,0,0,0,0,0,0,0,0,0,0,0,0,0,0,0,0],"split_type":[0,0,0,0,0,0,0,0,0,0,0,0,0,0,0,0,0,0,0,0,0,0,0,0,0,0,0,0,0,0,0,0,0,0,0,0,0,0,0,0,0,0,0,0,0,0,0,0,0,0,0,0,0,0,0,0,0,0,0,0,0,0,0,0,0,0,0,0,0,0,0,0,0,0,0,0,0,0,0,0,0,0,0,0,0,0,0,0,0,0,0,0,0,0,0,0,0,0,0,0,0,0,0,0,0,0,0,0,0,0,0,0,0,0,0,0,0,0,0],"sum_hessian":[1.1727876E3,5.735442E2,5.9924335E2,4.2706195E2,1.4648225E2,3.8224188E2,2.1700148E2,3.58376E2,6.868594E1,1.044301E2,4.205216E1,4.319003E1,3.3905185E2,1.3582385E2,8.1177635E1,3.3064035E2,2.7735672E1,2.6760546E1,4.19254E1,9.561968E0,9.486813E1,1.9798367E1,2.2253792E1,2.0627102E1,2.2562925E1,3.2104397E1,3.0694745E2,1.2078754E2,1.5036313E1,6.150934E1,1.9668295E1,7.6702995E0,3.2297003E2,1.4864509E1,1.2871163E1,5.6214232E0,2.1139124E1,5.98422E0,3.594118E1,6.737592E0,2.8243752E0,8.802618E1,6.84196E0,1.0761575E1,9.036793E0,1.8113482E1,4.1403117E0,9.001701E0,1.16254015E1,1.9787672E1,2.775252E0,1.6735731E1,1.5368664E1,2.9830496E2,8.642498E0,1.7872272E1,1.0291527E2,1.053281E0,1.3983031E1,1.2447172E1,4.906217E1,6.6908317E0,1.2977463E1,4.2437377E0,3.426562E0,3.1019897E2,1.2771058E1,3.5510151E0,1.1313494E1,2.6021059E0,1.0269057E1,4.2915254E0,1.3298979E0,1.9394142E1,1.7449801E0,3.6949792E0,2.289241E0,1.1270305E0,3.4814148E1,4.3321114E0,2.405481E0,1.3850852E0,8.664109E1,2.8136475E0,4.028312E0,1.0237815E0,9.737793E0,6.0759244E0,2.960868E0,2.297957E0,1.5815524E1,3.1399095E0,1.0004025E0,5.713194E0,3.2885072E0,1.2197665E0,1.0405635E1,2.2405384E0,1.7547134E1,5.2828526E0,1.1452879E1,1.3258152E1,2.1105115E0,2.6586862E2,3.243632E1,5.5739813E0,3.068517E0,6.7354493E0,1.1136823E1,9.479249E1,8.12278E0,3.5106382E0,8.936534E0,4.6691887E1,2.3702815E0,2.7700908E0,3.9207406E0,2.1314256E0,1.0846037E1],"tree_param":{"num_deleted":"0","num_feature":"384","num_nodes":"119","size_leaf_vector":"1"}},{"base_weights":[-3.9147094E-2,-4.1103455E-1,3.59578E-1,-6.166965E-1,2.4510205E-1,6.0152674E-1,-1.9686823E-1,4.2142738E-3,-7.383827E-1,5.259388E-1,-9.086624E-1,-3.9268136E-1,7.2282743E-1,-6.342544E-1,3.466563E-1,3.1978002E-1,-8.044931E-1,-1.7795962E-1,-8.25141E-1,7.2076404E-1,-4.9220657E-1,8.421764E-2,-2.920984E-1,-7.8467375E-1,1.8449168E-1,8.196228E-1,-3.205505E-1,3.2162946E-2,-8.4141684E-1,7.769733E-1,-6.105E-1,5.6243074E-1,-6.5517795E-1,1.23282164E-1,-9.1206586E-1,-7.070046E-1,2.731601E-1,-8.7158257E-1,-3.234846E-2,-4.224292E-1,8.325605E-1,4.0266123E-1,-8.1335723E-1,4.2103443E-2,-9.439404E-1,-3.5358644E-1,7.785902E-1,9.100371E-1,2.3478827E-1,-8.6963904E-1,2.6869002E-1,6.363954E-1,-3.917041E-1,-9.331864E-1,5.4887157E-2,2.926258E-2,9.7214496E-1,5.744856E-1,-8.8096035E-1,-3.374097E-2,2.609689E-1,-2.5955385E-1,2.7839983E-2,1.842258E-2,-2.9668373E-1,1.414741E-1,-2.4443224E-1,-1.8060935E-1,2.4001709E-1,-2.8282112E-1,-1.3187814E-1,1.5994108E-1,-1.6995874E-1,1.4647011E-1,-2.0303787E-1,2.9115048E-1,-2.0566594E-2,-1.336052E-1,2.2657284E-1,4.4510495E-2,-2.740412E-1,2.0038931E-1,-1.719088E-1,-2.9987982E-1,-4.3227274E-2,1.419326E-1,-2.406538E-1,-2.9263042E-2,3.1601265E-1,2.7980933E-1,-1.350745E-1,-9.918269E-2,2.32498E-1,-3.17864E-1,1.3322456E-1,-1.8226607E-1,2.114269E-1,-4.0827326E-2,2.711029E-1,-2.325996E-1,9.491661E-2,-3.0453563E-1,-3.8251E-2,-1.564819E-1,2.2473677E-1,1.6452728E-1,-2.1045367E-1,-4.1393045E-2,3.0616838E-1,-3.7643224E-2,3.230831E-1,-2.905072E-1,7.539314E-2],"categories":[],"categories_nodes":[],"categories_segments":[],"categories_sizes":[],"default_left":[0,0,0,0,0,0,0,0,0,0,0,0,0,0,0,0,0,0,0,0,0,0,0,0,0,0,0,0,0,0,0,0,0,0,0,0,0,0,0,0,0,0,0,0,0,0,0,0,0,0,0,0,0,0,0,0,0,0,0,0,0,0,0,0,0,0,0,0,0,0,0,0,0,0,0,0,0,0,0,0,0,0,0,0,0,0,0,0,0,0,0,0,0,0,0,0,0,0,0,0,0,0,0,0,0,0,0,0,0,0,0,0,0],"id":11,"left_children":[1,3,5,7,9,11,13,15,17,19,21,23,25,27,29,31,33,35,37,39,41,-1,-1,43,45,47,49,51,53,55,57,59,61,-1,63,65,67,69,71,73,75,77,79,81,83,85,87,89,91,93,95,97,99,101,103,105,107,109,111,-1,-1,-1,-1,-1,-1,-1,-1,-1,-1,-1,-1,-1,-1,-1,-1,-1,-1,-1,-1,-1,-1,-1,-1,-1,-1,-1,-1,-1,-1,-1,-1,-1,-1,-1,-1,-1,-1,-1,-1,-1,-1,-1,-1,-1,-1,-1,-1,-1,-1,-1,-1,-1,-1],"loss_changes":[1.4387593E2,6.789133E1,6.3166775E1,2.8901932E1,3.9526352E1,3.967518E1,3.4136784E1,1.6505829E1,1.5402817E1,1.9705729E1,2.1255054E0,8.327268E0,2.9699219E1,1.0989733E1,2.6942942E1,1.1372576E1,2.748598E0,1.0729469E1,1.0158127E1,1.0868931E1,5.0013638E0,0E0,0E0,2.9009247E0,5.2102404E0,1.3904831E1,8.472114E0,5.318786E0,5.0368576E0,6.505224E0,7.0732093E0,7.938096E0,1.6088777E0,0E0,1.3322668E0,3.000434E0,1.1802509E1,7.617859E0,5.2404656E0,2.182168E0,9.426048E0,1.8205502E0,1.3197231E0,2.1024733E0,6.6895676E-1,3.6386886E0,1.9442725E0,7.537567E0,1.158737E1,3.8177862E0,5.413216E0,1.886591E0,3.5735571E0,3.5037804E0,3.0218196E0,4.2919207E0,2.0474434E0,1.6871957E0,1.9333181E0,0E0,0E0,0E0,0E0,0E0,0E0,0E0,0E0,0E0,0E0,0E0,0E0,0E0,0E0,0E0,0E0,0E0,0E0,0E0,0E0,0E0,0E0,0E0,0E0,0E0,0E0,0E0,0E0,0E0,0E0,0E0,0E0,0E0,0E0,0E0,0E0,0E0,0E0,0E0,0E0,0E0,0E0,0E0,0E0,0E0,0E0,0E0,0E0,0E0,0E0,0E0,0E0,0E0,0E0],"parents":[2147483647,0,0,1,1,2,2,3,3,4,4,5,5,6,6,7,7,8,8,9,9,10,10,11,11,12,12,13,13,14,14,15,15,16,16,17,17,18,18,19,19,20,20,23,23,24,24,25,25,26,26,27,27,28,28,29,29,30,30,31,31,32,32,34,34,35,35,36,36,37,37,38,38,39,39,40,40,41,41,42,42,43,43,44,44,45,45,46,46,47,47,48,48,49,49,50,50,51,51,52,52,53,53,54,54,55,55,56,56,57,57,58,58],"right_children":[2,4,6,8,10,12,14,16,18,20,22,24,26,28,30,32,34,36,38,40,42,-1,-1,44,46,48,50,52,54,56,58,60,62,-1,64,66,68,70,72,74,76,78,80,82,84,86,88,90,92,94,96,98,100,102,104,106,108,110,112,-1,-1,-1,-1,-1,-1,-1,-1,-1,-1,-1,-1,-1,-1,-1,-1,-1,-1,-1,-1,-1,-1,-1,-1,-1,-1,-1,-1,-1,-1,-1,-1,-1,-1,-1,-1,-1,-1,-1,-1,-1,-1,-1,-1,-1,-1,-1,-1,-1,-1,-1,-1,-1,-1],"split_conditions":[4.4822898E-2,1.4048109E-2,-2.357906E-3,-4.5731887E-2,-2.677921E-33,2.9379257E-33,-1.6107973E-2,4.3778956E-2,-3.2238733E-2,6.387692E-2,-7.7460885E-2,-1.0268002E-4,9.4450034E-2,-2.5174143E-2,-2.1245109E-8,-4.1352113E-33,-8.161697E-2,6.6626035E-33,7.36981E-2,-3.594975E-2,-3.7536405E-3,8.421764E-2,-2.920984E-1,-4.1454747E-2,1.8342389E-2,5.2630022E-2,-1.2271381E-2,-3.299208E-8,5.6683823E-2,-1.0194155E-4,-2.046343E-2,-2.956963E-2,1.3394186E-3,1.23282164E-1,-2.9908061E-2,-8.437397E-2,-1.4081546E-2,6.1806723E-2,-1.4643078E-2,-5.265175E-2,3.4368932E-2,-1.9519906E-2,-4.068133E-2,-1.5652789E-2,3.955296E-2,-3.3635605E-2,6.950522E-3,9.588368E-2,-7.6573924E-3,3.421115E-2,-3.0509105E-2,-3.525783E-2,1.4958067E-2,4.252343E-2,2.0721544E-2,4.8050832E-2,-7.431686E-2,4.2286057E-2,4.1992377E-2,-3.374097E-2,2.609689E-1,-2.5955385E-1,2.7839983E-2,1.842258E-2,-2.9668373E-1,1.414741E-1,-2.4443224E-1,-1.8060935E-1,2.4001709E-1,-2.8282112E-1,-1.3187814E-1,1.5994108E-1,-1.6995874E-1,1.4647011E-1,-2.0303787E-1,2.9115048E-1,-2.0566594E-2,-1.336052E-1,2.2657284E-1,4.4510495E-2,-2.740412E-1,2.0038931E-1,-1.719088E-1,-2.9987982E-1,-4.3227274E-2,1.419326E-1,-2.406538E-1,-2.9263042E-2,3.1601265E-1,2.7980933E-1,-1.350745E-1,-9.918269E-2,2.32498E-1,-3.17864E-1,1.3322456E-1,-1.8226607E-1,2.114269E-1,-4.0827326E-2,2.711029E-1,-2.325996E-1,9.491661E-2,-3.0453563E-1,-3.8251E-2,-1.564819E-1,2.2473677E-1,1.6452728E-1,-2.1045367E-1,-4.1393045E-2,3.0616838E-1,-3.7643224E-2,3.230831E-1,-2.905072E-1,7.539314E-2],"split_indices":[92,161,119,268,223,127,142,273,7,231,26,243,188,225,319,223,119,127,5,376,165,0,0,152,20,273,364,319,304,148,193,88,250,0,337,55,214,284,255,41,234,162,337,268,186,242,376,48,279,279,56,162,98,98,57,65,162,260,243,0,0,0,0,0,0,0,0,0,0,0,0,0,0,0,0,0,0,0,0,0,0,0,0,0,0,0,0,0,0,0,0,0,0,0,0,0,0,0,0,0,0,0,0,0,0,0,0,0,0,0,0,0,0],"split_type":[0,0,0,0,0,0,0,0,0,0,0,0,0,0,0,0,0,0,0,0,0,0,0,0,0,0,0,0,0,0,0,0,0,0,0,0,0,0,0,0,0,0,0,0,0,0,0,0,0,0,0,0,0,0,0,0,0,0,0,0,0,0,0,0,0,0,0,0,0,0,0,0,0,0,0,0,0,0,0,0,0,0,0,0,0,0,0,0,0,0,0,0,0,0,0,0,0,0,0,0,0,0,0,0,0,0,0,0,0,0,0,0,0],"sum_hessian":[9.6829663E2,5.0099347E2,4.6730316E2,3.814808E2,1.1951267E2,3.256333E2,1.4166985E2,6.2669846E1,3.1881097E2,9.6554565E1,2.2958107E1,3.5166157E1,2.9046716E2,7.840704E1,6.32628E1,4.551429E1,1.7155554E1,4.3147446E1,2.756635E2,8.1291306E1,1.5263259E1,1.0176495E0,2.1940458E1,2.0728615E1,1.4437543E1,2.660041E2,2.4463057E1,1.8793928E1,5.9613113E1,4.3772064E1,1.9490736E1,3.678279E1,8.731499E0,1.1656045E0,1.598995E1,1.9597502E1,2.3549944E1,2.6031497E2,1.5348548E1,6.9940367E0,7.429727E1,3.9639983E0,1.1299261E1,3.4669244E0,1.726169E1,7.788391E0,6.6491513E0,2.2990514E2,3.6098953E1,1.2416644E1,1.2046413E1,7.5416813E0,1.1252248E1,5.403908E1,5.5740294E0,9.2986145E0,3.447345E1,3.4130068E0,1.6077728E1,1.1710943E1,2.5071848E1,6.695099E0,2.0363998E0,1.1851021E0,1.4804849E1,1.3590363E0,1.8238464E1,8.79635E0,1.4753594E1,2.2248615E2,3.782883E1,7.456756E0,7.8917923E0,1.326286E0,5.6677504E0,6.436708E1,9.930194E0,1.0868487E0,2.8771496E0,1.0198846E0,1.0279376E1,1.6759048E0,1.7910198E0,1.5905165E1,1.3565248E0,2.7204058E0,5.0679855E0,1.7415045E0,4.907647E0,2.2644716E2,3.4579804E0,1.782778E1,1.8271175E1,1.10174675E1,1.3991761E0,3.8722165E0,8.174197E0,2.064824E0,5.476857E0,7.2366467E0,4.0156007E0,4.8814995E1,5.224089E0,3.1811013E0,2.3929281E0,5.582319E0,3.716296E0,1.3633682E0,3.311008E1,1.739718E0,1.6732887E0,1.506005E1,1.0176791E0],"tree_param":{"num_deleted":"0","num_feature":"384","num_nodes":"113","size_leaf_vector":"1"}},{"base_weights":[-3.6105845E-2,2.695412E-1,-4.8347634E-1,4.2274857E-1,-8.6587393E-1,-1.12301834E-1,-7.766326E-1,4.1219056E-2,7.5621676E-1,2.1904508E-2,-9.357555E-1,3.534423E-1,-8.677679E-1,6.684035E-2,-8.853143E-1,4.1507798E-1,-4.7234076E-1,8.82705E-1,2.1827573E-1,2.3006092E-1,-1.6647716E-1,3.0460747E-2,-9.5862144E-1,6.541742E-1,-4.5221695E-1,-9.4868124E-1,4.4452515E-1,4.3631634E-1,-6.440706E-1,-2.1888131E-1,-9.477059E-1,6.609639E-1,-2.1790218E-1,3.3961505E-1,-7.130181E-1,3.365819E-1,9.620337E-1,4.3882325E-1,-9.0864295E-1,-9.798469E-1,-2.6549356E-2,-1.418912E-1,8.512922E-1,6.2951714E-1,-7.499672E-1,1.2473002E-5,-9.832502E-1,2.6236653E-1,-9.075379E-2,-5.549953E-1,6.733247E-1,-8.7363356E-1,1.1862152E-1,-6.3724124E-1,5.305456E-1,-9.6895826E-1,1.7263286E-1,2.5951284E-1,-2.5969993E-2,1.4483686E-1,-2.4027705E-1,-1.23273455E-1,2.2609173E-1,-2.559748E-1,7.550234E-2,-1.9281785E-1,2.1991505E-1,2.7764723E-2,2.9921755E-1,1.940868E-1,-1.3342935E-1,-7.6910555E-2,-2.91589E-1,-6.310788E-2,-2.979885E-1,-1.8432838E-1,1.6309948E-1,2.8269246E-1,-6.0223628E-2,2.5909907E-1,-8.199191E-2,1.5116371E-1,-2.6154253E-1,-1.4725821E-2,-3.004411E-1,-2.0611463E-1,-3.5113223E-2,3.0031708E-1,-3.5074994E-2,-3.0246833E-1,-1.9507535E-2,7.88233E-2,-2.4597393E-1,2.595884E-1,-1.579527E-1,-2.9682088E-1,-6.5998095E-3,1.8347943E-1,-1.4291766E-1],"categories":[],"categories_nodes":[],"categories_segments":[],"categories_sizes":[],"default_left":[0,0,0,0,0,0,0,0,0,0,0,0,0,0,0,0,0,0,0,0,0,0,0,0,0,0,0,0,0,0,0,0,0,0,0,0,0,0,0,0,0,0,0,0,0,0,0,0,0,0,0,0,0,0,0,0,0,0,0,0,0,0,0,0,0,0,0,0,0,0,0,0,0,0,0,0,0,0,0,0,0,0,0,0,0,0,0,0,0,0,0,0,0,0,0,0,0,0,0],"id":12,"left_children":[1,3,5,7,9,11,13,15,17,19,21,23,25,27,29,31,33,35,37,-1,-1,-1,39,41,43,45,47,49,51,53,55,57,59,61,63,65,67,69,71,73,-1,75,77,79,81,-1,83,-1,-1,85,87,89,-1,91,93,95,97,-1,-1,-1,-1,-1,-1,-1,-1,-1,-1,-1,-1,-1,-1,-1,-1,-1,-1,-1,-1,-1,-1,-1,-1,-1,-1,-1,-1,-1,-1,-1,-1,-1,-1,-1,-1,-1,-1,-1,-1,-1,-1],"loss_changes":[1.11304665E2,8.450374E1,3.5861244E1,5.427533E1,3.6084633E0,5.201364E1,1.6964615E1,3.862152E1,1.5301468E1,2.6589303E0,1.3695145E0,2.2494307E1,6.4035034E0,6.0542784E0,6.5882263E0,1.825316E1,1.6810137E1,7.6490784E0,1.1502973E1,0E0,0E0,0E0,8.8428116E-1,1.0654045E1,8.683691E0,1.7507935E0,1.5343711E0,3.911804E0,2.2354786E0,5.132411E0,3.718399E0,1.2896759E1,1.3992213E1,6.543702E0,9.105286E0,1.0131079E1,4.8313293E0,7.283371E0,6.6301346E-2,3.2112503E-1,0E0,4.9275284E0,5.3546066E0,1.5142372E0,3.5631886E0,0E0,8.274994E-1,0E0,0E0,1.19331956E-1,3.3816295E0,6.74438E-1,0E0,1.90344E0,2.587109E0,2.8148804E0,1.324214E0,0E0,0E0,0E0,0E0,0E0,0E0,0E0,0E0,0E0,0E0,0E0,0E0,0E0,0E0,0E0,0E0,0E0,0E0,0E0,0E0,0E0,0E0,0E0,0E0,0E0,0E0,0E0,0E0,0E0,0E0,0E0,0E0,0E0,0E0,0E0,0E0,0E0,0E0,0E0,0E0,0E0,0E0],"parents":[2147483647,0,0,1,1,2,2,3,3,4,4,5,5,6,6,7,7,8,8,9,9,10,10,11,11,12,12,13,13,14,14,15,15,16,16,17,17,18,18,22,22,23,23,24,24,25,25,26,26,27,27,28,28,29,29,30,30,31,31,32,32,33,33,34,34,35,35,36,36,37,37,38,38,39,39,41,41,42,42,43,43,44,44,46,46,49,49,50,50,51,51,53,53,54,54,55,55,56,56],"right_children":[2,4,6,8,10,12,14,16,18,20,22,24,26,28,30,32,34,36,38,-1,-1,-1,40,42,44,46,48,50,52,54,56,58,60,62,64,66,68,70,72,74,-1,76,78,80,82,-1,84,-1,-1,86,88,90,-1,92,94,96,98,-1,-1,-1,-1,-1,-1,-1,-1,-1,-1,-1,-1,-1,-1,-1,-1,-1,-1,-1,-1,-1,-1,-1,-1,-1,-1,-1,-1,-1,-1,-1,-1,-1,-1,-1,-1,-1,-1,-1,-1,-1,-1],"split_conditions":[5.753728E-3,-2.677921E-33,-1.1128583E-3,-1.2889022E-2,-6.435135E-2,-2.2951223E-8,-5.412969E-2,-2.0466194E-2,4.889762E-2,-7.0117554E-3,-8.8226825E-2,5.64535E-2,6.738503E-2,1.729428E-2,-2.8737638E-2,1.2400319E-2,-3.9554093E-2,3.98727E-33,6.299571E-2,2.3006092E-1,-1.6647716E-1,3.0460747E-2,7.6961376E-2,-4.0945325E-2,-1.7922027E-2,-8.5616305E-2,-1.265844E-2,4.3291455E-33,4.516836E-2,3.1462293E-2,6.9534555E-2,3.192578E-2,-5.0044046E-3,-2.6205162E-2,1.9661183E-2,-4.53082E-2,-5.210673E-2,4.6065614E-2,-2.4572501E-2,-1.0378666E-1,-2.6549356E-2,1.0282377E-5,4.1234165E-2,1.9526197E-2,-8.066611E-2,1.2473002E-5,-8.676698E-2,2.6236653E-1,-9.075379E-2,-5.449628E-3,2.7850544E-2,-6.3533406E-3,1.1862152E-1,-3.6221303E-2,-4.767014E-33,9.4219245E-2,3.1849887E-2,2.5951284E-1,-2.5969993E-2,1.4483686E-1,-2.4027705E-1,-1.23273455E-1,2.2609173E-1,-2.559748E-1,7.550234E-2,-1.9281785E-1,2.1991505E-1,2.7764723E-2,2.9921755E-1,1.940868E-1,-1.3342935E-1,-7.6910555E-2,-2.91589E-1,-6.310788E-2,-2.979885E-1,-1.8432838E-1,1.6309948E-1,2.8269246E-1,-6.0223628E-2,2.5909907E-1,-8.199191E-2,1.5116371E-1,-2.6154253E-1,-1.4725821E-2,-3.004411E-1,-2.0611463E-1,-3.5113223E-2,3.0031708E-1,-3.5074994E-2,-3.0246833E-1,-1.9507535E-2,7.88233E-2,-2.4597393E-1,2.595884E-1,-1.579527E-1,-2.9682088E-1,-6.5998095E-3,1.8347943E-1,-1.4291766E-1],"split_indices":[225,223,239,98,268,319,302,79,133,279,235,188,291,350,273,340,234,127,7,0,0,0,183,279,337,286,159,127,260,151,162,7,152,162,325,190,5,215,269,41,0,364,169,7,119,0,263,0,0,228,331,96,0,75,223,349,27,0,0,0,0,0,0,0,0,0,0,0,0,0,0,0,0,0,0,0,0,0,0,0,0,0,0,0,0,0,0,0,0,0,0,0,0,0,0,0,0,0,0],"split_type":[0,0,0,0,0,0,0,0,0,0,0,0,0,0,0,0,0,0,0,0,0,0,0,0,0,0,0,0,0,0,0,0,0,0,0,0,0,0,0,0,0,0,0,0,0,0,0,0,0,0,0,0,0,0,0,0,0,0,0,0,0,0,0,0,0,0,0,0,0,0,0,0,0,0,0,0,0,0,0,0,0,0,0,0,0,0,0,0,0,0,0,0,0,0,0,0,0,0,0],"sum_hessian":[8.120496E2,4.8267786E2,3.293718E2,4.2584418E2,5.6833664E1,1.459557E2,1.834161E2,1.9913374E2,2.2671043E2,4.197317E0,5.263635E1,9.062043E1,5.5335266E1,2.0979595E1,1.6243651E2,1.1535205E2,8.378169E1,1.830324E2,4.3678036E1,1.6879263E0,2.5093908E0,1.0610788E0,5.1575268E1,6.61255E1,2.4494925E1,5.238254E1,2.9527233E0,1.4059053E1,6.920541E0,1.42914295E1,1.4814508E2,8.304744E1,3.2304607E1,1.906212E1,6.4719574E1,2.387976E1,1.5915263E2,3.703966E1,6.638376E0,5.0224026E1,1.3512436E0,1.3179593E1,5.2945915E1,5.046526E0,1.9448399E1,1.876691E0,5.050585E1,1.7656405E0,1.1870828E0,2.4538605E0,1.1605193E1,5.7993317E0,1.1212091E0,9.267589E0,5.0238414E0,1.4551976E2,2.6253266E0,6.5113884E1,1.7933556E1,1.4749798E1,1.7554811E1,6.779687E0,1.2282434E1,5.6606564E1,8.1130085E0,6.7026224E0,1.717714E1,6.3604903E0,1.5279214E2,3.019493E1,6.844732E0,1.0341508E0,5.604225E0,1.1485342E0,4.907549E1,7.863341E0,5.316252E0,4.8826073E1,4.119839E0,4.0416923E0,1.0048337E0,1.4447882E0,1.800361E1,1.0368984E0,4.9468952E1,1.4483633E0,1.0054973E0,8.014579E0,3.590614E0,4.760133E0,1.0391988E0,1.4897188E0,7.7778697E0,3.9533129E0,1.0705287E0,1.4240054E2,3.1192145E0,1.6005011E0,1.0248255E0],"tree_param":{"num_deleted":"0","num_feature":"384","num_nodes":"99","size_leaf_vector":"1"}},{"base_weights":[-3.438126E-2,2.7888644E-1,-4.305167E-1,-2.7160087E-1,5.708799E-1,-2.1663183E-2,-7.662267E-1,4.4203076E-1,-5.945891E-1,-2.7187357E-2,7.0959955E-1,-5.34356E-1,4.5666137E-1,-9.1196847E-1,-4.310304E-1,7.553036E-1,-2.986359E-1,-8.1814694E-1,4.241834E-3,2.138975E-1,-7.5905806E-1,-1.3809481E-1,7.947034E-1,-7.997874E-1,-4.3642927E-2,5.75479E-1,-2.554674E-1,2.935867E-1,-9.371875E-1,1.07113056E-1,-6.975006E-1,8.523636E-1,-1.8492448E-1,-8.1745255E-1,3.4029815E-1,-9.1273737E-1,7.413535E-2,3.4663284E-1,-5.819128E-1,6.150958E-1,-4.7943684E-1,7.392276E-2,-9.566371E-1,-6.4395934E-1,5.0764483E-1,8.352884E-1,-6.32963E-1,-9.773685E-1,-2.6581657E-1,3.717466E-1,-6.4040655E-1,6.838697E-1,-2.3687594E-1,-4.2712428E-2,1.7149702E-1,-9.658695E-1,-6.379906E-2,5.4087085E-1,-6.7889255E-1,-8.6946523E-1,1.8828526E-1,-9.566901E-2,2.906111E-1,-6.05273E-2,-2.6569057E-1,1.9587006E-1,-8.334807E-2,8.58017E-2,-2.824932E-1,1.5349525E-1,-1.8038745E-1,-9.4084576E-2,2.2289726E-1,8.5320875E-2,-2.3957811E-1,2.5945053E-1,-4.167884E-2,-2.7214336E-1,6.5819465E-2,-3.716637E-2,-3.1185162E-1,1.3490915E-1,-2.4773149E-1,2.5225988E-1,-1.7719887E-1,7.039624E-2,2.8167146E-1,1.7759906E-2,-2.3842163E-1,-3.097069E-1,9.997033E-2,-1.6124071E-1,1.4585209E-1,-1.1663521E-1,2.3680131E-1,1.17621645E-1,-2.4947095E-1,-1.346982E-2,2.5934303E-1,-2.9585415E-1,-4.5806963E-2,-2.0746192E-1,1.99508E-1,2.283537E-1,-1.8807442E-1,-2.5309747E-1,4.2403724E-2,-1.7138548E-2,-2.8178242E-1,-1.099903E-1,2.061076E-1],"categories":[],"categories_nodes":[],"categories_segments":[],"categories_sizes":[],"default_left":[0,0,0,0,0,0,0,0,0,0,0,0,0,0,0,0,0,0,0,0,0,0,0,0,0,0,0,0,0,0,0,0,0,0,0,0,0,0,0,0,0,0,0,0,0,0,0,0,0,0,0,0,0,0,0,0,0,0,0,0,0,0,0,0,0,0,0,0,0,0,0,0,0,0,0,0,0,0,0,0,0,0,0,0,0,0,0,0,0,0,0,0,0,0,0,0,0,0,0,0,0,0,0,0,0,0,0,0,0,0,0],"id":13,"left_children":[1,3,5,7,9,11,13,15,17,19,21,23,25,27,29,31,33,35,37,39,41,43,45,47,49,51,-1,53,55,57,59,61,-1,63,65,67,69,71,73,75,77,-1,79,81,83,85,87,89,91,93,95,97,-1,-1,-1,99,101,103,105,107,109,-1,-1,-1,-1,-1,-1,-1,-1,-1,-1,-1,-1,-1,-1,-1,-1,-1,-1,-1,-1,-1,-1,-1,-1,-1,-1,-1,-1,-1,-1,-1,-1,-1,-1,-1,-1,-1,-1,-1,-1,-1,-1,-1,-1,-1,-1,-1,-1,-1,-1],"loss_changes":[8.4702225E1,6.1429924E1,4.1349155E1,3.0872429E1,2.0711143E1,3.3819942E1,7.6900864E0,9.9594965E0,1.2299541E1,8.617659E0,1.4717621E1,8.632462E0,1.1583814E1,3.7540054E0,7.5368137E0,4.4882755E0,4.6492586E0,5.712906E0,5.4123135E0,1.0538836E1,2.6383014E0,6.639843E0,1.1199348E1,3.8296356E0,6.2907205E0,1.0309011E1,0E0,4.5793164E-1,2.7520218E0,6.5382957E0,5.4854164E0,4.1539764E0,0E0,1.3914633E-1,1.459614E0,2.3674622E0,2.4754455E0,4.686026E0,2.0942857E0,4.595541E0,4.4017525E0,0E0,5.8287144E-1,2.6137557E0,3.8082228E0,1.0951111E1,6.807649E-1,2.6494637E0,2.740593E0,5.079887E0,2.376328E0,8.16029E0,0E0,0E0,0E0,1.6443634E0,2.5836604E0,3.6211622E0,1.0490725E0,1.6155624E0,2.0513496E0,0E0,0E0,0E0,0E0,0E0,0E0,0E0,0E0,0E0,0E0,0E0,0E0,0E0,0E0,0E0,0E0,0E0,0E0,0E0,0E0,0E0,0E0,0E0,0E0,0E0,0E0,0E0,0E0,0E0,0E0,0E0,0E0,0E0,0E0,0E0,0E0,0E0,0E0,0E0,0E0,0E0,0E0,0E0,0E0,0E0,0E0,0E0,0E0,0E0,0E0],"parents":[2147483647,0,0,1,1,2,2,3,3,4,4,5,5,6,6,7,7,8,8,9,9,10,10,11,11,12,12,13,13,14,14,15,15,16,16,17,17,18,18,19,19,20,20,21,21,22,22,23,23,24,24,25,25,27,27,28,28,29,29,30,30,31,31,33,33,34,34,35,35,36,36,37,37,38,38,39,39,40,40,42,42,43,43,44,44,45,45,46,46,47,47,48,48,49,49,50,50,51,51,55,55,56,56,57,57,58,58,59,59,60,60],"right_children":[2,4,6,8,10,12,14,16,18,20,22,24,26,28,30,32,34,36,38,40,42,44,46,48,50,52,-1,54,56,58,60,62,-1,64,66,68,70,72,74,76,78,-1,80,82,84,86,88,90,92,94,96,98,-1,-1,-1,100,102,104,106,108,110,-1,-1,-1,-1,-1,-1,-1,-1,-1,-1,-1,-1,-1,-1,-1,-1,-1,-1,-1,-1,-1,-1,-1,-1,-1,-1,-1,-1,-1,-1,-1,-1,-1,-1,-1,-1,-1,-1,-1,-1,-1,-1,-1,-1,-1,-1,-1,-1,-1,-1],"split_conditions":[-8.494626E-3,-2.3723701E-2,-3.837232E-2,